~o
<STREAMINFO> 1 25
<VECSIZE> 25<NULLD><MFCC_D_N_Z_0><DIAGC>
~h "b"
<BEGINHMM>
<NUMSTATES> 5
<STATE> 2
<MEAN> 25
 9.748928e-01 4.103435e+00 2.469779e+00 1.803531e+00 1.245153e+00 5.502033e+00 1.817480e+00 -8.184080e-01 -1.595910e+00 -1.341977e+00 -2.218866e+00 -8.186148e-01 1.456482e+00 -2.600043e-01 -1.377505e+00 -6.242853e-02 1.925532e+00 -2.277478e+00 -1.638689e+00 -2.815051e+00 -2.095014e+00 -1.119562e+00 7.553238e-01 -1.104806e+00 2.332700e+00
<VARIANCE> 25
 2.194698e+01 4.372639e+01 4.889777e+01 5.121767e+01 7.645068e+01 6.176932e+01 5.161871e+01 8.406735e+01 5.616993e+01 4.321656e+01 4.071726e+01 3.167526e+01 1.299130e+00 5.520438e+00 6.339757e+00 6.631455e+00 1.119407e+01 8.164306e+00 6.930639e+00 5.853593e+00 4.679532e+00 5.180768e+00 5.175056e+00 2.752753e+00 1.944224e+00
<GCONST> 1.128681e+02
<STATE> 3
<MEAN> 25
 4.121669e+00 1.820860e+00 -3.505934e+00 3.292832e+00 9.462282e+00 -3.069578e+00 -5.083549e+00 -8.147374e+00 -5.604600e+00 -1.482670e+00 2.258240e+00 -2.614151e+00 3.619548e-01 -5.977848e-01 -6.738758e-01 6.717868e-01 1.210857e+00 -2.413744e+00 -1.092043e+00 -2.343787e-01 2.536057e-02 -9.070519e-02 5.201780e-01 -5.605837e-01 1.213295e+00
<VARIANCE> 25
 1.608078e+01 3.000084e+01 7.273549e+01 4.892727e+01 1.511138e+02 5.148846e+01 4.430485e+01 7.856907e+01 3.412637e+01 3.839386e+01 5.102306e+01 2.558163e+01 9.437707e-01 3.984543e+00 3.183199e+00 4.819221e+00 4.620846e+00 6.291686e+00 3.594426e+00 3.353214e+00 2.872248e+00 4.640561e+00 3.336806e+00 2.934382e+00 1.287210e+00
<GCONST> 1.068076e+02
<STATE> 4
<MEAN> 25
 4.134064e+00 -1.357542e-01 -3.371795e+00 4.348243e+00 1.002014e+01 -4.448956e+00 -5.596047e+00 -7.426980e+00 -5.150355e+00 -1.958325e+00 2.959082e-01 -3.571395e+00 -6.607013e-02 -1.716208e-01 1.261566e-01 3.772386e-01 1.366838e-01 -1.104463e+00 -5.037687e-01 1.930069e-01 1.479104e-01 -8.324756e-02 2.394948e-01 1.484001e-01 1.993543e-01
<VARIANCE> 25
 1.604114e+01 3.526567e+01 5.852760e+01 6.220588e+01 1.183767e+02 7.482842e+01 5.202270e+01 6.637953e+01 4.332498e+01 3.884851e+01 5.525135e+01 2.816856e+01 9.254631e-01 1.587196e+00 1.941907e+00 3.845484e+00 2.678949e+00 3.825457e+00 2.049423e+00 2.200186e+00 2.343328e+00 2.974753e+00 1.799702e+00 2.567667e+00 1.074984e+00
<GCONST> 1.022725e+02
<TRANSP> 5
 0.000000e+00 1.000000e+00 0.000000e+00 0.000000e+00 0.000000e+00
 0.000000e+00 6.716782e-01 3.283218e-01 0.000000e+00 0.000000e+00
 0.000000e+00 0.000000e+00 3.697548e-01 6.302452e-01 0.000000e+00
 0.000000e+00 0.000000e+00 0.000000e+00 5.230240e-01 4.769760e-01
 0.000000e+00 0.000000e+00 0.000000e+00 0.000000e+00 0.000000e+00
<ENDHMM>
~h "d"
<BEGINHMM>
<NUMSTATES> 5
<STATE> 2
<MEAN> 25
 -6.286054e-01 1.211495e+00 6.834621e+00 7.285395e+00 6.185660e+00 6.673230e+00 -1.304113e+00 -4.761642e+00 -2.467460e+00 -7.127917e-01 -2.604673e+00 -2.499464e+00 1.532626e+00 -6.190113e-01 -2.252718e+00 1.080825e-01 2.291687e+00 -3.201476e+00 -2.271907e+00 -2.817188e+00 -1.811038e+00 -1.305871e+00 4.975551e-01 -1.122609e+00 2.516586e+00
<VARIANCE> 25
 2.056419e+01 2.925425e+01 6.581098e+01 4.475925e+01 5.982475e+01 8.117129e+01 6.187972e+01 7.208498e+01 4.350409e+01 3.631175e+01 3.264605e+01 2.895212e+01 1.716774e+00 3.854596e+00 5.684980e+00 5.952167e+00 8.630697e+00 8.998156e+00 5.429890e+00 6.171031e+00 4.363712e+00 3.608226e+00 4.095767e+00 3.293799e+00 1.895333e+00
<GCONST> 1.107153e+02
<STATE> 3
<MEAN> 25
 2.871258e+00 2.095234e-01 1.316055e+00 6.432529e+00 9.722022e+00 -2.119601e+00 -5.735518e+00 -9.303020e+00 -6.034187e+00 -4.104872e+00 -5.866545e-01 -3.884672e+00 -8.482384e-03 2.812697e-03 -4.109786e-01 -3.907508e-01 -4.081382e-01 -1.735613e+00 6.528285e-02 1.014822e+00 2.781065e-01 3.940781e-02 5.259987e-01 3.878935e-01 3.047920e-01
<VARIANCE> 25
 9.607238e+00 2.347604e+01 3.208941e+01 4.659414e+01 5.319204e+01 8.269153e+01 4.464359e+01 4.143285e+01 2.967948e+01 3.364370e+01 4.057037e+01 2.737843e+01 7.754534e-01 1.491681e+00 2.405802e+00 3.662812e+00 2.649855e+00 4.966332e+00 3.017038e+00 3.663383e+00 2.055790e+00 2.321391e+00 2.077783e+00 1.756556e+00 1.473630e+00
<GCONST> 9.905307e+01
<STATE> 4
<MEAN> 25
 1.757449e+00 -3.392060e-01 4.500523e-01 7.747652e+00 7.668060e+00 -8.356371e+00 -6.970188e+00 -5.059467e+00 -2.616657e+00 -1.858176e+00 1.190243e+00 -2.679838e+00 -6.914458e-02 1.200707e-01 4.114842e-02 -1.890786e-01 -7.042990e-01 1.754989e-01 1.528520e-01 3.148792e-01 2.869691e-01 3.141686e-01 5.502355e-02 4.330406e-02 -4.207759e-01
<VARIANCE> 25
 5.428482e+00 2.201012e+01 3.617819e+01 6.066700e+01 4.935612e+01 5.318199e+01 2.510919e+01 2.184684e+01 2.835104e+01 1.977873e+01 2.623763e+01 1.941357e+01 2.771460e-01 5.242710e-01 6.811275e-01 1.532707e+00 1.620518e+00 2.116765e+00 1.093567e+00 1.459014e+00 1.349508e+00 1.103056e+00 1.107478e+00 8.397049e-01 4.763829e-01
<GCONST> 8.456404e+01
<TRANSP> 5
 0.000000e+00 1.000000e+00 0.000000e+00 0.000000e+00 0.000000e+00
 0.000000e+00 7.143587e-01 2.856413e-01 0.000000e+00 0.000000e+00
 0.000000e+00 0.000000e+00 5.980579e-01 4.019420e-01 0.000000e+00
 0.000000e+00 0.000000e+00 0.000000e+00 8.632768e-01 1.367232e-01
 0.000000e+00 0.000000e+00 0.000000e+00 0.000000e+00 0.000000e+00
<ENDHMM>
~h "g"
<BEGINHMM>
<NUMSTATES> 5
<STATE> 2
<MEAN> 25
 1.392350e+00 -4.635344e-01 -2.564394e-01 5.101765e-01 1.519532e+00 3.117217e+00 3.301254e+00 -2.598687e+00 -4.425797e+00 6.004154e-01 1.173067e+00 -1.623276e+00 9.267074e-01 -4.230750e-01 -9.269236e-01 -2.751427e-01 1.118396e+00 -1.842998e+00 -1.215993e+00 -1.587365e+00 -9.404358e-01 -5.478377e-01 6.404185e-01 -5.003662e-01 1.721890e+00
<VARIANCE> 25
 2.807425e+01 5.113657e+01 6.397932e+01 9.531644e+01 8.373519e+01 8.088530e+01 1.027579e+02 8.622580e+01 7.648975e+01 5.491759e+01 5.235652e+01 4.950009e+01 1.932325e+00 5.927912e+00 6.891095e+00 1.091462e+01 9.250391e+00 7.868174e+00 1.177768e+01 6.641022e+00 7.326522e+00 5.162131e+00 6.011773e+00 4.667321e+00 1.977496e+00
<GCONST> 1.190998e+02
<STATE> 3
<MEAN> 25
 6.471350e+00 2.940690e+00 -7.399844e+00 -2.139986e+00 7.028753e+00 -8.933543e+00 -5.902084e+00 -5.666920e+00 -3.466556e+00 -1.513175e+00 4.319360e+00 -1.841094e+00 2.715559e-01 -1.988328e-02 -8.758235e-01 -2.004391e-01 -1.254074e-01 -1.281346e+00 -5.619045e-01 8.131634e-01 9.544661e-01 -1.178141e-01 4.229281e-01 5.481325e-01 2.384845e-01
<VARIANCE> 25
 1.922773e+01 3.520975e+01 1.130126e+02 8.122281e+01 9.313475e+01 7.184151e+01 6.747541e+01 4.379403e+01 3.837310e+01 3.263240e+01 5.382356e+01 2.012928e+01 4.173283e-01 1.355644e+00 1.935960e+00 2.878557e+00 2.772135e+00 2.971642e+00 2.678289e+00 2.868038e+00 3.214213e+00 2.280331e+00 1.779386e+00 1.969687e+00 6.734177e-01
<GCONST> 1.006561e+02
<STATE> 4
<MEAN> 25
 6.680859e+00 4.256733e+00 -1.008147e+01 -6.069375e+00 4.983526e-01 -1.130588e+01 -2.859701e+00 6.238347e-02 -7.912663e-01 -1.526691e+00 6.390760e+00 -1.384376e+00 -2.934583e-02 1.313934e-01 3.715480e-02 -1.870526e-01 -3.749653e-01 2.712619e-01 1.214996e-01 1.534982e-01 1.889908e-01 6.166095e-02 -2.590601e-01 -7.767254e-02 -2.516559e-01
<VARIANCE> 25
 2.265631e+01 2.352686e+01 1.582093e+02 7.272347e+01 1.147544e+02 3.758033e+01 4.606522e+01 2.460660e+01 2.718606e+01 2.152194e+01 3.031920e+01 1.624727e+01 1.845033e-01 3.773755e-01 8.021526e-01 1.310835e+00 1.581816e+00 1.289077e+00 9.534549e-01 1.054038e+00 1.314505e+00 1.039738e+00 8.231441e-01 5.987467e-01 1.939610e-01
<GCONST> 8.561779e+01
<TRANSP> 5
 0.000000e+00 1.000000e+00 0.000000e+00 0.000000e+00 0.000000e+00
 0.000000e+00 7.888038e-01 2.111962e-01 0.000000e+00 0.000000e+00
 0.000000e+00 0.000000e+00 6.178688e-01 3.821312e-01 0.000000e+00
 0.000000e+00 0.000000e+00 0.000000e+00 8.424228e-01 1.575772e-01
 0.000000e+00 0.000000e+00 0.000000e+00 0.000000e+00 0.000000e+00
<ENDHMM>
~h "h"
<BEGINHMM>
<NUMSTATES> 5
<STATE> 2
<MEAN> 25
 5.347591e+00 3.379669e+00 -9.557258e+00 -1.421307e+01 -4.753762e+00 3.147741e+00 7.664029e+00 2.833338e+00 1.757238e+00 9.381375e-01 4.180177e+00 4.602809e-01 4.093021e-01 3.300659e-01 -9.088559e-01 -2.254710e-01 7.116024e-01 -1.124827e+00 -1.578135e-01 6.553077e-01 6.198770e-01 4.303139e-01 2.937253e-01 -6.891146e-01 6.598724e-01
<VARIANCE> 25
 9.401998e+00 1.663590e+01 2.685197e+01 8.475756e+01 2.469367e+01 9.518375e+01 3.931143e+01 3.129185e+01 3.500373e+01 1.798217e+01 2.449259e+01 2.346817e+01 8.309934e-01 2.786019e+00 1.921765e+00 1.451711e+00 3.583366e+00 4.796776e+00 2.827219e+00 3.760432e+00 3.177738e+00 1.982792e+00 1.692049e+00 2.138892e+00 1.391862e+00
<GCONST> 9.693671e+01
<STATE> 3
<MEAN> 25
 6.488339e+00 2.594876e+00 -1.235593e+01 -1.107455e+01 -3.870343e+00 -5.290933e+00 4.112199e+00 4.388609e+00 2.910514e+00 -5.041028e-01 6.863986e+00 7.683311e-01 -1.136770e-01 -2.370778e-01 4.978456e-02 6.622102e-01 -1.667969e-01 -6.329721e-01 -3.420006e-01 1.291829e-01 6.874405e-02 -2.659054e-02 4.720198e-01 6.545582e-01 -1.428398e-01
<VARIANCE> 25
 4.493802e+00 1.283339e+01 4.299724e+01 5.644485e+01 2.552461e+01 5.726221e+01 2.452090e+01 2.982616e+01 2.212162e+01 1.374613e+01 2.221611e+01 3.419003e+01 1.759409e-01 5.458508e-01 5.772645e-01 1.360896e+00 1.517492e+00 1.685713e+00 8.837988e-01 1.421968e+00 1.165709e+00 1.414859e+00 6.672118e-01 5.280683e-01 2.845246e-01
<GCONST> 8.081202e+01
<STATE> 4
<MEAN> 25
 1.857191e+00 3.888108e+00 -4.299189e+00 -4.722203e+00 -4.725818e+00 -4.209818e+00 1.702843e+00 3.743184e+00 1.788378e+00 2.215981e+00 3.772336e+00 2.535334e+00 -7.022367e-01 -2.311222e-02 4.291548e-01 -1.170732e-01 2.646730e-01 6.562017e-01 -1.539219e-01 1.142238e-02 6.491406e-02 2.174775e-01 -6.006829e-01 5.609284e-01 -7.500080e-01
<VARIANCE> 25
 1.812665e+01 1.804597e+01 4.062678e+01 2.402485e+01 1.903627e+01 4.422266e+01 2.611238e+01 4.233712e+01 2.298981e+01 2.443762e+01 4.091906e+01 2.543068e+01 2.610633e-01 9.865006e-01 8.668313e-01 1.129463e+00 9.493947e-01 1.947607e+00 1.248348e+00 1.577908e+00 1.787642e+00 1.534024e+00 1.139450e+00 1.114019e+00 3.392395e-01
<GCONST> 8.572423e+01
<TRANSP> 5
 0.000000e+00 1.000000e+00 0.000000e+00 0.000000e+00 0.000000e+00
 0.000000e+00 5.208557e-01 4.791443e-01 0.000000e+00 0.000000e+00
 0.000000e+00 0.000000e+00 7.458742e-01 2.541258e-01 0.000000e+00
 0.000000e+00 0.000000e+00 0.000000e+00 7.660399e-01 2.339600e-01
 0.000000e+00 0.000000e+00 0.000000e+00 0.000000e+00 0.000000e+00
<ENDHMM>
~h "k"
<BEGINHMM>
<NUMSTATES> 5
<STATE> 2
<MEAN> 25
 6.682831e+00 2.043615e+00 -1.197242e+01 -1.213506e+01 -3.321642e+00 -4.475799e+00 5.186462e+00 3.418504e+00 1.264325e-01 -1.280686e+00 5.858392e+00 5.998753e-01 1.540631e+00 1.690949e+00 -1.447414e+00 -1.783580e-01 1.322895e+00 -1.661577e+00 -3.307513e-01 3.784181e-01 9.660462e-01 2.288774e-01 6.808773e-01 -1.368070e+00 1.297767e+00
<VARIANCE> 25
 2.664708e+01 5.107158e+01 9.635979e+01 5.929572e+01 6.685503e+01 1.071649e+02 8.341629e+01 4.804160e+01 4.507095e+01 2.785327e+01 6.104176e+01 4.039407e+01 2.340664e+00 6.556554e+00 3.349176e+00 4.845935e+00 4.478862e+00 5.927515e+00 2.799602e+00 4.280168e+00 2.026617e+00 3.546379e+00 2.660014e+00 4.094802e+00 3.385070e+00
<GCONST> 1.107916e+02
<STATE> 3
<MEAN> 25
 1.036225e+01 6.024873e+00 -1.667625e+01 -1.125020e+01 -1.698759e+00 -8.475104e+00 2.545936e+00 5.999937e+00 5.226812e+00 -2.036015e+00 4.671768e+00 -3.630888e+00 5.056632e-02 5.790058e-01 5.925521e-01 7.747424e-01 -3.194117e-01 1.238678e-01 -5.045667e-01 2.264210e-01 4.967146e-01 -9.555000e-02 -8.341327e-01 -2.755922e-01 -7.533491e-01
<VARIANCE> 25
 1.891100e+01 4.703419e+01 8.481694e+01 4.770739e+01 4.377272e+01 7.679012e+01 4.407137e+01 4.303609e+01 3.367370e+01 1.947389e+01 3.501252e+01 3.088365e+01 3.748436e-01 5.545343e-01 2.257587e+00 1.926253e+00 2.011535e+00 2.517544e+00 1.031041e+00 1.200799e+00 1.610865e+00 1.388250e+00 1.652037e+00 8.593089e-01 8.247801e-01
<GCONST> 9.288007e+01
<STATE> 4
<MEAN> 25
 4.111129e+00 6.916102e+00 -5.325106e+00 -4.148624e+00 -6.304314e+00 -6.021468e+00 9.870138e-01 7.370255e+00 4.322016e+00 8.009798e-01 -1.883983e+00 -1.818321e+00 -1.194612e+00 -3.618737e-01 9.132096e-01 8.036361e-01 -1.339104e-01 1.366350e+00 1.619873e-01 9.799381e-02 -5.527911e-01 7.006120e-01 -6.998773e-01 9.303878e-01 -1.711874e+00
<VARIANCE> 25
 2.199942e+01 3.081854e+01 3.169086e+01 2.855748e+01 3.904062e+01 6.670821e+01 5.465540e+01 5.190368e+01 2.798143e+01 2.886415e+01 2.616127e+01 2.728304e+01 7.232459e-01 1.733223e+00 2.147146e+00 2.446917e+00 1.792842e+00 2.459892e+00 1.482123e+00 1.393822e+00 1.807284e+00 1.917056e+00 1.619631e+00 2.243639e+00 1.432974e+00
<GCONST> 9.534110e+01
<TRANSP> 5
 0.000000e+00 1.000000e+00 0.000000e+00 0.000000e+00 0.000000e+00
 0.000000e+00 6.478401e-01 3.521598e-01 0.000000e+00 0.000000e+00
 0.000000e+00 0.000000e+00 7.454365e-01 2.545634e-01 0.000000e+00
 0.000000e+00 0.000000e+00 0.000000e+00 7.412786e-01 2.587213e-01
 0.000000e+00 0.000000e+00 0.000000e+00 0.000000e+00 0.000000e+00
<ENDHMM>
~h "l"
<BEGINHMM>
<NUMSTATES> 5
<STATE> 2
<MEAN> 25
 6.787541e+00 3.723652e+00 -7.909509e+00 -3.007482e+00 1.140515e-01 -8.673303e+00 -2.986321e-01 1.865847e+00 9.091377e-02 -5.030787e+00 8.667389e-01 -2.332821e+00 3.414348e-01 1.802862e-01 -6.079689e-01 -4.068187e-01 -5.605592e-01 -6.911346e-01 2.522508e-01 1.085091e+00 7.145615e-01 -9.190996e-02 1.882572e-02 -1.769228e-01 9.621570e-02
<VARIANCE> 25
 1.173799e+01 2.722898e+01 6.789017e+01 9.789725e+01 9.095683e+01 6.993422e+01 5.662946e+01 5.456491e+01 6.114976e+01 3.801144e+01 5.403284e+01 3.739434e+01 4.526117e-01 1.858106e+00 3.161640e+00 3.353384e+00 4.827593e+00 3.532043e+00 2.646383e+00 2.571556e+00 2.782128e+00 2.799861e+00 3.231431e+00 2.137224e+00 1.216710e+00
<GCONST> 1.037952e+02
<STATE> 3
<MEAN> 25
 6.623548e+00 5.408435e+00 -7.214532e+00 -4.352674e+00 -4.345047e+00 -8.617143e+00 1.576332e+00 5.447572e+00 2.189518e+00 -4.646730e+00 3.569493e-01 -2.651477e+00 -2.151981e-01 3.955847e-01 5.570695e-01 1.929196e-01 -3.931530e-01 6.194446e-01 -5.548005e-02 1.957011e-02 7.162569e-02 3.689280e-01 -2.212464e-01 1.341915e-01 -6.797305e-01
<VARIANCE> 25
 1.223549e+01 2.287442e+01 6.132779e+01 7.221236e+01 5.472075e+01 4.910534e+01 6.296896e+01 4.752319e+01 4.369815e+01 2.870935e+01 4.684071e+01 3.508259e+01 3.369766e-01 9.629471e-01 1.983353e+00 1.701176e+00 2.567250e+00 2.636159e+00 1.606124e+00 1.789982e+00 1.680077e+00 1.597669e+00 2.248580e+00 1.229669e+00 7.470514e-01
<GCONST> 9.518781e+01
<STATE> 4
<MEAN> 25
 1.581751e+00 6.465162e+00 8.984412e-01 -3.608636e+00 -8.572671e+00 3.251817e-01 4.260069e+00 6.780643e+00 3.003245e+00 -4.441531e-01 -3.373439e+00 -4.174741e-01 -7.924610e-01 -2.086594e-01 6.793915e-01 1.133220e-01 -2.296820e-01 8.976413e-01 3.522533e-01 8.418971e-02 -1.138911e-01 6.043754e-01 -2.419057e-01 3.969301e-01 -8.038023e-01
<VARIANCE> 25
 1.768327e+01 2.129320e+01 5.179474e+01 5.158424e+01 6.718487e+01 5.760631e+01 5.223745e+01 4.334980e+01 2.743268e+01 2.948919e+01 4.377217e+01 2.521964e+01 3.435379e-01 6.857027e-01 1.151029e+00 1.147528e+00 1.558890e+00 1.922551e+00 1.366518e+00 1.493398e+00 1.300267e+00 1.564673e+00 1.339510e+00 1.139282e+00 4.578132e-01
<GCONST> 9.045212e+01
<TRANSP> 5
 0.000000e+00 1.000000e+00 0.000000e+00 0.000000e+00 0.000000e+00
 0.000000e+00 6.520348e-01 3.479651e-01 0.000000e+00 0.000000e+00
 0.000000e+00 0.000000e+00 6.272982e-01 3.727017e-01 0.000000e+00
 0.000000e+00 0.000000e+00 0.000000e+00 7.752956e-01 2.247044e-01
 0.000000e+00 0.000000e+00 0.000000e+00 0.000000e+00 0.000000e+00
<ENDHMM>
~h "m"
<BEGINHMM>
<NUMSTATES> 5
<STATE> 2
<MEAN> 25
 2.656782e+00 3.160573e+00 3.203444e-01 3.707960e+00 4.840537e+00 2.492405e+00 -3.891829e+00 -3.200954e+00 9.618663e-01 -7.543894e-01 -3.606040e+00 -3.290586e+00 2.779585e-01 -8.381798e-01 -8.187273e-01 -1.015010e-01 3.193232e-01 -1.828889e+00 -9.334082e-01 -1.512282e-02 4.798662e-01 -1.325872e-01 5.731342e-01 4.210985e-01 9.280685e-01
<VARIANCE> 25
 2.616706e+01 5.694409e+01 4.461928e+01 5.523234e+01 6.284708e+01 8.863913e+01 6.660930e+01 4.612259e+01 6.394644e+01 4.567549e+01 4.735194e+01 4.885322e+01 1.048953e+00 1.977879e+00 3.272410e+00 7.328794e+00 5.627596e+00 8.886774e+00 5.842555e+00 5.839611e+00 4.823129e+00 4.668070e+00 4.849676e+00 3.981179e+00 1.554007e+00
<GCONST> 1.113094e+02
<STATE> 3
<MEAN> 25
 3.244393e+00 8.009408e-01 -9.589849e-01 5.151093e+00 5.491663e+00 -5.706006e+00 -7.456787e+00 -1.271525e+00 3.819498e+00 -1.535380e+00 -2.172750e+00 -1.564144e+00 -3.814688e-02 -5.315045e-01 -2.551451e-01 -2.204948e-01 -2.373892e-01 -1.136972e+00 6.098704e-02 6.029028e-01 5.592007e-02 -4.524637e-01 3.455876e-01 3.377707e-01 5.197578e-01
<VARIANCE> 25
 3.065520e+01 5.262644e+01 4.476084e+01 1.274337e+02 9.516489e+01 1.369946e+02 1.159906e+02 5.874047e+01 5.175389e+01 4.577464e+01 4.365924e+01 3.788474e+01 1.061440e+00 8.770447e-01 3.386784e+00 4.064671e+00 2.483196e+00 3.529262e+00 2.594388e+00 2.197280e+00 2.500528e+00 3.030380e+00 1.752338e+00 1.801621e+00 1.172637e+00
<GCONST> 1.052612e+02
<STATE> 4
<MEAN> 25
 -2.649925e-01 -1.566433e+00 3.196513e+00 1.626010e+00 2.939013e+00 -5.035411e-01 -3.041923e+00 -9.575797e-01 1.632513e+00 7.992631e-01 -1.785005e+00 -7.249295e-01 -1.812281e-01 -4.512520e-01 -2.195512e-01 -2.648579e-01 -1.452432e-01 -3.073849e-01 1.964687e-01 1.901709e-01 -1.046501e-01 3.940944e-02 2.870356e-01 3.156039e-01 6.833300e-02
<VARIANCE> 25
 3.301927e+01 4.185577e+01 6.380276e+01 1.383466e+02 6.088699e+01 1.013067e+02 6.073817e+01 4.414289e+01 3.467854e+01 3.821568e+01 3.121841e+01 3.129328e+01 1.065601e+00 9.237793e-01 2.308179e+00 2.776805e+00 1.638001e+00 1.983384e+00 1.513624e+00 1.556757e+00 1.881942e+00 1.959269e+00 1.329836e+00 1.475492e+00 1.033897e+00
<GCONST> 9.884842e+01
<TRANSP> 5
 0.000000e+00 1.000000e+00 0.000000e+00 0.000000e+00 0.000000e+00
 0.000000e+00 7.190949e-01 2.809051e-01 0.000000e+00 0.000000e+00
 0.000000e+00 0.000000e+00 3.714419e-01 6.285580e-01 0.000000e+00
 0.000000e+00 0.000000e+00 0.000000e+00 5.430775e-01 4.569225e-01
 0.000000e+00 0.000000e+00 0.000000e+00 0.000000e+00 0.000000e+00
<ENDHMM>
~h "n"
<BEGINHMM>
<NUMSTATES> 5
<STATE> 2
<MEAN> 25
 4.432212e+00 3.395566e+00 -3.856621e+00 -2.671866e+00 2.570755e+00 4.099695e+00 -3.660282e-01 -5.098873e+00 -2.478761e+00 3.193235e-01 4.052351e+00 -3.363770e-01 -3.328325e-02 -3.750692e-02 4.798472e-02 1.381718e-01 3.568545e-02 2.437532e-03 -9.861165e-02 -1.389663e-01 4.048290e-02 2.664113e-02 -2.580375e-01 -8.458513e-02 -5.017668e-02
<VARIANCE> 25
 5.050899e+00 2.285203e+01 3.361342e+01 3.733931e+01 3.216988e+01 5.994540e+01 2.768125e+01 2.061673e+01 2.868519e+01 2.402364e+01 2.918048e+01 1.908280e+01 3.477064e-01 2.194287e+00 2.684724e+00 3.186393e+00 2.220198e+00 7.382842e+00 2.420681e+00 2.174156e+00 3.035253e+00 2.020357e+00 2.553414e+00 1.503281e+00 1.359362e+00
<GCONST> 9.439859e+01
<STATE> 3
<MEAN> 25
 4.304101e+00 8.034973e-01 -2.827766e+00 1.994881e+00 3.075981e+00 -1.522237e+00 -3.281459e+00 -4.172456e+00 -3.783009e-01 -4.471704e-01 1.043459e+00 -1.276025e+00 -3.722300e-01 8.314866e-02 7.085182e-01 5.065098e-01 -2.818708e-01 -7.152037e-02 2.771794e-01 7.381104e-01 1.655699e-01 -3.292312e-01 -6.306942e-01 -1.068214e-02 -4.004406e-01
<VARIANCE> 25
 6.210515e+00 1.499791e+01 2.271413e+01 3.227081e+01 2.728060e+01 7.711385e+01 2.685628e+01 2.349803e+01 2.713805e+01 2.009854e+01 2.090980e+01 1.715158e+01 2.253015e-01 6.934156e-01 1.340744e+00 1.436272e+00 2.037473e+00 4.796360e+00 1.169958e+00 1.692129e+00 1.512211e+00 1.572677e+00 1.607090e+00 1.053181e+00 6.206084e-01
<GCONST> 8.603786e+01
<STATE> 4
<MEAN> 25
 1.803061e-01 2.010939e+00 2.279864e+00 3.783707e+00 -4.676809e-01 1.287508e+00 1.282102e+00 7.684945e-01 -2.449681e-01 -5.814916e-01 -1.142719e+00 7.174348e-01 -5.104297e-01 1.122845e-01 4.980143e-01 5.298068e-02 -1.311450e-01 4.395955e-01 3.534323e-01 4.140412e-01 1.572905e-01 2.026387e-01 -7.916132e-02 2.427608e-01 -5.086029e-01
<VARIANCE> 25
 1.074111e+01 2.047233e+01 3.345744e+01 2.879876e+01 2.537331e+01 9.320383e+01 2.192789e+01 3.092299e+01 3.254156e+01 2.711743e+01 2.020938e+01 1.760826e+01 2.452818e-01 3.645850e-01 6.064097e-01 6.999541e-01 7.871395e-01 1.196387e+00 9.051834e-01 8.940099e-01 9.441904e-01 9.940929e-01 7.537521e-01 7.161809e-01 1.546605e-01
<GCONST> 7.906627e+01
<TRANSP> 5
 0.000000e+00 1.000000e+00 0.000000e+00 0.000000e+00 0.000000e+00
 0.000000e+00 7.653677e-01 2.346322e-01 0.000000e+00 0.000000e+00
 0.000000e+00 0.000000e+00 6.092092e-01 3.907908e-01 0.000000e+00
 0.000000e+00 0.000000e+00 0.000000e+00 8.764484e-01 1.235516e-01
 0.000000e+00 0.000000e+00 0.000000e+00 0.000000e+00 0.000000e+00
<ENDHMM>
~h "p"
<BEGINHMM>
<NUMSTATES> 5
<STATE> 2
<MEAN> 25
 -1.480089e+00 5.794082e-01 2.400458e+00 -4.355395e+00 -4.505726e+00 1.292409e+00 1.105455e+00 2.243271e-01 -1.818991e+00 -3.656050e-02 -2.473355e+00 1.036450e+00 2.542096e+00 7.887546e-01 -2.217933e+00 -1.288341e+00 2.139023e+00 -2.708000e+00 -8.566251e-01 -1.661434e+00 -9.362466e-01 -1.358890e+00 1.376564e+00 -1.440992e+00 3.479420e+00
<VARIANCE> 25
 3.021505e+01 3.083432e+01 4.425123e+01 6.834839e+01 4.868045e+01 6.617049e+01 4.180143e+01 4.446110e+01 3.902549e+01 3.573563e+01 3.657824e+01 2.605484e+01 2.572665e+00 6.092992e+00 6.609113e+00 1.131742e+01 7.420632e+00 1.052049e+01 7.432478e+00 8.103044e+00 5.872633e+00 4.008195e+00 7.241063e+00 3.453748e+00 3.837314e+00
<GCONST> 1.137487e+02
<STATE> 3
<MEAN> 25
 4.561012e+00 1.531849e+00 -5.892991e+00 -8.047252e+00 3.418198e+00 -6.307553e+00 -1.773990e+00 -3.799639e+00 -3.141106e+00 -2.704485e+00 2.982272e+00 -2.159357e+00 1.045730e+00 -4.201178e-01 -2.328651e+00 1.004691e+00 2.167343e+00 -1.903338e+00 -8.146853e-01 -5.290732e-01 2.144836e-01 -1.122444e-01 1.779315e+00 -4.427366e-01 1.641770e+00
<VARIANCE> 25
 1.072051e+01 3.274561e+01 5.438715e+01 7.906681e+01 4.301837e+01 7.637393e+01 4.292656e+01 6.755841e+01 5.557408e+01 2.594580e+01 4.141982e+01 3.299036e+01 1.488355e+00 3.171535e+00 5.573854e+00 8.591065e+00 5.907593e+00 5.811931e+00 3.815427e+00 4.514159e+00 3.275357e+00 3.830068e+00 4.810079e+00 3.046190e+00 3.368858e+00
<GCONST> 1.089693e+02
<STATE> 4
<MEAN> 25
 5.585138e+00 9.582209e-01 -8.855612e+00 -4.138608e+00 4.422427e+00 -8.799191e+00 -1.864385e+00 -8.631034e-01 -3.288791e-01 -2.429914e+00 4.145398e+00 -1.863763e+00 1.291583e-01 -5.790014e-01 -4.460693e-01 1.710205e+00 6.849400e-01 -2.810649e-01 -5.598921e-01 -1.003373e-03 5.227428e-01 7.882246e-02 4.112338e-01 2.589616e-01 -9.918131e-02
<VARIANCE> 25
 8.649737e+00 2.326023e+01 5.254887e+01 7.309619e+01 4.314376e+01 6.167332e+01 4.225817e+01 9.358012e+01 5.165065e+01 2.280418e+01 4.319875e+01 3.013920e+01 4.791904e-01 1.145245e+00 2.276288e+00 2.742027e+00 2.806897e+00 3.116808e+00 1.556777e+00 1.819232e+00 1.790818e+00 2.299178e+00 1.854646e+00 1.387345e+00 9.474588e-01
<GCONST> 9.666428e+01
<TRANSP> 5
 0.000000e+00 1.000000e+00 0.000000e+00 0.000000e+00 0.000000e+00
 0.000000e+00 6.648089e-01 3.351912e-01 0.000000e+00 0.000000e+00
 0.000000e+00 0.000000e+00 2.915246e-01 7.084754e-01 0.000000e+00
 0.000000e+00 0.000000e+00 0.000000e+00 5.601025e-01 4.398975e-01
 0.000000e+00 0.000000e+00 0.000000e+00 0.000000e+00 0.000000e+00
<ENDHMM>
~h "r"
<BEGINHMM>
<NUMSTATES> 5
<STATE> 2
<MEAN> 25
 2.746119e+00 1.669267e+00 -1.601685e+00 -4.762512e+00 -8.144990e-01 2.807146e+00 6.116706e-01 -7.616734e-01 1.411441e-01 2.645270e-01 -7.065465e-01 2.326592e-01 -8.068174e-02 -3.546516e-01 -5.732152e-02 -4.021919e-01 5.488257e-01 7.159682e-02 -8.519134e-02 -2.718385e-01 -2.346830e-01 2.598607e-01 -8.735135e-03 -2.053310e-01 3.363264e-01
<VARIANCE> 25
 1.907341e+01 3.548040e+01 5.583631e+01 5.866089e+01 4.989008e+01 3.895095e+01 3.303500e+01 3.105947e+01 3.632698e+01 2.832862e+01 3.015621e+01 2.049421e+01 2.541588e+00 3.790803e+00 6.554382e+00 1.143349e+01 7.199604e+00 2.773078e+00 5.310661e+00 3.449825e+00 3.025014e+00 3.662244e+00 3.248126e+00 2.529985e+00 7.339108e+00
<GCONST> 1.074155e+02
<STATE> 3
<MEAN> 25
 1.515998e+00 -3.670572e-01 -2.520755e+00 -7.189424e+00 6.968200e-01 3.785144e+00 -4.262140e-02 -2.105781e+00 -7.593924e-01 3.985376e-02 -1.884741e+00 1.015568e+00 -7.703710e-01 -8.518007e-01 2.205366e-01 -2.175296e-01 1.046260e+00 -3.330263e-01 -4.284301e-01 -2.221797e-02 -3.527246e-02 1.871789e-01 -1.177336e-01 -9.429453e-02 3.650683e-01
<VARIANCE> 25
 2.121252e+01 1.801116e+01 7.290601e+01 6.114763e+01 7.604632e+01 4.728671e+01 3.162380e+01 4.747667e+01 4.604029e+01 2.834608e+01 5.520765e+01 1.654606e+01 1.041262e+00 1.043668e+00 3.473472e+00 6.363350e+00 6.621553e+00 2.406106e+00 2.997960e+00 3.209367e+00 1.877532e+00 3.095741e+00 2.839842e+00 2.812526e+00 2.944494e+00
<GCONST> 1.029169e+02
<STATE> 4
<MEAN> 25
 2.347882e-01 -1.923474e+00 -1.623998e+00 -8.156279e+00 2.117097e+00 1.544832e+00 -1.932503e+00 -3.685524e-01 1.337295e+00 -1.026066e+00 -2.556932e+00 1.817322e+00 -1.601593e-01 -2.232075e-01 -2.324207e-02 5.660064e-01 1.691262e-01 -6.091194e-01 -3.243344e-02 5.023690e-01 1.376565e-01 1.118529e-02 1.339623e-01 -3.012085e-02 -9.765883e-02
<VARIANCE> 25
 2.369020e+01 1.880715e+01 8.377541e+01 7.946976e+01 8.302015e+01 4.716415e+01 3.759714e+01 3.997288e+01 3.087047e+01 3.223113e+01 5.072854e+01 1.868801e+01 1.260844e+00 1.038321e+00 3.420817e+00 4.883551e+00 2.300318e+00 1.717502e+00 1.717481e+00 1.581319e+00 1.581913e+00 2.258908e+00 1.301668e+00 1.439635e+00 1.526977e+00
<GCONST> 9.797771e+01
<TRANSP> 5
 0.000000e+00 1.000000e+00 0.000000e+00 0.000000e+00 0.000000e+00
 0.000000e+00 7.023295e-01 2.976705e-01 0.000000e+00 0.000000e+00
 0.000000e+00 0.000000e+00 3.105919e-01 6.894081e-01 0.000000e+00
 0.000000e+00 0.000000e+00 0.000000e+00 6.052582e-01 3.947418e-01
 0.000000e+00 0.000000e+00 0.000000e+00 0.000000e+00 0.000000e+00
<ENDHMM>
~h "s"
<BEGINHMM>
<NUMSTATES> 5
<STATE> 2
<MEAN> 25
 -1.206931e+01 -1.098489e+01 2.080421e+01 -6.987692e+00 -7.251787e+00 1.395097e+01 4.557323e+00 -2.959939e+00 3.290781e-01 5.506377e+00 -3.956223e-01 3.995163e+00 -9.592938e-01 -8.285798e-01 1.681741e+00 -8.983116e-01 -8.550990e-01 4.917245e-01 2.576041e-01 -1.668610e-01 1.529641e-03 1.044582e-01 -2.077385e-01 1.878723e-01 2.119937e-01
<VARIANCE> 25
 6.322483e+01 4.935751e+01 1.272196e+02 9.045110e+01 6.330763e+01 8.104121e+01 8.160244e+01 4.112721e+01 4.077598e+01 4.236861e+01 3.398222e+01 3.011137e+01 4.885452e+00 4.999085e+00 8.953443e+00 5.109143e+00 2.833935e+00 4.538095e+00 3.497818e+00 2.452214e+00 2.164194e+00 2.563718e+00 2.476551e+00 1.519874e+00 8.930372e-01
<GCONST> 1.090379e+02
<STATE> 3
<MEAN> 25
 -3.904692e+00 -6.891887e+00 1.118378e+01 -2.595097e+00 -4.905744e+00 5.629005e+00 6.046424e-01 -3.291605e+00 6.713465e-01 -5.293274e-02 -7.033020e-01 1.343915e+00 2.487076e+00 2.091952e+00 -2.792634e+00 6.444767e-01 7.538460e-01 -1.846055e+00 -6.403686e-01 -2.878789e-01 6.072893e-01 -1.264437e+00 8.348027e-02 -8.058352e-01 1.046113e+00
<VARIANCE> 25
 7.743668e+01 6.950618e+01 1.229261e+02 1.087212e+02 7.290227e+01 1.217398e+02 1.262392e+02 6.598628e+01 4.160461e+01 3.835742e+01 4.108715e+01 3.212873e+01 6.683337e+00 7.922844e+00 1.210283e+01 1.156465e+01 7.012595e+00 9.420982e+00 9.810317e+00 4.958728e+00 3.695371e+00 4.236085e+00 3.540482e+00 3.015257e+00 3.981238e+00
<GCONST> 1.202037e+02
<STATE> 4
<MEAN> 25
 -7.943424e+00 -1.052518e+01 1.104204e+01 9.032872e-01 -6.895246e+00 2.036307e+00 6.945271e+00 1.623357e+00 -3.642387e-01 1.007184e+00 -1.521409e-01 1.681944e+00 4.037515e-01 4.860771e-01 -1.301296e+00 2.955728e-01 3.447037e-01 -3.114263e-01 5.665284e-02 5.178214e-01 1.176426e-01 -1.716856e-01 -8.950986e-02 -2.608776e-01 -3.189355e-01
<VARIANCE> 25
 9.424834e+01 8.107269e+01 1.398188e+02 8.893795e+01 5.003808e+01 1.215959e+02 9.286872e+01 4.128599e+01 3.724394e+01 4.142828e+01 3.515624e+01 2.462887e+01 1.140786e+00 1.573251e+00 2.865842e+00 2.744788e+00 2.328804e+00 3.058272e+00 2.621117e+00 1.853507e+00 1.748932e+00 1.564230e+00 1.208319e+00 1.209882e+00 1.047305e+00
<GCONST> 1.030105e+02
<TRANSP> 5
 0.000000e+00 1.000000e+00 0.000000e+00 0.000000e+00 0.000000e+00
 0.000000e+00 8.585771e-01 1.414229e-01 0.000000e+00 0.000000e+00
 0.000000e+00 0.000000e+00 6.280083e-01 3.719917e-01 0.000000e+00
 0.000000e+00 0.000000e+00 0.000000e+00 7.015867e-01 2.984133e-01
 0.000000e+00 0.000000e+00 0.000000e+00 0.000000e+00 0.000000e+00
<ENDHMM>
~h "t"
<BEGINHMM>
<NUMSTATES> 5
<STATE> 2
<MEAN> 25
 1.061059e+00 -1.162545e+00 3.771991e-01 9.191078e-01 7.847271e-01 2.737385e-01 -1.522750e+00 -2.505311e+00 -2.852999e+00 -2.188328e+00 -1.746476e+00 5.627580e-01 1.546650e+00 9.186224e-01 1.592621e-01 8.998491e-01 1.579103e+00 -1.119430e+00 -9.450105e-01 -1.335613e+00 -7.381598e-01 -1.193919e+00 -1.305093e-01 -1.148950e+00 1.689515e+00
<VARIANCE> 25
 3.883774e+01 5.294677e+01 4.055746e+01 9.791942e+01 6.460081e+01 6.786024e+01 6.620128e+01 6.807736e+01 5.084129e+01 5.597716e+01 4.711907e+01 3.805917e+01 3.683641e+00 8.083034e+00 4.480447e+00 9.634473e+00 7.812975e+00 1.027703e+01 7.414496e+00 7.741555e+00 5.429081e+00 6.428641e+00 5.235222e+00 4.604318e+00 4.990723e+00
<GCONST> 1.180440e+02
<STATE> 3
<MEAN> 25
 3.815268e+00 1.052378e+00 -9.526361e-01 3.864739e+00 6.710835e+00 -4.076974e+00 -7.692178e+00 -8.574800e+00 -3.229713e+00 -1.529879e+00 5.330943e-01 -2.311396e+00 -1.983300e-01 3.323804e-01 3.257415e-01 4.093121e-01 -1.076447e-01 -1.938167e-01 -1.904211e-01 2.571984e-01 4.912147e-01 4.387323e-01 -9.163022e-03 -3.072026e-01 -4.375875e-01
<VARIANCE> 25
 1.861709e+01 4.003788e+01 3.210612e+01 6.921487e+01 5.445644e+01 8.465114e+01 6.695895e+01 7.594408e+01 4.375641e+01 6.684526e+01 6.792432e+01 4.616010e+01 8.804695e-01 1.722643e+00 1.526861e+00 2.636740e+00 3.238454e+00 4.486754e+00 1.978388e+00 3.071752e+00 2.334405e+00 2.313114e+00 2.083131e+00 2.235289e+00 1.759073e+00
<GCONST> 1.033481e+02
<STATE> 4
<MEAN> 25
 1.242348e+00 6.497700e-01 2.994218e-01 3.880584e+00 3.155232e+00 -2.573688e-01 -4.676358e+00 -4.941181e+00 -2.835310e+00 -7.536550e-01 -6.640418e-01 -4.155378e-01 -5.271221e-01 1.511701e-01 1.383370e-01 -4.931621e-02 -3.699950e-01 1.983816e-01 6.105926e-01 9.764318e-01 2.958284e-01 8.855369e-02 -1.260115e-01 9.458327e-02 -6.510326e-01
<VARIANCE> 25
 2.129120e+01 4.630268e+01 2.702504e+01 5.164575e+01 4.184402e+01 7.647096e+01 5.929761e+01 5.847324e+01 4.148563e+01 5.035234e+01 3.591285e+01 4.403081e+01 7.574855e-01 1.099912e+00 1.492046e+00 2.219974e+00 2.219611e+00 2.503448e+00 3.168945e+00 2.603910e+00 2.036046e+00 2.676679e+00 1.815599e+00 1.241149e+00 1.196055e+00
<GCONST> 9.884156e+01
<TRANSP> 5
 0.000000e+00 1.000000e+00 0.000000e+00 0.000000e+00 0.000000e+00
 0.000000e+00 6.784141e-01 3.215859e-01 0.000000e+00 0.000000e+00
 0.000000e+00 0.000000e+00 4.745481e-01 5.254519e-01 0.000000e+00
 0.000000e+00 0.000000e+00 0.000000e+00 5.487895e-01 4.512105e-01
 0.000000e+00 0.000000e+00 0.000000e+00 0.000000e+00 0.000000e+00
<ENDHMM>
~h "ah"
<BEGINHMM>
<NUMSTATES> 5
<STATE> 2
<MEAN> 25
 6.297407e+00 -1.019778e+00 -1.238746e+01 -8.150488e+00 1.535334e+00 -6.772592e+00 4.843889e-01 1.949790e+00 2.622673e+00 -2.977282e+00 4.531595e+00 2.098268e-01 1.609151e-01 7.250729e-02 -3.558546e-01 4.961645e-01 8.032185e-02 6.847343e-02 6.901778e-03 -4.840441e-02 -1.349750e-01 5.909754e-02 2.041002e-01 5.375518e-02 -2.701563e-01
<VARIANCE> 25
 1.065536e+01 2.377581e+01 6.896104e+01 5.880494e+01 3.974561e+01 4.840448e+01 4.272943e+01 3.470623e+01 3.727615e+01 2.937623e+01 2.784637e+01 2.544917e+01 5.122474e-01 8.780389e-01 2.289206e+00 3.302753e+00 2.835122e+00 2.517637e+00 1.512080e+00 1.758126e+00 1.978279e+00 1.617036e+00 1.447851e+00 1.091033e+00 1.140608e+00
<GCONST> 9.413393e+01
<STATE> 3
<MEAN> 25
 5.640710e+00 9.440049e-01 -9.269266e+00 -4.509876e+00 -8.662559e-01 -3.573157e+00 7.867419e-01 1.635140e+00 1.333286e+00 -1.112485e+00 3.337290e+00 9.990686e-01 -6.626536e-01 2.508246e-01 1.219228e+00 5.950399e-01 -5.448738e-01 1.504689e+00 2.656173e-01 1.917702e-01 -1.424305e-01 6.391533e-01 -7.094498e-01 3.748986e-01 -1.413828e+00
<VARIANCE> 25
 8.594210e+00 1.870455e+01 3.769460e+01 4.221800e+01 4.143237e+01 4.085750e+01 3.064384e+01 3.179820e+01 2.833954e+01 2.828934e+01 2.728156e+01 2.606273e+01 4.801722e-01 1.006777e+00 1.913045e+00 2.031733e+00 2.070957e+00 2.858371e+00 1.716920e+00 1.737139e+00 1.879965e+00 1.514462e+00 1.495335e+00 1.231361e+00 7.302035e-01
<GCONST> 9.081274e+01
<STATE> 4
<MEAN> 25
 -7.474087e-01 8.934028e-01 -1.334423e+00 -1.795105e+00 -3.519333e+00 3.832945e+00 2.600417e+00 3.401929e+00 1.557327e+00 2.786766e+00 -5.315531e-01 2.841384e+00 -8.653115e-01 -9.029905e-02 8.197025e-01 2.583674e-01 -1.532299e-01 6.441264e-01 1.512611e-01 4.878773e-02 -1.369848e-01 3.760602e-01 -2.992709e-01 2.648440e-01 -8.008919e-01
<VARIANCE> 25
 1.968549e+01 2.690162e+01 3.559179e+01 3.621025e+01 3.566071e+01 3.798140e+01 3.681305e+01 2.514800e+01 2.145707e+01 2.248849e+01 2.256797e+01 2.616857e+01 3.277354e-01 1.015420e+00 9.538528e-01 1.076331e+00 1.185806e+00 1.610531e+00 1.337757e+00 1.092175e+00 1.351575e+00 1.297921e+00 1.005127e+00 1.162550e+00 3.658232e-01
<GCONST> 8.564675e+01
<TRANSP> 5
 0.000000e+00 1.000000e+00 0.000000e+00 0.000000e+00 0.000000e+00
 0.000000e+00 8.117429e-01 1.882571e-01 0.000000e+00 0.000000e+00
 0.000000e+00 0.000000e+00 7.283664e-01 2.716335e-01 0.000000e+00
 0.000000e+00 0.000000e+00 0.000000e+00 8.333274e-01 1.666726e-01
 0.000000e+00 0.000000e+00 0.000000e+00 0.000000e+00 0.000000e+00
<ENDHMM>
~h "ax"
<BEGINHMM>
<NUMSTATES> 5
<STATE> 2
<MEAN> 25
 1.564077e+00 1.888010e+00 1.330275e+00 1.634663e+00 2.317473e-02 2.452153e+00 -7.831633e-03 -1.740829e+00 -1.581079e+00 -1.668264e+00 -1.362867e+00 -3.702768e-01 -3.928387e-01 3.620690e-01 5.290798e-01 2.021044e-01 1.257797e-01 7.576130e-01 7.661095e-02 -2.855032e-02 1.462492e-02 3.046689e-01 -3.206973e-01 3.064715e-02 -6.370364e-01
<VARIANCE> 25
 3.014785e+01 3.261900e+01 4.867781e+01 3.874992e+01 3.111724e+01 6.341002e+01 2.580254e+01 2.377677e+01 2.503466e+01 2.450557e+01 2.656863e+01 2.982824e+01 1.005945e+00 1.528164e+00 1.854091e+00 1.560310e+00 1.784749e+00 3.049685e+00 1.453697e+00 1.640685e+00 1.253527e+00 1.960496e+00 1.937638e+00 2.041601e+00 1.165752e+00
<GCONST> 9.396473e+01
<STATE> 3
<MEAN> 25
 9.233111e-01 4.223548e+00 3.533156e+00 3.901457e+00 2.354539e+00 2.862235e+00 -2.281865e+00 -3.823645e+00 -7.165908e-01 -1.471428e+00 -2.917078e+00 -2.326552e+00 -8.170605e-02 -6.272121e-02 -4.362921e-02 5.427469e-02 2.145521e-01 -2.172725e-01 -1.285990e-01 -9.192474e-02 5.502591e-02 3.359604e-01 -6.730300e-02 -2.496791e-01 -1.594302e-02
<VARIANCE> 25
 3.331938e+01 2.924660e+01 5.587559e+01 5.147958e+01 4.423274e+01 4.604608e+01 3.418792e+01 3.905249e+01 2.557980e+01 1.678922e+01 2.419139e+01 2.886077e+01 4.901686e-01 1.093543e+00 1.709345e+00 1.681583e+00 1.649926e+00 2.128866e+00 1.066606e+00 1.296607e+00 1.362280e+00 1.287333e+00 1.301690e+00 1.044874e+00 6.541205e-01
<GCONST> 9.067771e+01
<STATE> 4
<MEAN> 25
 1.826171e+00 -1.476832e+00 1.526109e+00 -2.537167e+00 3.460777e+00 -7.441264e-01 -3.690947e+00 -5.054977e+00 -3.155314e-01 -8.251893e-01 -1.033984e+00 -7.504606e-01 4.593640e-01 -5.262630e-01 -9.305451e-01 -8.494385e-01 -9.752245e-02 -9.731724e-01 -1.948985e-01 2.133528e-01 4.805169e-01 3.638552e-01 4.383506e-01 5.047129e-02 8.335201e-01
<VARIANCE> 25
 3.605151e+01 6.015984e+01 6.107912e+01 9.454879e+01 6.150251e+01 5.210364e+01 5.138283e+01 6.122840e+01 2.980294e+01 2.750546e+01 3.129242e+01 3.317985e+01 2.527826e+00 3.238869e+00 7.105483e+00 1.009662e+01 5.144688e+00 5.277403e+00 4.960401e+00 3.163064e+00 3.008754e+00 3.130102e+00 3.456280e+00 3.040436e+00 3.785738e+00
<GCONST> 1.104268e+02
<TRANSP> 5
 0.000000e+00 1.000000e+00 0.000000e+00 0.000000e+00 0.000000e+00
 0.000000e+00 7.185747e-01 2.814254e-01 0.000000e+00 0.000000e+00
 0.000000e+00 0.000000e+00 5.945461e-01 4.054540e-01 0.000000e+00
 0.000000e+00 0.000000e+00 0.000000e+00 6.294553e-01 3.705447e-01
 0.000000e+00 0.000000e+00 0.000000e+00 0.000000e+00 0.000000e+00
<ENDHMM>
~h "ch"
<BEGINHMM>
<NUMSTATES> 5
<STATE> 2
<MEAN> 25
 -6.582273e+00 -2.000617e+00 6.477393e+00 -2.974517e+00 -6.917614e+00 8.686569e+00 6.512705e+00 5.337239e+00 -1.415754e-02 2.006239e+00 -3.427190e+00 1.477259e+00 -2.013773e+00 -4.006324e+00 3.720339e+00 -1.187281e+00 -1.372633e+00 3.295048e-01 4.803536e-01 -4.821308e-02 -4.469730e-01 -2.291156e-01 3.700653e-01 -3.891993e-01 1.623491e+00
<VARIANCE> 25
 1.127065e+01 3.869790e+01 4.521074e+01 3.154887e+01 3.961389e+01 5.804031e+01 7.152643e+01 3.108688e+01 2.218697e+01 2.216522e+01 1.903544e+01 1.695176e+01 1.301899e+00 2.867446e+00 5.697299e+00 6.144498e+00 3.559088e+00 3.498175e+00 6.873413e+00 3.308264e+00 5.215488e+00 2.785740e+00 3.851326e+00 1.734997e+00 1.053062e+00
<GCONST> 1.018556e+02
<STATE> 3
<MEAN> 25
 -1.215832e+01 -1.620632e+01 1.899998e+01 -2.551496e+00 -1.223236e+01 5.238869e+00 8.907584e+00 3.763605e+00 -1.308404e+00 2.435438e+00 8.555675e-02 1.519482e+00 -6.443089e-01 -3.524937e+00 2.231507e+00 1.777963e+00 7.680086e-01 -1.027945e+00 -5.316949e-01 -1.636771e+00 -5.610486e-02 1.103569e-01 8.783448e-01 6.676835e-02 2.256027e+00
<VARIANCE> 25
 2.597358e+01 3.854569e+01 8.107217e+01 1.411148e+02 4.380089e+01 2.222505e+02 1.245067e+02 3.747787e+01 3.589347e+01 3.833125e+01 3.930341e+01 2.006864e+01 2.973680e+00 1.018720e+01 6.492537e+00 7.466299e+00 7.301283e+00 7.717639e+00 7.046708e+00 6.270615e+00 1.828153e+00 2.706642e+00 3.069343e+00 1.558228e+00 1.555105e+00
<GCONST> 1.124472e+02
<STATE> 4
<MEAN> 25
 -4.999033e+00 -1.174066e+01 1.315970e+01 7.545662e+00 3.495202e+00 1.888081e+00 -2.941683e+00 -8.683950e+00 -2.446658e+00 -8.269529e-01 -7.401140e-01 -2.817074e+00 2.953419e+00 2.862641e+00 -3.482259e+00 2.423215e+00 5.351274e+00 -2.059717e+00 -3.477515e+00 -3.620467e+00 -6.394989e-01 -1.277336e+00 -4.151551e-01 -2.075650e+00 1.670333e+00
<VARIANCE> 25
 4.150464e+01 4.932558e+01 8.127102e+01 7.120351e+01 9.386817e+01 1.027781e+02 8.278876e+01 9.965584e+01 3.723634e+01 4.574629e+01 4.020061e+01 2.921120e+01 1.680944e+00 2.702404e+00 3.926489e+00 1.839065e+01 3.886158e+00 2.107883e+01 5.895769e+00 6.641893e+00 1.886899e+00 3.701871e+00 4.059039e+00 2.381560e+00 1.062771e+00
<GCONST> 1.130756e+02
<TRANSP> 5
 0.000000e+00 1.000000e+00 0.000000e+00 0.000000e+00 0.000000e+00
 0.000000e+00 5.937719e-01 4.062281e-01 0.000000e+00 0.000000e+00
 0.000000e+00 0.000000e+00 5.852998e-01 4.147002e-01 0.000000e+00
 0.000000e+00 0.000000e+00 0.000000e+00 7.358848e-01 2.641152e-01
 0.000000e+00 0.000000e+00 0.000000e+00 0.000000e+00 0.000000e+00
<ENDHMM>
~h "eh"
<BEGINHMM>
<NUMSTATES> 5
<STATE> 2
<MEAN> 25
 3.939850e+00 -1.689788e+00 -7.709639e+00 1.972340e+00 6.669868e+00 -8.179471e+00 -5.092651e+00 -5.272069e+00 -2.727416e+00 6.383557e-01 7.955666e+00 8.332142e-01 1.790588e-01 9.646921e-02 -1.726903e-01 1.122513e-01 -4.438844e-02 1.386548e-01 2.950477e-01 4.149697e-01 3.995337e-01 -2.966865e-01 -1.960615e-01 -1.418800e-01 4.892400e-02
<VARIANCE> 25
 8.658999e+00 1.888807e+01 4.098239e+01 5.464316e+01 4.489154e+01 5.332882e+01 4.441873e+01 3.974213e+01 3.399800e+01 2.700910e+01 3.596733e+01 2.123096e+01 4.469234e-01 7.883639e-01 1.682233e+00 2.078958e+00 2.876415e+00 3.479378e+00 1.641586e+00 1.809028e+00 2.066966e+00 2.028965e+00 1.805898e+00 1.106755e+00 1.329767e+00
<GCONST> 9.348714e+01
<STATE> 3
<MEAN> 25
 4.159901e+00 5.253129e-01 -4.750730e+00 2.244637e+00 4.718509e+00 -3.259067e+00 -3.405024e+00 -3.965317e+00 -8.991346e-01 -1.120888e+00 3.422490e+00 -7.362264e-01 -3.168796e-01 4.581028e-01 1.113274e+00 -3.902756e-02 -1.017840e+00 1.465797e+00 7.222332e-01 7.182095e-01 3.666544e-01 5.736444e-02 -1.093742e+00 -1.571413e-01 -1.003394e+00
<VARIANCE> 25
 9.626527e+00 1.867457e+01 5.280541e+01 6.612531e+01 4.085627e+01 4.377935e+01 5.019954e+01 4.362998e+01 3.357032e+01 2.560064e+01 3.229022e+01 2.274208e+01 4.347999e-01 9.059589e-01 1.535229e+00 1.807977e+00 2.142766e+00 2.995147e+00 1.655130e+00 1.739295e+00 1.990506e+00 1.777059e+00 1.627441e+00 1.158491e+00 7.979423e-01
<GCONST> 9.251045e+01
<STATE> 4
<MEAN> 25
 3.929836e-01 1.738411e+00 1.506891e+00 2.301235e+00 9.251705e-02 3.896519e+00 -3.428571e-01 -4.953130e-01 2.889141e-01 8.926271e-01 -1.464728e+00 -2.839503e-01 -7.797714e-01 4.445889e-02 9.039214e-01 -2.708682e-01 -8.842560e-01 9.750944e-01 7.055515e-01 7.343524e-01 2.894765e-01 4.202908e-01 -6.489269e-01 1.335639e-01 -8.974534e-01
<VARIANCE> 25
 1.622174e+01 1.716171e+01 5.277473e+01 5.438214e+01 3.882491e+01 4.586814e+01 3.790347e+01 3.523085e+01 3.099533e+01 2.770237e+01 3.271938e+01 2.374928e+01 5.568624e-01 1.213220e+00 1.556551e+00 1.498002e+00 1.615480e+00 2.524592e+00 1.697893e+00 1.695370e+00 1.740874e+00 1.769505e+00 1.420070e+00 1.324226e+00 6.482633e-01
<GCONST> 9.187132e+01
<TRANSP> 5
 0.000000e+00 1.000000e+00 0.000000e+00 0.000000e+00 0.000000e+00
 0.000000e+00 7.081773e-01 2.918227e-01 0.000000e+00 0.000000e+00
 0.000000e+00 0.000000e+00 5.900513e-01 4.099487e-01 0.000000e+00
 0.000000e+00 0.000000e+00 0.000000e+00 6.976290e-01 3.023710e-01
 0.000000e+00 0.000000e+00 0.000000e+00 0.000000e+00 0.000000e+00
<ENDHMM>
~h "iy"
<BEGINHMM>
<NUMSTATES> 5
<STATE> 2
<MEAN> 25
 1.063960e+00 -2.334374e+00 2.070558e+00 1.301852e+01 1.282218e+01 -8.538527e+00 -9.002780e+00 -4.627408e+00 7.287654e-01 -1.411685e+00 -2.069518e+00 -4.843396e+00 8.727306e-02 -7.746134e-02 -2.688816e-01 5.114228e-01 2.791632e-01 -9.112335e-01 -4.505069e-01 1.414373e-01 2.908550e-01 2.888556e-01 3.545781e-01 -6.799302e-02 7.634307e-02
<VARIANCE> 25
 1.566120e+01 2.445967e+01 5.607818e+01 6.387819e+01 5.040102e+01 1.196109e+02 5.700471e+01 6.630875e+01 4.675746e+01 3.076001e+01 3.393933e+01 2.384102e+01 4.849921e-01 8.928639e-01 1.860178e+00 3.676147e+00 2.610278e+00 5.026685e+00 2.617549e+00 3.083802e+00 2.836238e+00 1.861859e+00 2.268396e+00 1.352700e+00 8.481341e-01
<GCONST> 9.935647e+01
<STATE> 3
<MEAN> 25
 7.908112e-01 -9.308385e-01 3.846972e+00 1.357486e+01 1.043673e+01 -6.765814e+00 -8.811920e+00 -3.979675e+00 1.674949e+00 -1.465115e+00 -3.353524e+00 -4.658293e+00 -2.652307e-02 4.480784e-01 9.702332e-02 -5.286884e-01 -7.702161e-01 1.241345e+00 6.684432e-01 1.000298e-01 -1.065836e-01 3.057723e-01 4.901554e-02 1.649897e-01 -6.264941e-01
<VARIANCE> 25
 1.220260e+01 1.997235e+01 6.230698e+01 5.090290e+01 2.729094e+01 6.777658e+01 3.819251e+01 5.115217e+01 4.475172e+01 2.884906e+01 5.918920e+01 2.131791e+01 3.120890e-01 6.540778e-01 9.461311e-01 1.654908e+00 1.603072e+00 2.678721e+00 1.502384e+00 1.856004e+00 2.073181e+00 1.417946e+00 1.574898e+00 1.034740e+00 3.822994e-01
<GCONST> 9.085583e+01
<STATE> 4
<MEAN> 25
 -1.851061e+00 8.466076e-01 5.245486e+00 8.299435e+00 3.108536e+00 2.981150e+00 -8.603460e-01 -2.161534e-01 4.149857e-01 6.538135e-01 -3.206050e+00 -2.097394e+00 -4.462238e-01 1.673057e-01 -9.789178e-02 -1.036665e+00 -8.804908e-01 1.161580e+00 9.806313e-01 6.035817e-01 -1.144154e-01 3.185989e-01 -8.032162e-03 4.861108e-01 -7.666364e-01
<VARIANCE> 25
 1.663293e+01 1.872508e+01 5.521569e+01 4.857988e+01 3.051564e+01 4.709115e+01 3.992694e+01 4.786559e+01 3.925166e+01 3.308675e+01 5.315279e+01 2.126929e+01 3.540426e-01 1.099520e+00 8.420137e-01 1.274384e+00 1.285889e+00 2.622160e+00 1.726808e+00 1.761256e+00 1.934793e+00 1.617877e+00 1.322918e+00 1.229397e+00 3.336222e-01
<GCONST> 9.059248e+01
<TRANSP> 5
 0.000000e+00 1.000000e+00 0.000000e+00 0.000000e+00 0.000000e+00
 0.000000e+00 6.975363e-01 3.024638e-01 0.000000e+00 0.000000e+00
 0.000000e+00 0.000000e+00 7.610710e-01 2.389289e-01 0.000000e+00
 0.000000e+00 0.000000e+00 0.000000e+00 7.652322e-01 2.347677e-01
 0.000000e+00 0.000000e+00 0.000000e+00 0.000000e+00 0.000000e+00
<ENDHMM>
~h "jh"
<BEGINHMM>
<NUMSTATES> 5
<STATE> 2
<MEAN> 25
 -7.093796e+00 -1.215429e+01 1.067278e+01 7.754237e+00 3.718319e+00 3.790790e+00 6.651851e-01 3.045980e+00 3.727651e-01 1.123146e-01 2.914572e+00 4.787015e+00 1.191898e+00 -5.030822e-01 -3.137001e-02 1.255073e+00 1.845114e+00 -3.085239e-01 -1.352513e+00 -2.437551e+00 -1.156688e+00 -1.189518e+00 5.475947e-01 -4.614974e-01 1.820757e+00
<VARIANCE> 25
 3.442963e+01 1.008305e+02 6.289531e+01 4.961992e+01 8.638130e+01 6.028952e+01 8.148597e+01 9.103053e+01 6.932805e+01 4.604832e+01 2.559774e+01 5.062120e+01 5.813414e+00 1.992143e+01 7.295774e+00 5.431152e+00 6.125925e+00 4.888488e+00 8.691987e+00 1.056871e+01 7.210651e+00 4.401398e+00 3.395999e+00 5.372283e+00 9.944438e-01
<GCONST> 1.175570e+02
<STATE> 3
<MEAN> 25
 2.731187e+00 -3.033554e+00 3.002094e+00 9.286974e+00 1.046044e+01 2.952422e+00 -3.389102e+00 -1.005842e+01 -8.727775e+00 -7.505093e+00 2.839998e+00 -6.956717e-01 1.601985e+00 2.514531e+00 -1.823372e+00 -2.390031e+00 -9.851192e-01 -1.037276e+00 7.368262e-01 -5.717535e-02 -5.362996e-01 -1.022257e+00 -9.715996e-01 -1.572495e+00 5.434146e-01
<VARIANCE> 25
 1.021492e+01 4.775536e+01 4.877384e+01 5.555962e+01 4.182184e+01 6.151503e+01 8.508611e+01 5.199805e+01 5.212985e+01 4.486353e+01 5.670187e+01 3.006963e+01 7.980400e-01 2.089293e+00 2.111702e+00 3.886422e+00 4.810559e+00 4.211648e+00 4.267142e+00 5.873909e+00 6.357862e+00 2.772082e+00 4.837208e+00 4.438539e+00 9.857060e-01
<GCONST> 1.062557e+02
<STATE> 4
<MEAN> 25
 2.932679e+00 3.419700e+00 3.238914e+00 5.541070e+00 7.142527e+00 2.950718e-01 -3.916297e+00 -4.566243e+00 -8.429755e-01 -2.582022e+00 -2.380186e+00 -6.401205e+00 2.489334e-01 7.943534e-01 -3.676585e-01 -6.351379e-01 -1.016782e+00 -9.064304e-01 -5.078779e-02 1.193707e+00 1.572803e+00 1.034826e+00 -6.690431e-01 -9.487658e-01 -3.442218e-01
<VARIANCE> 25
 8.256869e+00 1.911110e+01 5.321126e+01 4.174196e+01 6.104060e+01 3.527765e+01 3.553131e+01 5.326081e+01 6.970762e+01 5.318084e+01 4.013851e+01 3.273642e+01 3.083198e-01 1.474387e+00 1.487063e+00 2.020406e+00 3.950584e+00 3.704833e+00 2.379740e+00 2.388334e+00 3.499812e+00 3.583487e+00 1.949003e+00 2.480590e+00 3.495632e-01
<GCONST> 9.711986e+01
<TRANSP> 5
 0.000000e+00 1.000000e+00 0.000000e+00 0.000000e+00 0.000000e+00
 0.000000e+00 7.851558e-01 2.148442e-01 0.000000e+00 0.000000e+00
 0.000000e+00 0.000000e+00 6.226410e-01 3.773589e-01 0.000000e+00
 0.000000e+00 0.000000e+00 0.000000e+00 6.920325e-01 3.079675e-01
 0.000000e+00 0.000000e+00 0.000000e+00 0.000000e+00 0.000000e+00
<ENDHMM>
~h "ng"
<BEGINHMM>
<NUMSTATES> 5
<STATE> 2
<MEAN> 25
 3.419388e+00 3.643242e+00 -4.471154e-01 9.206673e-01 2.428034e+00 5.717446e+00 1.186467e+00 -5.385959e-01 2.056318e+00 4.695989e-01 -9.223255e-01 -6.561455e-01 -3.005854e-01 3.685247e-01 4.389025e-01 -4.321910e-01 -7.084075e-01 3.660943e-01 4.033142e-01 5.118420e-01 2.681726e-02 1.354673e-01 1.206286e-01 1.731035e-01 -4.690217e-01
<VARIANCE> 25
 1.247262e+01 2.344467e+01 1.758437e+01 1.836443e+01 3.239744e+01 2.557680e+01 1.713782e+01 3.115546e+01 2.716262e+01 2.206955e+01 1.804318e+01 1.238536e+01 3.530772e-01 6.449096e-01 1.147274e+00 2.464668e+00 3.248470e+00 2.116114e+00 2.197633e+00 2.499139e+00 1.470941e+00 1.774465e+00 1.450187e+00 1.006213e+00 2.830391e-01
<GCONST> 8.547385e+01
<STATE> 3
<MEAN> 25
 1.023158e+00 4.345356e+00 2.125618e+00 -1.921073e+00 -5.855061e+00 4.673134e+00 5.522754e+00 2.471526e+00 -5.611576e-01 3.005719e-01 -6.853992e-01 -1.473124e+00 -1.539954e-01 1.566780e-01 -2.801725e-02 -9.038814e-01 -1.429580e+00 -8.259522e-01 8.880206e-01 7.517325e-01 -3.984529e-01 -2.183408e-01 2.789221e-02 -2.712853e-01 -6.309317e-02
<VARIANCE> 25
 8.608145e+00 1.998548e+01 2.117003e+01 3.824298e+01 2.853654e+01 3.397341e+01 2.229921e+01 1.743188e+01 2.842742e+01 3.064170e+01 2.519044e+01 1.727224e+01 9.904472e-01 2.708191e+00 1.799576e+00 4.076960e+00 3.892925e+00 3.501569e+00 3.179373e+00 3.802793e+00 2.402876e+00 2.890828e+00 2.339512e+00 2.066044e+00 8.200678e-01
<GCONST> 9.487589e+01
<STATE> 4
<MEAN> 25
 -5.053555e+00 -1.455185e+00 7.794769e+00 -7.231911e+00 -1.243497e+01 3.174214e+00 1.004193e+01 3.343995e+00 -3.107844e+00 1.958199e+00 2.412842e+00 4.571810e-01 -3.181410e-01 -9.449667e-02 5.061339e-01 -4.074048e-01 -1.045429e-01 -5.590367e-01 -2.929163e-01 -5.495399e-01 -3.785505e-01 -1.005912e-01 -7.920831e-03 -2.800366e-01 3.236302e-01
<VARIANCE> 25
 9.878649e+01 9.332092e+01 1.266013e+02 9.238122e+01 6.398232e+01 8.305598e+01 6.310746e+01 2.881414e+01 4.717830e+01 3.667916e+01 3.625352e+01 3.594330e+01 1.099870e+00 2.275109e+00 1.864958e+00 1.944523e+00 3.370127e+00 3.350510e+00 2.545124e+00 3.084530e+00 2.257950e+00 2.866238e+00 2.200066e+00 1.371989e+00 5.060059e-01
<GCONST> 1.041365e+02
<TRANSP> 5
 0.000000e+00 1.000000e+00 0.000000e+00 0.000000e+00 0.000000e+00
 0.000000e+00 8.193057e-01 1.806944e-01 0.000000e+00 0.000000e+00
 0.000000e+00 0.000000e+00 7.659677e-01 2.340323e-01 0.000000e+00
 0.000000e+00 0.000000e+00 0.000000e+00 5.728738e-01 4.271263e-01
 0.000000e+00 0.000000e+00 0.000000e+00 0.000000e+00 0.000000e+00
<ENDHMM>
~h "ow"
<BEGINHMM>
<NUMSTATES> 5
<STATE> 2
<MEAN> 25
 -6.829766e+00 -9.248158e+00 1.646259e+01 -3.754688e+00 -8.234788e+00 6.495776e+00 4.244117e+00 -1.231068e+00 -1.517405e+00 -1.646788e+00 -2.612473e+00 1.764769e+00 4.909168e+00 3.889790e+00 -4.818595e+00 2.283367e-01 -1.013702e+00 -4.056712e+00 -7.039596e-01 7.708001e-01 1.480103e+00 -2.931571e+00 -1.074471e+00 -1.856705e+00 1.647016e+00
<VARIANCE> 25
 6.528853e+01 7.882711e+01 7.428638e+01 2.983234e+01 3.141064e+01 8.933379e+01 4.491853e+01 4.764945e+01 3.333960e+01 5.791033e+01 1.951588e+01 2.953888e+01 3.941958e+00 6.487521e+00 6.630988e+00 4.140759e+00 3.633332e+00 1.168364e+01 4.464534e+00 6.611083e+00 6.214462e+00 4.001658e+00 3.065403e+00 3.016677e+00 1.078009e+00
<GCONST> 1.109278e+02
<STATE> 3
<MEAN> 25
 5.130291e+00 6.411939e-01 6.576537e-01 -4.762914e+00 -7.870110e+00 -4.481654e+00 1.787485e+00 7.313418e-01 3.882033e+00 -7.499120e+00 -2.315926e+00 -4.092943e+00 2.128526e+00 1.941505e+00 -4.585423e+00 -8.663749e-01 3.695470e-01 -3.188539e+00 -1.920219e-01 1.747872e+00 1.686540e+00 -8.741980e-01 2.126181e-01 -1.152774e+00 8.354457e-01
<VARIANCE> 25
 5.590373e+00 1.804856e+01 1.495881e+01 4.033667e+01 2.512274e+01 2.701800e+01 2.114311e+01 2.834330e+01 3.791752e+01 3.556450e+01 2.692642e+01 9.120368e+00 2.554823e+00 2.828337e+00 5.849758e+00 3.083388e+00 2.392549e+00 5.431967e+00 2.434957e+00 3.603603e+00 1.291739e+00 3.724378e+00 1.410408e+00 1.724968e+00 1.270914e+00
<GCONST> 9.489632e+01
<STATE> 4
<MEAN> 25
 6.294861e+00 4.250766e+00 -4.525765e+00 -2.250041e+00 -9.027820e+00 -1.547488e+01 1.404015e+00 1.061799e+01 9.605748e+00 -7.088136e+00 -5.219614e+00 -5.173520e+00 1.158038e-01 8.672301e-01 -9.179986e-01 -1.620589e-01 1.099042e-01 -1.143743e+00 9.945589e-02 8.455567e-01 7.646322e-03 8.153017e-01 1.943282e-01 -2.094885e-01 -5.975964e-01
<VARIANCE> 25
 2.712633e+00 1.308958e+01 9.028530e+00 3.254329e+01 3.044228e+01 4.520452e+01 2.160379e+01 5.212958e+01 3.626778e+01 2.768065e+01 1.517388e+01 1.002160e+01 2.311321e-01 7.263099e-01 1.303722e+00 1.264541e+00 9.925296e-01 2.599451e+00 9.424688e-01 2.245127e+00 1.972506e+00 1.270796e+00 5.911972e-01 7.713715e-01 3.526512e-01
<GCONST> 8.089342e+01
<TRANSP> 5
 0.000000e+00 1.000000e+00 0.000000e+00 0.000000e+00 0.000000e+00
 0.000000e+00 6.325501e-01 3.674500e-01 0.000000e+00 0.000000e+00
 0.000000e+00 0.000000e+00 4.050229e-01 5.949771e-01 0.000000e+00
 0.000000e+00 0.000000e+00 0.000000e+00 7.901534e-01 2.098466e-01
 0.000000e+00 0.000000e+00 0.000000e+00 0.000000e+00 0.000000e+00
<ENDHMM>
~h "sp"
<BEGINHMM>
<NUMSTATES> 5
<STATE> 2
<MEAN> 25
 7.278923e-09 7.736676e-09 -1.495757e-08 2.233321e-08 -7.517470e-09 -5.266098e-08 1.936748e-08 -7.220898e-10 -9.554795e-09 1.052188e-08 -1.655649e-08 4.951473e-09 6.015358e-02 6.638382e-02 2.298475e-02 2.413188e-02 -1.107854e-02 -3.401659e-02 1.583678e-04 -9.783696e-03 -2.136309e-02 1.551675e-03 -5.627133e-03 -1.547498e-02 2.045880e-02
<VARIANCE> 25
 4.803527e+01 5.134138e+01 1.048917e+02 8.752769e+01 7.417048e+01 9.790822e+01 6.581352e+01 5.741109e+01 4.161873e+01 3.817028e+01 4.535803e+01 3.419817e+01 1.987551e+00 2.560586e+00 3.462211e+00 3.613789e+00 3.504917e+00 4.697473e+00 3.161591e+00 3.037893e+00 2.555220e+00 2.460158e+00 2.358821e+00 1.905628e+00 2.295166e+00
<GCONST> 1.081165e+02
<STATE> 3
<MEAN> 25
 7.278923e-09 7.736676e-09 -1.495757e-08 2.233321e-08 -7.517470e-09 -5.266098e-08 1.936748e-08 -7.220898e-10 -9.554795e-09 1.052188e-08 -1.655649e-08 4.951473e-09 6.015358e-02 6.638382e-02 2.298475e-02 2.413188e-02 -1.107854e-02 -3.401659e-02 1.583678e-04 -9.783696e-03 -2.136309e-02 1.551675e-03 -5.627133e-03 -1.547498e-02 2.045880e-02
<VARIANCE> 25
 4.803527e+01 5.134138e+01 1.048917e+02 8.752769e+01 7.417048e+01 9.790822e+01 6.581352e+01 5.741109e+01 4.161873e+01 3.817028e+01 4.535803e+01 3.419817e+01 1.987551e+00 2.560586e+00 3.462211e+00 3.613789e+00 3.504917e+00 4.697473e+00 3.161591e+00 3.037893e+00 2.555220e+00 2.460158e+00 2.358821e+00 1.905628e+00 2.295166e+00
<GCONST> 1.081165e+02
<STATE> 4
<MEAN> 25
 7.278923e-09 7.736676e-09 -1.495757e-08 2.233321e-08 -7.517470e-09 -5.266098e-08 1.936748e-08 -7.220898e-10 -9.554795e-09 1.052188e-08 -1.655649e-08 4.951473e-09 6.015358e-02 6.638382e-02 2.298475e-02 2.413188e-02 -1.107854e-02 -3.401659e-02 1.583678e-04 -9.783696e-03 -2.136309e-02 1.551675e-03 -5.627133e-03 -1.547498e-02 2.045880e-02
<VARIANCE> 25
 4.803527e+01 5.134138e+01 1.048917e+02 8.752769e+01 7.417048e+01 9.790822e+01 6.581352e+01 5.741109e+01 4.161873e+01 3.817028e+01 4.535803e+01 3.419817e+01 1.987551e+00 2.560586e+00 3.462211e+00 3.613789e+00 3.504917e+00 4.697473e+00 3.161591e+00 3.037893e+00 2.555220e+00 2.460158e+00 2.358821e+00 1.905628e+00 2.295166e+00
<GCONST> 1.081165e+02
<TRANSP> 5
 0.000000e+00 1.000000e+00 0.000000e+00 0.000000e+00 0.000000e+00
 0.000000e+00 6.000000e-01 4.000000e-01 0.000000e+00 0.000000e+00
 0.000000e+00 0.000000e+00 6.000000e-01 4.000000e-01 0.000000e+00
 0.000000e+00 0.000000e+00 0.000000e+00 7.000000e-01 3.000000e-01
 0.000000e+00 0.000000e+00 0.000000e+00 0.000000e+00 0.000000e+00
<ENDHMM>
~h "uh"
<BEGINHMM>
<NUMSTATES> 5
<STATE> 2
<MEAN> 25
 6.005967e+00 4.386998e+00 -7.496893e-01 2.431820e+00 2.397182e+00 -2.807914e+00 -2.210791e-01 -3.741102e+00 -4.778188e+00 -5.516924e+00 -9.370552e-01 -6.259216e+00 -4.007352e-01 7.917453e-01 5.165552e-01 -1.446672e-01 -9.297279e-01 -4.186202e-01 -1.422097e-02 1.006422e+00 8.539381e-01 8.255508e-01 2.360959e-01 3.188173e-01 -8.435873e-01
<VARIANCE> 25
 1.231777e+01 3.408922e+01 2.043997e+01 3.521346e+01 3.488666e+01 8.989537e+01 3.731731e+01 3.662388e+01 3.672205e+01 3.318974e+01 3.323663e+01 3.582850e+01 4.960110e-01 1.662140e+00 1.342697e+00 1.874083e+00 2.509882e+00 3.928385e+00 2.316076e+00 2.514284e+00 2.503416e+00 2.078864e+00 2.595438e+00 2.132219e+00 5.798225e-01
<GCONST> 9.562023e+01
<STATE> 3
<MEAN> 25
 4.356531e+00 8.230472e+00 1.629044e+00 4.333534e+00 7.126946e-01 -6.860708e+00 -3.158786e+00 -9.129411e-01 -2.372630e+00 -4.181146e+00 -1.509014e+00 -5.435532e+00 -4.913955e-01 1.862911e-01 3.972434e-01 -6.362941e-02 -4.737001e-01 6.321379e-01 2.353493e-01 3.708885e-01 2.808774e-01 5.967995e-01 3.437476e-02 6.362686e-01 -7.792949e-01
<VARIANCE> 25
 9.379883e+00 2.631661e+01 3.160533e+01 3.548132e+01 2.829721e+01 7.547364e+01 3.236452e+01 2.291859e+01 2.408170e+01 2.243471e+01 1.650383e+01 3.135091e+01 2.087570e-01 9.649580e-01 6.953307e-01 1.189421e+00 1.781195e+00 2.396743e+00 1.856071e+00 2.348351e+00 1.745655e+00 1.336440e+00 1.362958e+00 1.245777e+00 2.137458e-01
<GCONST> 8.625949e+01
<STATE> 4
<MEAN> 25
 3.516130e-01 5.492934e+00 4.397855e+00 4.887276e+00 -1.911893e-01 1.063890e+00 -3.243540e-01 -3.987777e-01 -6.457239e-01 9.043473e-01 -1.971250e-01 -4.257488e-01 -7.843032e-01 -8.426909e-01 1.351640e-01 9.394050e-02 -4.365595e-02 7.162906e-01 6.493739e-01 6.469707e-01 1.115741e-01 5.141873e-01 2.073758e-01 7.404413e-01 -5.535603e-01
<VARIANCE> 25
 1.276112e+01 2.677653e+01 3.077668e+01 3.040578e+01 2.643444e+01 5.497435e+01 4.450095e+01 2.687895e+01 3.007934e+01 2.257609e+01 1.667908e+01 2.064271e+01 2.302568e-01 1.166481e+00 7.621132e-01 1.189341e+00 1.290994e+00 2.207605e+00 1.655355e+00 1.853701e+00 1.408191e+00 1.525106e+00 9.693348e-01 1.255492e+00 2.627311e-01
<GCONST> 8.573270e+01
<TRANSP> 5
 0.000000e+00 1.000000e+00 0.000000e+00 0.000000e+00 0.000000e+00
 0.000000e+00 4.720536e-01 5.279464e-01 0.000000e+00 0.000000e+00
 0.000000e+00 0.000000e+00 7.216141e-01 2.783859e-01 0.000000e+00
 0.000000e+00 0.000000e+00 0.000000e+00 7.695770e-01 2.304229e-01
 0.000000e+00 0.000000e+00 0.000000e+00 0.000000e+00 0.000000e+00
<ENDHMM>
~h "uw"
<BEGINHMM>
<NUMSTATES> 5
<STATE> 2
<MEAN> 25
 3.574060e+00 1.012882e+01 6.450655e+00 4.287606e+00 -2.349430e+00 -8.540787e+00 -3.070448e+00 8.279541e-01 6.785066e-01 -3.395873e+00 -3.102627e+00 -8.296762e+00 -1.688461e-01 -7.288358e-02 1.071569e-01 -3.355749e-02 -1.676541e-01 2.071007e-01 -9.983940e-02 -1.979582e-02 1.147716e-01 2.468451e-01 -3.562725e-02 2.429825e-01 -2.565968e-01
<VARIANCE> 25
 1.047748e+01 2.452117e+01 2.906559e+01 4.221991e+01 3.951719e+01 6.196031e+01 3.224159e+01 3.465299e+01 3.351850e+01 3.433450e+01 3.927141e+01 2.882383e+01 2.321189e-01 6.649165e-01 8.380169e-01 1.300818e+00 1.876614e+00 2.256785e+00 1.251957e+00 1.539754e+00 1.583010e+00 1.981542e+00 1.592604e+00 1.218078e+00 4.032324e-01
<GCONST> 8.872499e+01
<STATE> 3
<MEAN> 25
 2.151894e+00 6.923109e+00 4.416589e+00 2.283056e+00 -1.133819e+00 -2.681581e+00 -2.004359e+00 -8.880050e-01 -1.314396e+00 -2.862700e+00 -3.577235e+00 -4.569954e+00 -4.922958e-01 -8.420355e-01 -3.158345e-01 -2.060414e-01 2.808056e-01 9.453775e-01 3.135462e-01 -2.473113e-02 -3.617105e-01 1.021663e-01 1.348909e-01 1.092489e+00 -3.406454e-01
<VARIANCE> 25
 8.500382e+00 1.962637e+01 3.012520e+01 6.647181e+01 5.585863e+01 5.395459e+01 4.205423e+01 3.317691e+01 3.421627e+01 3.376554e+01 2.958252e+01 1.834770e+01 4.025162e-01 9.711038e-01 1.526679e+00 2.186650e+00 1.872640e+00 2.516380e+00 1.681407e+00 1.852925e+00 1.977859e+00 1.555787e+00 1.924309e+00 1.751574e+00 7.212415e-01
<GCONST> 9.223165e+01
<STATE> 4
<MEAN> 25
 -6.039854e-01 2.983247e+00 3.499645e+00 7.640446e-01 -1.735759e+00 -6.427405e-01 -3.688226e+00 -2.211473e+00 -1.408236e+00 -2.418827e-01 -1.332490e+00 6.750226e-01 -7.081283e-01 -1.141121e+00 -4.849288e-01 -2.894932e-01 8.090608e-02 8.732604e-01 3.926769e-01 4.640297e-01 1.936610e-01 4.633676e-01 2.252904e-01 1.055678e+00 -4.756815e-01
<VARIANCE> 25
 1.372910e+01 2.808258e+01 3.491826e+01 6.989909e+01 5.824951e+01 5.286565e+01 7.040611e+01 4.011908e+01 3.539180e+01 3.355142e+01 2.290702e+01 1.873871e+01 5.478343e-01 1.458449e+00 1.698641e+00 1.565163e+00 1.556628e+00 2.315926e+00 2.040219e+00 1.666408e+00 1.867056e+00 1.597126e+00 1.661624e+00 1.501282e+00 4.999858e-01
<GCONST> 9.339485e+01
<TRANSP> 5
 0.000000e+00 1.000000e+00 0.000000e+00 0.000000e+00 0.000000e+00
 0.000000e+00 8.212031e-01 1.787970e-01 0.000000e+00 0.000000e+00
 0.000000e+00 0.000000e+00 5.759120e-01 4.240880e-01 0.000000e+00
 0.000000e+00 0.000000e+00 0.000000e+00 6.871807e-01 3.128192e-01
 0.000000e+00 0.000000e+00 0.000000e+00 0.000000e+00 0.000000e+00
<ENDHMM>
~h "sil"
<BEGINHMM>
<NUMSTATES> 5
<STATE> 2
<MEAN> 25
 -8.590944e+00 -2.504561e+00 2.764065e+00 -6.929609e-01 -3.798154e+00 7.093234e+00 4.134977e+00 5.357130e+00 1.683378e+00 3.009056e+00 -2.920106e+00 3.562697e+00 -1.952150e-02 -1.383094e-01 9.785749e-02 -1.196740e-01 -2.250763e-01 -5.086136e-02 7.222834e-02 -8.298762e-02 -2.344612e-01 -5.308386e-03 -1.138244e-02 1.070853e-01 4.393565e-02
<VARIANCE> 25
 2.481212e+01 7.421141e+01 5.234864e+01 5.179047e+01 4.690050e+01 5.054721e+01 6.084351e+01 3.694437e+01 3.391647e+01 3.168777e+01 3.094674e+01 2.284989e+01 1.389473e+00 2.048303e+00 1.389554e+00 1.775980e+00 1.759717e+00 1.813476e+00 2.337024e+00 1.694743e+00 1.669819e+00 1.525560e+00 1.544677e+00 1.329269e+00 9.278390e-01
<GCONST> 9.646571e+01
<STATE> 3
<MEAN> 25
 -5.197831e+00 -2.611372e+00 2.628013e+00 -7.741584e-01 -3.425068e+00 4.856420e+00 2.851334e+00 1.993891e+00 -3.972495e-01 2.146039e+00 -1.588798e+00 2.542657e+00 1.636045e+00 2.826266e-01 -2.890520e-01 2.167475e-01 4.732215e-01 -1.182154e+00 -4.993225e-01 -9.987513e-01 -5.167983e-01 -5.638534e-01 5.891796e-01 -5.508523e-01 1.783254e+00
<VARIANCE> 25
 3.904152e+01 5.775016e+01 5.792365e+01 8.205532e+01 7.027395e+01 7.616151e+01 7.029656e+01 6.015367e+01 4.659451e+01 4.405272e+01 4.357823e+01 3.524603e+01 4.610313e+00 8.033808e+00 6.393382e+00 8.435906e+00 6.756341e+00 7.440719e+00 8.346263e+00 5.655935e+00 4.773944e+00 4.545786e+00 4.494438e+00 3.162408e+00 4.559377e+00
<GCONST> 1.166533e+02
<STATE> 4
<MEAN> 25
 -4.900943e+00 -6.461504e-01 2.163195e+00 1.063994e+00 -2.758622e+00 2.967748e+00 2.667335e+00 2.107985e+00 -1.205155e+00 9.757649e-01 -1.502409e+00 8.321786e-01 1.965965e-01 2.845926e-01 -1.700704e-01 -1.498767e-01 3.440509e-01 -1.809383e-01 -1.700747e-01 -4.571451e-02 1.286667e-01 -2.137510e-01 9.572805e-02 -5.529510e-02 2.684468e-01
<VARIANCE> 25
 3.394660e+01 5.160264e+01 7.467299e+01 7.515938e+01 6.060064e+01 6.903528e+01 6.722684e+01 5.703306e+01 4.689804e+01 4.494041e+01 5.208398e+01 3.577257e+01 1.576236e+00 1.710778e+00 1.985434e+00 1.871000e+00 2.226872e+00 2.789810e+00 2.333473e+00 2.290506e+00 1.959066e+00 1.912936e+00 1.731601e+00 1.682756e+00 1.526807e+00
<GCONST> 1.024428e+02
<TRANSP> 5
 0.000000e+00 1.000000e+00 0.000000e+00 0.000000e+00 0.000000e+00
 0.000000e+00 5.297802e-01 4.702198e-01 0.000000e+00 0.000000e+00
 0.000000e+00 0.000000e+00 5.239326e-01 4.760673e-01 0.000000e+00
 0.000000e+00 0.000000e+00 0.000000e+00 5.421678e-01 4.578322e-01
 0.000000e+00 0.000000e+00 0.000000e+00 0.000000e+00 0.000000e+00
<ENDHMM>
