~o
<STREAMINFO> 1 25
<VECSIZE> 25<NULLD><MFCC_D_N_Z_0><DIAGC>
~h "b"
<BEGINHMM>
<NUMSTATES> 5
<STATE> 2
<MEAN> 25
 1.709993e+00 1.743081e+00 -5.715569e-01 1.824711e+00 3.044804e+00 -7.879986e-01 -1.975828e+00 -1.644628e+00 -5.901645e-01 -4.636721e-01 5.100422e-01 -3.073027e-01 1.846887e-01 7.941148e-02 2.730104e-02 2.126189e-01 2.429343e-01 -5.717548e-01 -3.298641e-01 -2.945955e-01 -2.150446e-01 -1.215045e-01 1.250834e-01 -2.740892e-01 2.969214e-01
<VARIANCE> 25
 2.229969e+01 4.532013e+01 8.477275e+01 6.257798e+01 1.020013e+02 9.085322e+01 5.946645e+01 7.931841e+01 4.819232e+01 3.580114e+01 4.307777e+01 3.266320e+01 1.543455e+00 2.964151e+00 3.478338e+00 3.779231e+00 4.485756e+00 5.629278e+00 3.312095e+00 4.141168e+00 3.030117e+00 2.892907e+00 2.247549e+00 1.974155e+00 2.448736e+00
<GCONST> 1.082377e+02
<STATE> 3
<MEAN> 25
 1.943454e+00 1.751689e+00 -4.208562e-01 2.337463e+00 3.442696e+00 -1.909348e+00 -2.535675e+00 -2.117716e+00 -1.046761e+00 -7.970821e-01 6.111903e-01 -9.216807e-01 7.623108e-02 -3.328574e-02 9.222104e-02 1.866862e-01 1.490341e-01 -3.408777e-01 -1.560014e-01 -1.385454e-01 -1.636172e-01 -1.633662e-01 3.424508e-03 -2.267654e-01 1.954404e-01
<VARIANCE> 25
 2.183432e+01 4.626791e+01 8.212273e+01 5.837406e+01 9.969469e+01 9.206861e+01 5.778415e+01 7.520998e+01 4.509061e+01 3.700112e+01 4.617938e+01 3.432433e+01 1.422317e+00 2.908618e+00 3.579162e+00 3.832196e+00 4.516751e+00 5.667138e+00 3.160950e+00 3.742188e+00 3.003356e+00 2.943395e+00 2.170951e+00 1.926619e+00 2.200413e+00
<GCONST> 1.077800e+02
<STATE> 4
<MEAN> 25
 1.898007e+00 1.500633e+00 1.489978e-01 2.780381e+00 3.374130e+00 -2.398907e+00 -2.726547e+00 -2.259410e+00 -1.432013e+00 -1.317213e+00 2.777013e-01 -1.415684e+00 -4.187392e-02 -9.877794e-02 2.433546e-01 1.351291e-01 -3.506643e-02 -6.540942e-02 1.003741e-02 -2.361406e-02 -1.209132e-01 -1.522202e-01 -9.499222e-02 -1.450996e-01 6.544247e-02
<VARIANCE> 25
 2.524564e+01 4.994983e+01 8.265244e+01 5.523815e+01 8.844233e+01 1.012490e+02 5.739766e+01 6.851620e+01 4.161307e+01 3.971207e+01 4.772741e+01 3.519419e+01 1.552149e+00 2.854036e+00 3.819514e+00 3.891643e+00 4.430821e+00 5.711030e+00 3.088472e+00 3.343531e+00 2.964088e+00 2.963389e+00 2.102937e+00 1.943159e+00 2.022615e+00
<GCONST> 1.077643e+02
<TRANSP> 5
 0.000000e+00 1.000000e+00 0.000000e+00 0.000000e+00 0.000000e+00
 0.000000e+00 6.153884e-01 3.846117e-01 0.000000e+00 0.000000e+00
 0.000000e+00 0.000000e+00 6.153880e-01 3.846120e-01 0.000000e+00
 0.000000e+00 0.000000e+00 0.000000e+00 7.223713e-01 2.776287e-01
 0.000000e+00 0.000000e+00 0.000000e+00 0.000000e+00 0.000000e+00
<ENDHMM>
~h "d"
<BEGINHMM>
<NUMSTATES> 5
<STATE> 2
<MEAN> 25
 4.533421e-01 6.112675e-01 3.218579e+00 5.192063e+00 4.432111e+00 -4.883457e-01 -2.518764e+00 -3.226432e+00 -2.095083e+00 -1.444470e+00 -5.440901e-01 -1.808216e+00 1.967417e-01 5.026939e-02 -2.897867e-01 -4.102140e-02 4.847018e-02 -5.969531e-01 -3.333861e-01 -2.171787e-01 -1.362293e-01 -2.535860e-02 1.533011e-01 -9.843607e-02 2.026904e-01
<VARIANCE> 25
 2.110891e+01 3.172406e+01 6.283402e+01 5.802036e+01 6.778304e+01 1.087280e+02 5.802990e+01 5.554332e+01 3.757562e+01 3.066204e+01 3.207028e+01 2.915908e+01 1.548521e+00 2.116337e+00 3.597337e+00 3.251256e+00 4.474076e+00 6.225869e+00 3.656821e+00 4.779163e+00 3.053371e+00 2.569004e+00 2.205936e+00 2.096961e+00 2.671102e+00
<GCONST> 1.059363e+02
<STATE> 3
<MEAN> 25
 7.740293e-01 6.174654e-01 2.508990e+00 4.896404e+00 4.390569e+00 -1.985417e+00 -3.412148e+00 -3.709159e+00 -2.254676e+00 -1.337814e+00 -1.092621e-01 -1.921184e+00 6.562085e-02 -9.204686e-03 -2.409259e-01 -1.103314e-01 -6.494587e-02 -4.462872e-01 -2.273730e-01 -5.796489e-02 -1.035355e-02 6.358231e-02 1.307563e-01 -1.625931e-03 6.866841e-02
<VARIANCE> 25
 1.851152e+01 3.217438e+01 5.701457e+01 5.974771e+01 6.598638e+01 1.007552e+02 5.135557e+01 4.924424e+01 3.421030e+01 2.914132e+01 3.244551e+01 2.912914e+01 1.260338e+00 1.778590e+00 2.980701e+00 2.884966e+00 3.933928e+00 5.335699e+00 3.187674e+00 4.188514e+00 2.654023e+00 2.370270e+00 2.078592e+00 1.873113e+00 2.237437e+00
<GCONST> 1.034619e+02
<STATE> 4
<MEAN> 25
 9.875539e-01 4.699159e-01 1.664649e+00 4.060914e+00 3.909813e+00 -3.290949e+00 -3.982859e+00 -3.863864e+00 -1.969204e+00 -9.393997e-01 4.316708e-01 -1.862076e+00 2.304575e-02 -4.703052e-02 -2.485560e-01 -2.079151e-01 -1.642573e-01 -2.739928e-01 -7.372369e-02 7.470608e-02 9.915920e-02 9.878512e-02 1.067084e-01 3.991542e-02 1.969414e-02
<VARIANCE> 25
 1.871354e+01 3.431559e+01 5.741487e+01 6.766714e+01 6.496134e+01 8.907815e+01 4.516529e+01 4.440021e+01 3.251272e+01 2.705236e+01 3.411713e+01 3.025766e+01 1.058547e+00 1.590787e+00 2.582018e+00 2.746521e+00 3.457662e+00 4.424875e+00 2.714894e+00 3.457087e+00 2.262207e+00 2.146685e+00 1.911453e+00 1.733963e+00 1.867453e+00
<GCONST> 1.015127e+02
<TRANSP> 5
 0.000000e+00 1.000000e+00 0.000000e+00 0.000000e+00 0.000000e+00
 0.000000e+00 6.416483e-01 3.583518e-01 0.000000e+00 0.000000e+00
 0.000000e+00 0.000000e+00 6.416486e-01 3.583514e-01 0.000000e+00
 0.000000e+00 0.000000e+00 0.000000e+00 7.572816e-01 2.427184e-01
 0.000000e+00 0.000000e+00 0.000000e+00 0.000000e+00 0.000000e+00
<ENDHMM>
~h "g"
<BEGINHMM>
<NUMSTATES> 5
<STATE> 2
<MEAN> 25
 3.182412e+00 1.433916e+00 -2.475300e+00 -1.129697e+00 1.276494e+00 -2.339498e+00 1.339262e-01 -1.764615e+00 -1.816642e+00 -2.360821e-01 2.441403e+00 -1.672233e+00 1.032049e-01 7.261042e-02 -9.357665e-02 -1.058339e-01 -9.333377e-02 -4.660025e-01 -1.529149e-01 -5.095141e-02 -2.877199e-02 -1.176851e-01 1.194198e-01 -9.129921e-02 1.850379e-01
<VARIANCE> 25
 3.617734e+01 4.593030e+01 1.219628e+02 9.686417e+01 9.299813e+01 9.235651e+01 7.106008e+01 4.995244e+01 4.376604e+01 3.440879e+01 4.805601e+01 3.035310e+01 9.937867e-01 2.229590e+00 2.953706e+00 4.268832e+00 4.339703e+00 4.237818e+00 3.931057e+00 3.713697e+00 3.231681e+00 2.300773e+00 2.465590e+00 1.936245e+00 1.419973e+00
<GCONST> 1.074176e+02
<STATE> 3
<MEAN> 25
 3.393701e+00 1.591351e+00 -2.662982e+00 -1.274599e+00 1.047010e+00 -3.560936e+00 -3.696099e-01 -1.829856e+00 -1.760246e+00 -6.406561e-01 2.554391e+00 -1.876567e+00 2.135524e-02 4.762499e-02 8.650222e-03 -2.987165e-02 -1.347515e-01 -3.113526e-01 -1.177427e-01 2.299901e-02 2.964796e-02 -1.243574e-01 1.005326e-02 -2.732973e-02 6.406941e-02
<VARIANCE> 25
 3.618949e+01 4.678789e+01 1.309144e+02 1.028519e+02 9.427835e+01 8.371564e+01 6.795558e+01 4.631516e+01 3.841710e+01 3.180728e+01 4.819426e+01 2.817646e+01 9.446369e-01 1.974964e+00 2.723656e+00 3.762535e+00 3.760622e+00 3.793417e+00 3.285819e+00 3.071035e+00 2.726705e+00 2.117354e+00 2.156134e+00 1.678708e+00 1.208151e+00
<GCONST> 1.053879e+02
<STATE> 4
<MEAN> 25
 3.115408e+00 1.360901e+00 -2.470811e+00 -1.206061e+00 7.517795e-01 -4.276056e+00 -8.997570e-01 -1.739150e+00 -1.553114e+00 -9.911531e-01 2.261861e+00 -1.691505e+00 -1.098663e-01 5.172193e-04 1.415340e-01 1.492531e-02 -1.840038e-01 -4.688146e-02 -5.465253e-02 8.789496e-02 7.678416e-02 -5.247688e-02 -1.060425e-01 6.384888e-02 -1.170831e-01
<VARIANCE> 25
 4.121465e+01 4.855124e+01 1.490240e+02 1.164574e+02 9.868116e+01 7.803729e+01 6.782404e+01 4.126427e+01 3.372933e+01 3.034443e+01 5.044821e+01 2.588507e+01 1.043117e+00 1.829907e+00 2.841081e+00 3.195135e+00 3.203137e+00 3.405590e+00 2.743888e+00 2.393025e+00 2.248846e+00 1.978951e+00 1.818650e+00 1.411875e+00 1.028696e+00
<GCONST> 1.038896e+02
<TRANSP> 5
 0.000000e+00 1.000000e+00 0.000000e+00 0.000000e+00 0.000000e+00
 0.000000e+00 6.541144e-01 3.458856e-01 0.000000e+00 0.000000e+00
 0.000000e+00 0.000000e+00 6.541159e-01 3.458841e-01 0.000000e+00
 0.000000e+00 0.000000e+00 0.000000e+00 7.689495e-01 2.310505e-01
 0.000000e+00 0.000000e+00 0.000000e+00 0.000000e+00 0.000000e+00
<ENDHMM>
~h "h"
<BEGINHMM>
<NUMSTATES> 5
<STATE> 2
<MEAN> 25
 4.066856e+00 2.231096e+00 -5.988704e+00 -7.198713e+00 -2.809067e+00 -1.862104e+00 2.282724e+00 1.212810e+00 4.983525e-01 -3.945285e-01 3.982899e+00 1.378060e+00 1.666886e-01 1.393062e-01 -2.208711e-01 5.960489e-03 2.179833e-01 -3.622999e-01 -6.533317e-02 1.892324e-01 9.672979e-02 -3.555565e-02 1.002914e-01 2.881882e-02 1.561627e-01
<VARIANCE> 25
 1.745218e+01 2.710497e+01 5.883705e+01 1.135470e+02 5.665161e+01 8.540105e+01 5.328996e+01 3.830791e+01 4.149614e+01 3.090909e+01 3.848433e+01 3.964333e+01 1.488906e+00 1.898877e+00 2.311941e+00 2.937598e+00 3.655962e+00 3.426136e+00 3.002961e+00 2.546786e+00 2.787924e+00 2.344594e+00 2.001424e+00 2.033031e+00 1.795575e+00
<GCONST> 1.028889e+02
<STATE> 3
<MEAN> 25
 4.216915e+00 2.424319e+00 -6.081674e+00 -6.801245e+00 -2.280593e+00 -2.619430e+00 2.104691e+00 1.610129e+00 6.047150e-01 -3.986571e-01 4.055991e+00 1.443929e+00 -9.637543e-02 7.085577e-04 5.106983e-02 1.422461e-01 1.235366e-01 -1.092737e-01 -1.518378e-02 1.618941e-01 -5.605275e-03 2.534384e-02 -9.628135e-02 1.059360e-01 -1.171666e-01
<VARIANCE> 25
 1.542245e+01 2.386251e+01 6.112588e+01 1.029556e+02 5.000390e+01 7.527473e+01 5.118173e+01 4.025814e+01 4.320821e+01 2.938310e+01 3.800183e+01 3.428161e+01 1.008417e+00 1.641678e+00 1.872465e+00 3.302024e+00 3.488219e+00 3.146236e+00 2.935721e+00 2.361475e+00 2.750994e+00 2.227191e+00 1.873123e+00 1.913187e+00 1.491906e+00
<GCONST> 1.009318e+02
<STATE> 4
<MEAN> 25
 4.020085e+00 2.155275e+00 -5.643815e+00 -5.853356e+00 -1.600479e+00 -2.786207e+00 2.154953e+00 1.736016e+00 2.370994e-01 -5.386635e-01 3.823412e+00 1.652325e+00 -2.714652e-01 -1.227687e-01 2.115109e-01 2.607012e-01 7.698181e-02 8.220045e-02 1.712091e-02 6.526814e-02 -1.228525e-01 4.996721e-02 -2.562411e-01 1.146239e-01 -3.035055e-01
<VARIANCE> 25
 1.819822e+01 2.610894e+01 6.770331e+01 9.363859e+01 4.876945e+01 6.134906e+01 4.947667e+01 4.872062e+01 4.772263e+01 3.218304e+01 3.868501e+01 3.073003e+01 8.051368e-01 1.503630e+00 1.749517e+00 3.917486e+00 3.634697e+00 2.864783e+00 2.918862e+00 2.356236e+00 2.753657e+00 2.268926e+00 1.854890e+00 1.880744e+00 1.308211e+00
<GCONST> 1.008115e+02
<TRANSP> 5
 0.000000e+00 1.000000e+00 0.000000e+00 0.000000e+00 0.000000e+00
 0.000000e+00 6.141471e-01 3.858529e-01 0.000000e+00 0.000000e+00
 0.000000e+00 0.000000e+00 6.141469e-01 3.858531e-01 0.000000e+00
 0.000000e+00 0.000000e+00 0.000000e+00 7.226905e-01 2.773096e-01
 0.000000e+00 0.000000e+00 0.000000e+00 0.000000e+00 0.000000e+00
<ENDHMM>
~h "k"
<BEGINHMM>
<NUMSTATES> 5
<STATE> 2
<MEAN> 25
 4.829411e+00 2.371378e+00 -8.312346e+00 -7.696581e+00 -3.881084e+00 -4.792774e+00 2.735798e+00 4.728958e+00 3.115454e+00 -1.307267e+00 2.193587e+00 -9.973748e-01 3.792460e-01 5.296692e-01 -2.017092e-01 8.730780e-02 9.088822e-02 -3.548251e-01 -2.182673e-01 2.511699e-01 3.725939e-01 6.949745e-02 -1.237581e-01 -2.590243e-01 1.512832e-02
<VARIANCE> 25
 4.625842e+01 6.792201e+01 1.102794e+02 7.339695e+01 5.717658e+01 9.233179e+01 6.245020e+01 5.102443e+01 4.089966e+01 3.364448e+01 4.762513e+01 3.748955e+01 2.569232e+00 3.681347e+00 4.035566e+00 3.946056e+00 3.281168e+00 5.046295e+00 2.970179e+00 2.516171e+00 2.616052e+00 2.635785e+00 2.307201e+00 2.939687e+00 3.339460e+00
<GCONST> 1.092350e+02
<STATE> 3
<MEAN> 25
 4.997667e+00 3.523622e+00 -7.860924e+00 -6.932689e+00 -4.005632e+00 -4.913096e+00 2.082967e+00 5.114291e+00 3.783661e+00 -8.787194e-01 1.319846e+00 -1.373560e+00 -4.593038e-02 3.391791e-01 2.719919e-01 3.442927e-01 -7.066025e-02 8.444455e-02 -2.158538e-01 8.920936e-02 1.547025e-01 2.436584e-01 -3.583805e-01 -6.712751e-02 -4.683087e-01
<VARIANCE> 25
 4.220855e+01 6.130403e+01 9.497430e+01 6.531884e+01 5.184185e+01 8.269919e+01 5.771526e+01 4.824625e+01 3.596872e+01 3.111277e+01 4.375068e+01 3.334795e+01 1.968432e+00 2.994139e+00 3.309324e+00 3.396141e+00 2.701014e+00 4.442821e+00 2.324847e+00 1.959080e+00 2.407025e+00 2.276608e+00 2.069995e+00 2.563729e+00 2.755666e+00
<GCONST> 1.057174e+02
<STATE> 4
<MEAN> 25
 4.145925e+00 4.095042e+00 -6.139090e+00 -5.295805e+00 -4.085525e+00 -3.973627e+00 1.048662e+00 4.793187e+00 3.762689e+00 2.779349e-02 -4.584942e-02 -1.264859e+00 -3.150261e-01 7.296269e-02 4.956011e-01 4.615314e-01 -5.448579e-02 2.904163e-01 -1.760527e-01 -7.303423e-02 -8.686508e-02 3.045235e-01 -3.844924e-01 8.126751e-02 -5.992684e-01
<VARIANCE> 25
 4.409598e+01 5.982999e+01 8.038831e+01 6.231562e+01 5.608595e+01 8.024545e+01 6.224113e+01 5.095037e+01 3.408737e+01 3.448500e+01 3.813279e+01 3.232024e+01 1.559237e+00 2.558200e+00 2.840515e+00 3.268274e+00 2.560066e+00 4.191336e+00 2.263846e+00 1.791940e+00 2.265965e+00 2.065937e+00 2.018863e+00 2.263997e+00 2.641387e+00
<GCONST> 1.044237e+02
<TRANSP> 5
 0.000000e+00 1.000000e+00 0.000000e+00 0.000000e+00 0.000000e+00
 0.000000e+00 6.318709e-01 3.681291e-01 0.000000e+00 0.000000e+00
 0.000000e+00 0.000000e+00 6.318711e-01 3.681289e-01 0.000000e+00
 0.000000e+00 0.000000e+00 0.000000e+00 7.427717e-01 2.572283e-01
 0.000000e+00 0.000000e+00 0.000000e+00 0.000000e+00 0.000000e+00
<ENDHMM>
~h "l"
<BEGINHMM>
<NUMSTATES> 5
<STATE> 2
<MEAN> 25
 3.316058e+00 1.855825e+00 -2.229268e+00 -7.915663e-01 1.668946e-01 -3.760919e+00 -8.331061e-01 1.772240e-01 2.081498e-01 -1.994559e+00 5.113264e-01 -1.369131e+00 -7.637195e-02 -6.453959e-02 2.291468e-01 -5.843160e-02 -1.571579e-01 1.478303e-01 1.699804e-02 6.113731e-02 1.027949e-01 1.282804e-01 1.861959e-02 7.524684e-02 -4.607861e-02
<VARIANCE> 25
 3.187548e+01 4.609814e+01 1.150949e+02 1.196586e+02 1.020799e+02 8.882536e+01 6.955089e+01 7.001759e+01 4.625759e+01 3.975395e+01 5.418879e+01 3.679184e+01 1.577943e+00 2.469152e+00 4.018555e+00 3.844006e+00 4.345693e+00 4.573790e+00 3.023700e+00 3.222721e+00 2.753543e+00 2.516360e+00 2.540440e+00 1.846074e+00 1.745014e+00
<GCONST> 1.088894e+02
<STATE> 3
<MEAN> 25
 2.826910e+00 1.610132e+00 -1.352933e+00 -9.087308e-01 -4.053261e-01 -3.031330e+00 -5.893454e-01 4.330199e-01 4.166374e-01 -1.567937e+00 4.003747e-01 -1.085046e+00 -2.423737e-01 -1.172099e-01 3.843067e-01 -2.529964e-02 -2.079567e-01 3.537277e-01 8.843969e-02 6.701206e-02 6.922235e-02 2.116935e-01 -5.301557e-02 1.192111e-01 -2.072724e-01
<VARIANCE> 25
 3.731488e+01 5.025393e+01 1.317516e+02 1.171433e+02 9.974254e+01 9.545557e+01 7.131040e+01 6.817831e+01 4.470338e+01 3.993134e+01 5.286483e+01 3.660423e+01 1.522585e+00 2.438664e+00 3.965496e+00 3.809311e+00 4.091081e+00 4.308787e+00 2.859544e+00 2.960006e+00 2.603924e+00 2.362375e+00 2.401232e+00 1.773318e+00 1.517797e+00
<GCONST> 1.085483e+02
<STATE> 4
<MEAN> 25
 1.856881e+00 1.209672e+00 5.246689e-02 -8.502036e-01 -1.103601e+00 -1.784718e+00 -1.057640e-01 7.406111e-01 4.441402e-01 -1.072345e+00 -6.985170e-02 -7.101101e-01 -3.371720e-01 -1.311032e-01 4.634982e-01 1.161432e-03 -2.241829e-01 4.553078e-01 1.584730e-01 7.065645e-02 2.260059e-02 2.079835e-01 -1.526531e-01 1.248080e-01 -2.957211e-01
<VARIANCE> 25
 4.469209e+01 5.736235e+01 1.486645e+02 1.089461e+02 9.543968e+01 1.019644e+02 7.317325e+01 6.707423e+01 4.277383e+01 4.069252e+01 5.514658e+01 3.769335e+01 1.667700e+00 2.603527e+00 4.035440e+00 3.980703e+00 3.895463e+00 4.177918e+00 2.856937e+00 2.796545e+00 2.511478e+00 2.304995e+00 2.238127e+00 1.793103e+00 1.425023e+00
<GCONST> 1.088842e+02
<TRANSP> 5
 0.000000e+00 1.000000e+00 0.000000e+00 0.000000e+00 0.000000e+00
 0.000000e+00 6.377363e-01 3.622637e-01 0.000000e+00 0.000000e+00
 0.000000e+00 0.000000e+00 6.377339e-01 3.622661e-01 0.000000e+00
 0.000000e+00 0.000000e+00 0.000000e+00 7.492949e-01 2.507050e-01
 0.000000e+00 0.000000e+00 0.000000e+00 0.000000e+00 0.000000e+00
<ENDHMM>
~h "m"
<BEGINHMM>
<NUMSTATES> 5
<STATE> 2
<MEAN> 25
 2.205928e+00 7.398186e-01 -5.871354e-01 2.638610e+00 3.228558e+00 -8.695874e-01 -2.357373e+00 -6.935315e-01 1.469561e+00 -9.725770e-01 -1.284091e+00 -1.475979e+00 -1.086295e-04 -1.544639e-01 1.863107e-02 -8.321609e-03 -3.571478e-02 -3.085200e-01 -9.533319e-02 1.807697e-02 3.933553e-02 -6.416295e-02 7.215065e-02 1.126749e-01 1.560334e-01
<VARIANCE> 25
 2.238330e+01 4.189283e+01 5.622906e+01 1.003696e+02 6.966666e+01 9.768950e+01 7.098728e+01 4.895174e+01 4.562489e+01 3.744349e+01 4.653897e+01 3.589562e+01 1.080204e+00 1.946186e+00 2.874566e+00 4.353901e+00 3.194675e+00 5.589703e+00 3.275177e+00 3.038809e+00 2.802589e+00 2.521280e+00 2.408653e+00 2.232668e+00 1.696782e+00
<GCONST> 1.058882e+02
<STATE> 3
<MEAN> 25
 1.990272e+00 2.277493e-01 -4.860076e-01 2.406314e+00 2.972090e+00 -1.247095e+00 -2.306847e+00 -6.692019e-01 1.459995e+00 -9.193822e-01 -9.896719e-01 -1.085869e+00 -8.607466e-02 -1.991035e-01 -2.108985e-02 -1.181244e-01 -7.082926e-02 -1.162776e-01 5.327484e-02 2.594124e-02 1.674976e-03 3.641457e-02 1.554978e-01 1.682317e-01 9.070388e-02
<VARIANCE> 25
 2.281828e+01 4.070681e+01 5.901907e+01 1.066008e+02 6.693061e+01 9.749475e+01 7.266240e+01 4.926082e+01 4.446756e+01 3.811736e+01 4.842710e+01 3.383509e+01 1.015499e+00 1.755324e+00 2.774559e+00 3.911840e+00 2.890126e+00 5.003257e+00 2.894152e+00 2.667036e+00 2.609161e+00 2.451750e+00 2.248895e+00 2.016272e+00 1.596400e+00
<GCONST> 1.048441e+02
<STATE> 4
<MEAN> 25
 1.612648e+00 -2.873321e-01 -2.982267e-01 1.651516e+00 2.381616e+00 -7.465447e-01 -1.646190e+00 -7.625522e-01 1.240883e+00 -5.470383e-01 -4.386515e-01 -6.785997e-01 -1.450786e-01 -1.693470e-01 1.230105e-02 -1.975292e-01 -1.352150e-01 8.176176e-02 2.115176e-01 2.956710e-02 -5.534631e-02 1.184817e-01 1.892775e-01 1.602578e-01 1.320088e-02
<VARIANCE> 25
 2.690140e+01 4.077816e+01 6.955626e+01 1.031580e+02 6.524652e+01 9.553273e+01 7.657639e+01 4.919234e+01 4.463563e+01 3.995000e+01 5.055350e+01 3.354626e+01 1.061123e+00 1.840311e+00 2.653101e+00 3.464765e+00 2.698244e+00 4.354026e+00 2.654660e+00 2.461607e+00 2.487851e+00 2.398274e+00 2.113595e+00 1.812668e+00 1.534142e+00
<GCONST> 1.045052e+02
<TRANSP> 5
 0.000000e+00 1.000000e+00 0.000000e+00 0.000000e+00 0.000000e+00
 0.000000e+00 6.351017e-01 3.648983e-01 0.000000e+00 0.000000e+00
 0.000000e+00 0.000000e+00 6.351031e-01 3.648969e-01 0.000000e+00
 0.000000e+00 0.000000e+00 0.000000e+00 7.497209e-01 2.502791e-01
 0.000000e+00 0.000000e+00 0.000000e+00 0.000000e+00 0.000000e+00
<ENDHMM>
~h "n"
<BEGINHMM>
<NUMSTATES> 5
<STATE> 2
<MEAN> 25
 3.330682e+00 1.026110e+00 -3.111631e+00 2.686138e-01 2.946282e+00 -8.260356e-01 -1.827151e+00 -2.546640e+00 -3.723691e-01 -4.699046e-01 1.933441e+00 -1.475656e-01 -1.484161e-01 5.469196e-02 2.585163e-01 1.490490e-01 -1.543675e-01 1.003283e-01 1.115428e-01 1.444490e-01 3.966786e-02 3.391045e-02 -1.752024e-01 8.450189e-02 -2.318921e-01
<VARIANCE> 25
 1.321045e+01 2.562979e+01 6.180051e+01 6.092294e+01 4.060646e+01 1.004538e+02 4.287105e+01 3.405026e+01 3.426894e+01 2.597407e+01 3.413721e+01 2.199387e+01 6.476862e-01 1.312922e+00 2.613253e+00 2.713098e+00 2.028568e+00 5.202134e+00 2.114861e+00 1.995267e+00 2.276017e+00 1.704105e+00 2.134490e+00 1.409169e+00 1.165787e+00
<GCONST> 9.722021e+01
<STATE> 3
<MEAN> 25
 2.867918e+00 1.058799e+00 -2.337468e+00 7.625068e-01 2.429365e+00 -8.794858e-01 -1.550714e+00 -1.999248e+00 -1.868083e-01 -4.743289e-01 1.382289e+00 8.508935e-02 -2.272682e-01 -2.983958e-03 3.081299e-01 1.524194e-01 -2.301010e-01 2.432554e-02 1.609916e-01 2.656532e-01 6.856267e-02 2.179186e-02 -2.032080e-01 1.010497e-01 -2.615322e-01
<VARIANCE> 25
 1.453003e+01 2.448122e+01 6.205701e+01 6.151486e+01 4.007565e+01 1.060312e+02 4.414640e+01 3.649054e+01 3.545243e+01 2.634348e+01 3.310818e+01 2.221730e+01 5.920321e-01 1.172164e+00 2.317606e+00 2.476448e+00 1.861953e+00 4.674536e+00 1.944121e+00 1.877793e+00 2.145151e+00 1.673019e+00 1.969712e+00 1.359222e+00 1.004381e+00
<GCONST> 9.635520e+01
<STATE> 4
<MEAN> 25
 2.139193e+00 9.340042e-01 -1.302515e+00 1.303325e+00 1.527951e+00 -1.204725e+00 -1.122582e+00 -1.030195e+00 1.344663e-01 -6.650029e-01 6.493343e-01 3.940707e-01 -3.020340e-01 -2.288733e-02 3.335991e-01 1.339851e-01 -3.065854e-01 1.813089e-02 2.063605e-01 3.584129e-01 9.028415e-02 2.796349e-02 -2.084234e-01 1.181491e-01 -3.281952e-01
<VARIANCE> 25
 1.766845e+01 2.468337e+01 6.626460e+01 6.153016e+01 4.089683e+01 1.164478e+02 4.520346e+01 3.877793e+01 3.795175e+01 2.826693e+01 3.250274e+01 2.352928e+01 5.467703e-01 1.018082e+00 1.869037e+00 2.122613e+00 1.683963e+00 3.991039e+00 1.781609e+00 1.665307e+00 2.010694e+00 1.609763e+00 1.741886e+00 1.275561e+00 8.194036e-01
<GCONST> 9.545184e+01
<TRANSP> 5
 0.000000e+00 1.000000e+00 0.000000e+00 0.000000e+00 0.000000e+00
 0.000000e+00 6.356377e-01 3.643623e-01 0.000000e+00 0.000000e+00
 0.000000e+00 0.000000e+00 6.356385e-01 3.643615e-01 0.000000e+00
 0.000000e+00 0.000000e+00 0.000000e+00 7.483833e-01 2.516167e-01
 0.000000e+00 0.000000e+00 0.000000e+00 0.000000e+00 0.000000e+00
<ENDHMM>
~h "p"
<BEGINHMM>
<NUMSTATES> 5
<STATE> 2
<MEAN> 25
 1.224850e+00 2.274731e-01 -2.128787e+00 -2.738607e+00 3.874655e-01 -2.321274e+00 -7.021600e-01 -3.820617e-01 -4.052692e-01 -4.686990e-01 1.051920e+00 8.582132e-02 2.836436e-01 -7.716872e-03 -2.634535e-01 1.067646e-01 3.931655e-01 -3.762791e-01 -1.634476e-01 -1.713759e-01 2.476110e-02 -1.371079e-01 1.876057e-01 -2.175385e-01 4.419772e-01
<VARIANCE> 25
 3.088172e+01 2.974163e+01 8.159795e+01 7.932703e+01 6.403200e+01 8.206694e+01 4.693203e+01 5.890549e+01 3.967258e+01 3.300950e+01 4.821991e+01 2.744732e+01 2.307118e+00 2.487375e+00 4.144898e+00 5.070894e+00 4.450867e+00 5.566718e+00 3.241318e+00 3.837414e+00 2.820364e+00 2.810154e+00 3.406006e+00 2.116638e+00 4.182631e+00
<GCONST> 1.084018e+02
<STATE> 3
<MEAN> 25
 1.844914e+00 2.479109e-01 -2.725935e+00 -2.346999e+00 1.233852e+00 -3.055348e+00 -9.774769e-01 -5.930008e-01 -1.953605e-01 -8.739569e-01 1.308438e+00 -4.608501e-01 2.317471e-01 5.085386e-03 -2.254974e-01 1.908449e-01 3.095770e-01 -2.427987e-01 -9.003732e-02 -7.827024e-02 8.178198e-02 -1.353882e-01 9.104329e-02 -1.987051e-01 2.855198e-01
<VARIANCE> 25
 2.922195e+01 2.982193e+01 8.499738e+01 8.422566e+01 6.292224e+01 8.133098e+01 4.752679e+01 5.928579e+01 3.991029e+01 3.330763e+01 4.611929e+01 2.833735e+01 1.892079e+00 2.165042e+00 3.882428e+00 4.855038e+00 4.306020e+00 5.232298e+00 3.018622e+00 3.558939e+00 2.718438e+00 2.660287e+00 3.069908e+00 1.988000e+00 3.657170e+00
<GCONST> 1.073648e+02
<STATE> 4
<MEAN> 25
 2.414973e+00 3.222681e-01 -3.328831e+00 -1.605448e+00 1.952330e+00 -3.659801e+00 -1.184731e+00 -4.978911e-01 1.409368e-01 -1.394719e+00 1.265164e+00 -9.843813e-01 1.468252e-01 2.314698e-02 -1.284448e-01 2.652439e-01 1.828104e-01 -8.112314e-02 -2.132511e-02 -5.572354e-04 7.339841e-02 -8.929598e-02 -1.317814e-02 -1.340968e-01 7.918318e-02
<VARIANCE> 25
 2.672564e+01 2.849255e+01 8.485118e+01 8.807228e+01 6.308749e+01 7.864012e+01 4.963804e+01 5.875171e+01 4.078325e+01 3.410982e+01 4.369723e+01 2.861930e+01 1.555727e+00 1.806885e+00 3.562798e+00 4.333853e+00 4.117424e+00 4.899511e+00 2.674808e+00 3.134378e+00 2.568527e+00 2.449192e+00 2.681429e+00 1.828508e+00 3.107462e+00
<GCONST> 1.058219e+02
<TRANSP> 5
 0.000000e+00 1.000000e+00 0.000000e+00 0.000000e+00 0.000000e+00
 0.000000e+00 6.171872e-01 3.828128e-01 0.000000e+00 0.000000e+00
 0.000000e+00 0.000000e+00 6.171877e-01 3.828123e-01 0.000000e+00
 0.000000e+00 0.000000e+00 0.000000e+00 7.256925e-01 2.743075e-01
 0.000000e+00 0.000000e+00 0.000000e+00 0.000000e+00 0.000000e+00
<ENDHMM>
~h "r"
<BEGINHMM>
<NUMSTATES> 5
<STATE> 2
<MEAN> 25
 2.510395e+00 1.188937e-01 -5.052938e+00 -3.283002e+00 1.419002e+00 1.786987e-01 5.791888e-01 -2.237045e-01 -3.371390e-01 -3.484351e-01 7.591820e-01 5.312502e-01 -3.500297e-02 -3.584430e-03 1.713549e-02 6.119686e-02 2.564980e-01 -2.079335e-01 -1.024657e-01 4.222412e-02 -3.606988e-02 -2.797276e-02 7.946335e-03 -1.455599e-01 9.023049e-02
<VARIANCE> 25
 2.155620e+01 2.612855e+01 8.927191e+01 8.185264e+01 6.501688e+01 6.147921e+01 4.045423e+01 4.242878e+01 3.722293e+01 2.540505e+01 5.044703e+01 2.511744e+01 2.028695e+00 2.195259e+00 4.439872e+00 5.062657e+00 4.441298e+00 4.126865e+00 2.759680e+00 3.061260e+00 2.671593e+00 2.685652e+00 3.577844e+00 1.839423e+00 3.639146e+00
<GCONST> 1.057101e+02
<STATE> 3
<MEAN> 25
 2.356614e+00 3.884252e-02 -4.909786e+00 -2.886688e+00 2.116055e+00 -5.340204e-01 2.218875e-01 -8.311007e-02 -4.067869e-01 -4.550602e-01 9.245117e-01 2.362875e-01 -5.050176e-02 -1.786774e-02 5.808882e-02 1.525047e-01 2.456874e-01 -2.588125e-01 -1.171073e-01 5.380772e-02 -1.439017e-02 -5.936540e-02 6.780005e-02 -1.066767e-01 1.007324e-01
<VARIANCE> 25
 2.171330e+01 2.499989e+01 9.932542e+01 9.255223e+01 6.648074e+01 6.699198e+01 4.087811e+01 4.159546e+01 3.757686e+01 2.557154e+01 5.332542e+01 2.501345e+01 1.798604e+00 1.965332e+00 4.360205e+00 4.962657e+00 4.279813e+00 4.302240e+00 2.656361e+00 3.039308e+00 2.573292e+00 2.691848e+00 3.798658e+00 1.701089e+00 3.600656e+00
<GCONST> 1.056949e+02
<STATE> 4
<MEAN> 25
 2.155153e+00 -4.407553e-02 -4.432331e+00 -1.874984e+00 2.819124e+00 -1.338244e+00 -1.299715e-01 1.336221e-01 -3.528232e-01 -6.277453e-01 1.270042e+00 2.304656e-02 -5.544668e-02 1.574855e-02 1.576012e-01 2.552591e-01 1.363840e-01 -1.893462e-01 -6.994130e-02 5.896917e-02 1.674467e-02 -7.115127e-02 6.387328e-02 -6.215726e-02 3.795798e-02
<VARIANCE> 25
 2.224695e+01 2.472761e+01 1.090904e+02 1.070118e+02 6.149669e+01 7.319864e+01 4.295048e+01 4.215123e+01 3.938615e+01 2.626790e+01 5.490879e+01 2.648148e+01 1.601578e+00 1.786324e+00 4.208022e+00 4.728082e+00 3.982013e+00 4.411685e+00 2.561961e+00 2.836260e+00 2.395447e+00 2.643804e+00 3.747525e+00 1.547716e+00 3.369496e+00
<GCONST> 1.054689e+02
<TRANSP> 5
 0.000000e+00 1.000000e+00 0.000000e+00 0.000000e+00 0.000000e+00
 0.000000e+00 6.286878e-01 3.713122e-01 0.000000e+00 0.000000e+00
 0.000000e+00 0.000000e+00 6.286873e-01 3.713128e-01 0.000000e+00
 0.000000e+00 0.000000e+00 0.000000e+00 7.359920e-01 2.640080e-01
 0.000000e+00 0.000000e+00 0.000000e+00 0.000000e+00 0.000000e+00
<ENDHMM>
~h "s"
<BEGINHMM>
<NUMSTATES> 5
<STATE> 2
<MEAN> 25
 -3.782645e+00 -5.679566e+00 7.693673e+00 -2.751481e+00 -3.043997e+00 4.155503e+00 1.770026e+00 -1.756615e+00 8.492333e-01 1.113384e+00 6.178575e-01 1.733807e+00 4.047060e-01 3.600068e-01 -5.246629e-01 5.596907e-02 1.092839e-01 -4.151674e-01 7.008153e-03 8.526674e-02 7.954556e-02 -1.607915e-01 1.540091e-02 -1.763658e-01 1.695243e-01
<VARIANCE> 25
 1.073593e+02 8.871744e+01 2.292439e+02 1.079475e+02 8.201855e+01 1.395109e+02 8.662229e+01 4.799580e+01 4.314384e+01 4.325251e+01 3.732394e+01 3.121685e+01 4.314106e+00 4.440526e+00 7.924316e+00 4.845711e+00 3.521529e+00 5.740270e+00 3.874747e+00 2.871524e+00 2.659964e+00 2.758513e+00 2.157583e+00 1.914437e+00 1.963512e+00
<GCONST> 1.135975e+02
<STATE> 3
<MEAN> 25
 -2.696005e+00 -4.637072e+00 5.948874e+00 -2.420918e+00 -2.598078e+00 2.963366e+00 1.600152e+00 -1.395144e+00 9.565257e-01 7.114793e-01 6.635196e-01 1.248066e+00 3.933651e-01 3.965260e-01 -6.820043e-01 1.685568e-01 1.972313e-01 -4.173351e-01 -5.870437e-02 1.563682e-01 2.339222e-02 -1.166615e-01 -1.074944e-02 -1.998071e-01 1.581632e-03
<VARIANCE> 25
 1.070168e+02 8.601582e+01 2.372143e+02 1.047153e+02 8.534481e+01 1.397522e+02 8.448679e+01 4.891665e+01 4.169476e+01 4.194870e+01 3.467915e+01 3.168251e+01 3.705348e+00 3.724375e+00 6.844930e+00 4.472518e+00 3.480996e+00 5.516201e+00 3.682071e+00 2.951167e+00 2.563574e+00 2.681564e+00 2.076339e+00 1.876143e+00 1.908632e+00
<GCONST> 1.126975e+02
<STATE> 4
<MEAN> 25
 -1.683260e+00 -3.458988e+00 3.604595e+00 -1.738480e+00 -1.930432e+00 1.750733e+00 1.475899e+00 -7.795526e-01 7.523768e-01 5.592240e-01 6.752066e-01 7.332532e-01 2.454048e-01 3.299869e-01 -6.379988e-01 2.301232e-01 2.106427e-01 -3.176414e-01 -7.553992e-02 2.172102e-01 -1.729421e-02 -4.068181e-02 -4.314485e-02 -1.637229e-01 -1.897355e-01
<VARIANCE> 25
 1.046042e+02 8.051651e+01 2.358750e+02 9.797328e+01 8.984969e+01 1.351638e+02 8.405796e+01 5.269032e+01 3.976716e+01 4.069596e+01 3.265321e+01 3.294669e+01 2.870201e+00 2.957461e+00 5.396593e+00 3.934636e+00 3.350534e+00 4.921852e+00 3.384445e+00 2.864799e+00 2.347504e+00 2.489570e+00 1.867368e+00 1.767141e+00 1.772949e+00
<GCONST> 1.110049e+02
<TRANSP> 5
 0.000000e+00 1.000000e+00 0.000000e+00 0.000000e+00 0.000000e+00
 0.000000e+00 6.400104e-01 3.599897e-01 0.000000e+00 0.000000e+00
 0.000000e+00 0.000000e+00 6.400096e-01 3.599904e-01 0.000000e+00
 0.000000e+00 0.000000e+00 0.000000e+00 7.573357e-01 2.426643e-01
 0.000000e+00 0.000000e+00 0.000000e+00 0.000000e+00 0.000000e+00
<ENDHMM>
~h "t"
<BEGINHMM>
<NUMSTATES> 5
<STATE> 2
<MEAN> 25
 1.384509e+00 9.565329e-01 -6.750495e-01 2.380895e+00 2.114494e+00 -2.292595e+00 -1.875886e+00 -1.520274e+00 -1.028851e+00 -1.238570e+00 -9.446323e-03 -9.797436e-01 1.404368e-01 2.033004e-01 1.177176e-01 3.164180e-01 2.520100e-01 6.585713e-02 -2.688036e-02 -1.708948e-01 -1.225315e-01 -2.301636e-02 6.351572e-02 -1.171985e-01 2.324587e-02
<VARIANCE> 25
 3.142054e+01 5.289475e+01 7.178461e+01 9.229992e+01 6.594303e+01 8.098563e+01 6.313084e+01 6.992749e+01 4.298084e+01 4.208744e+01 5.379956e+01 3.949042e+01 2.084565e+00 2.838291e+00 2.641877e+00 3.934384e+00 4.595571e+00 5.754563e+00 3.432722e+00 3.965077e+00 2.858432e+00 3.288274e+00 2.732769e+00 2.442440e+00 2.934227e+00
<GCONST> 1.095193e+02
<STATE> 3
<MEAN> 25
 1.455418e+00 1.269317e+00 -3.701443e-01 2.862559e+00 2.366048e+00 -1.871899e+00 -1.678066e+00 -1.655228e+00 -1.303231e+00 -1.201605e+00 4.593332e-02 -1.098800e+00 -3.210135e-02 1.009302e-01 1.459367e-01 1.621486e-01 1.897747e-02 2.284343e-01 7.620762e-02 6.197898e-03 -6.637429e-02 5.146571e-02 -4.661041e-02 4.782836e-03 -1.882451e-01
<VARIANCE> 25
 2.919987e+01 4.960403e+01 6.546744e+01 8.695804e+01 5.949486e+01 8.243061e+01 6.146073e+01 6.577232e+01 4.231449e+01 4.166209e+01 4.838070e+01 3.792632e+01 1.718099e+00 2.351329e+00 2.361325e+00 3.460442e+00 3.966933e+00 5.395914e+00 3.444288e+00 3.710176e+00 2.858623e+00 3.215132e+00 2.474743e+00 2.320947e+00 2.610713e+00
<GCONST> 1.076982e+02
<STATE> 4
<MEAN> 25
 1.170262e+00 1.279091e+00 -8.522904e-02 2.942829e+00 2.156309e+00 -1.382603e+00 -1.115646e+00 -1.208580e+00 -1.459376e+00 -1.078893e+00 3.726175e-03 -9.500411e-01 -8.476446e-02 1.902949e-02 8.240724e-02 3.819067e-03 -8.871537e-02 1.736385e-01 8.362013e-02 5.965525e-02 -4.641018e-02 6.662652e-02 -4.498469e-02 6.279722e-02 -1.863651e-01
<VARIANCE> 25
 3.068116e+01 4.835226e+01 5.949842e+01 8.167710e+01 5.604823e+01 8.612059e+01 6.214384e+01 6.124189e+01 4.223498e+01 4.006268e+01 3.984255e+01 3.810600e+01 1.571635e+00 2.233228e+00 2.393952e+00 3.493048e+00 3.601817e+00 5.025726e+00 3.803094e+00 3.637482e+00 3.032970e+00 3.068504e+00 2.337883e+00 2.214694e+00 2.566461e+00
<GCONST> 1.069431e+02
<TRANSP> 5
 0.000000e+00 1.000000e+00 0.000000e+00 0.000000e+00 0.000000e+00
 0.000000e+00 6.284690e-01 3.715310e-01 0.000000e+00 0.000000e+00
 0.000000e+00 0.000000e+00 6.284691e-01 3.715309e-01 0.000000e+00
 0.000000e+00 0.000000e+00 0.000000e+00 7.459772e-01 2.540228e-01
 0.000000e+00 0.000000e+00 0.000000e+00 0.000000e+00 0.000000e+00
<ENDHMM>
~h "ah"
<BEGINHMM>
<NUMSTATES> 5
<STATE> 2
<MEAN> 25
 3.523743e+00 -5.661501e-02 -5.759393e+00 -4.259313e+00 -1.981187e-01 -3.031900e+00 1.042766e-01 9.522327e-01 1.265406e+00 -9.183254e-01 2.040027e+00 4.510356e-01 -1.330637e-01 3.446994e-02 1.498481e-01 2.659435e-01 -2.422978e-02 2.689309e-01 1.439054e-02 -9.809121e-03 -4.469588e-02 1.524378e-01 -8.063086e-02 8.927739e-02 -3.311782e-01
<VARIANCE> 25
 3.159313e+01 3.560052e+01 1.007831e+02 6.857594e+01 5.091339e+01 7.051501e+01 4.835888e+01 4.224613e+01 3.500965e+01 3.199789e+01 3.563631e+01 2.821666e+01 1.545643e+00 1.872903e+00 3.861631e+00 3.793988e+00 3.099786e+00 4.132440e+00 2.444416e+00 2.229430e+00 2.300994e+00 2.157923e+00 1.922146e+00 1.694605e+00 2.183943e+00
<GCONST> 1.031135e+02
<STATE> 3
<MEAN> 25
 3.007716e+00 5.406164e-02 -5.074933e+00 -3.412740e+00 -3.177868e-01 -2.164846e+00 1.951819e-01 8.773633e-01 1.065735e+00 -4.502111e-01 1.760491e+00 6.709102e-01 -2.283756e-01 2.586462e-02 3.220998e-01 3.449830e-01 -3.675095e-02 3.651706e-01 3.753180e-02 -4.635838e-02 -9.199719e-02 1.987708e-01 -1.318194e-01 7.231806e-02 -4.084128e-01
<VARIANCE> 25
 3.123981e+01 3.510316e+01 9.501489e+01 6.818987e+01 5.064236e+01 7.013153e+01 4.846488e+01 4.127263e+01 3.421808e+01 3.229513e+01 3.472905e+01 2.800961e+01 1.424335e+00 1.847468e+00 3.400879e+00 3.447247e+00 2.991422e+00 3.985912e+00 2.428441e+00 2.195308e+00 2.258319e+00 2.098879e+00 1.837861e+00 1.685998e+00 2.010727e+00
<GCONST> 1.023539e+02
<STATE> 4
<MEAN> 25
 2.188137e+00 1.884521e-01 -3.748159e+00 -2.173748e+00 -3.566558e-01 -1.181401e+00 2.020121e-01 6.060423e-01 6.657898e-01 4.754166e-02 1.290699e+00 7.622585e-01 -2.629223e-01 1.821050e-02 4.122814e-01 3.537566e-01 -3.303427e-02 3.007406e-01 3.540796e-02 -7.212906e-02 -1.334776e-01 1.706570e-01 -1.503554e-01 3.114861e-02 -3.687236e-01
<VARIANCE> 25
 3.265672e+01 3.674118e+01 9.211912e+01 7.276169e+01 5.370748e+01 7.215190e+01 5.184852e+01 4.212349e+01 3.472541e+01 3.328746e+01 3.362639e+01 2.956093e+01 1.403731e+00 1.888680e+00 3.024103e+00 3.193824e+00 2.915746e+00 3.963749e+00 2.543758e+00 2.238452e+00 2.279132e+00 2.093153e+00 1.780358e+00 1.720682e+00 1.978361e+00
<GCONST> 1.025467e+02
<TRANSP> 5
 0.000000e+00 1.000000e+00 0.000000e+00 0.000000e+00 0.000000e+00
 0.000000e+00 6.486965e-01 3.513035e-01 0.000000e+00 0.000000e+00
 0.000000e+00 0.000000e+00 6.486953e-01 3.513047e-01 0.000000e+00
 0.000000e+00 0.000000e+00 0.000000e+00 7.639732e-01 2.360268e-01
 0.000000e+00 0.000000e+00 0.000000e+00 0.000000e+00 0.000000e+00
<ENDHMM>
~h "ax"
<BEGINHMM>
<NUMSTATES> 5
<STATE> 2
<MEAN> 25
 1.678105e+00 1.525565e+00 3.550068e-01 1.179314e+00 7.648101e-01 8.257159e-01 -1.731487e-01 -1.298755e+00 -1.853003e-01 -9.947038e-01 -6.243941e-01 -1.114691e+00 2.213317e-01 9.474530e-02 -1.611614e-01 1.049057e-01 2.951564e-01 -2.211487e-01 -2.090657e-01 -1.080378e-03 2.106068e-01 7.129237e-02 1.098908e-02 -1.369949e-01 1.904954e-01
<VARIANCE> 25
 4.002406e+01 4.129905e+01 8.359843e+01 5.737687e+01 5.033417e+01 9.543248e+01 4.335167e+01 4.667530e+01 3.479160e+01 2.786561e+01 2.959456e+01 3.389596e+01 2.226046e+00 2.603297e+00 4.219616e+00 3.463214e+00 3.014249e+00 5.369480e+00 2.723274e+00 2.281240e+00 2.059121e+00 2.251278e+00 2.022237e+00 1.998313e+00 2.087933e+00
<GCONST> 1.044263e+02
<STATE> 3
<MEAN> 25
 1.951299e+00 1.476349e+00 6.572798e-03 1.184485e+00 1.447246e+00 1.059427e-01 -7.033176e-01 -1.160351e+00 3.394453e-01 -7.584303e-01 -6.023675e-01 -1.352164e+00 7.225920e-02 -8.884681e-02 -1.036873e-01 -6.776660e-02 2.190197e-01 -3.501265e-01 -2.114211e-01 9.216751e-02 2.300452e-01 9.194399e-02 3.198978e-02 -6.471394e-02 2.371676e-01
<VARIANCE> 25
 3.719820e+01 4.031227e+01 8.360244e+01 5.860366e+01 5.246157e+01 9.634359e+01 4.432810e+01 4.537431e+01 3.490866e+01 2.772668e+01 2.978981e+01 3.260144e+01 2.123772e+00 2.629243e+00 4.464956e+00 3.966834e+00 3.019159e+00 5.830250e+00 2.697118e+00 2.185410e+00 2.121416e+00 1.956534e+00 1.968605e+00 2.014547e+00 2.309256e+00
<GCONST> 1.045190e+02
<STATE> 4
<MEAN> 25
 2.011390e+00 7.374257e-01 -5.916306e-01 5.237491e-01 2.099695e+00 -1.168358e+00 -1.371633e+00 -8.559699e-01 9.650164e-01 -5.261528e-01 -3.294522e-01 -1.337397e+00 -8.209236e-03 -2.506559e-01 -1.074845e-01 -2.308494e-01 1.117913e-01 -4.198927e-01 -1.611004e-01 1.564009e-01 2.106380e-01 5.064943e-02 8.843440e-02 2.759153e-02 3.072630e-01
<VARIANCE> 25
 3.891766e+01 4.373870e+01 9.723339e+01 6.869371e+01 5.724540e+01 1.043929e+02 4.781239e+01 4.496552e+01 3.672511e+01 2.895855e+01 3.063255e+01 3.248614e+01 2.239991e+00 2.797949e+00 5.063847e+00 4.717227e+00 3.125421e+00 6.201569e+00 2.867168e+00 2.248580e+00 2.332264e+00 1.865953e+00 2.088922e+00 2.177965e+00 2.588776e+00
<GCONST> 1.062078e+02
<TRANSP> 5
 0.000000e+00 1.000000e+00 0.000000e+00 0.000000e+00 0.000000e+00
 0.000000e+00 5.990247e-01 4.009753e-01 0.000000e+00 0.000000e+00
 0.000000e+00 0.000000e+00 5.990250e-01 4.009750e-01 0.000000e+00
 0.000000e+00 0.000000e+00 0.000000e+00 7.056087e-01 2.943912e-01
 0.000000e+00 0.000000e+00 0.000000e+00 0.000000e+00 0.000000e+00
<ENDHMM>
~h "ch"
<BEGINHMM>
<NUMSTATES> 5
<STATE> 2
<MEAN> 25
 -1.559519e+00 -8.756266e-01 4.508112e+00 3.958156e-01 -2.573277e+00 2.998298e+00 1.995830e+00 4.514982e-01 5.138642e-01 1.424897e-01 -1.199784e+00 -4.716932e-01 -2.782408e-01 -5.272780e-01 3.546586e-01 3.400186e-01 4.347355e-01 -1.496786e-01 -3.598487e-01 -6.002359e-01 -2.979433e-01 -1.335524e-01 1.251194e-01 -1.414415e-01 2.943124e-01
<VARIANCE> 25
 4.563377e+01 1.001356e+02 8.710363e+01 5.340554e+01 7.958362e+01 9.322391e+01 7.085621e+01 6.208154e+01 2.820381e+01 2.657903e+01 2.734292e+01 2.423109e+01 3.042654e+00 7.824124e+00 6.800885e+00 5.953969e+00 7.526668e+00 6.408687e+00 5.298466e+00 4.785975e+00 1.919313e+00 1.831856e+00 2.701509e+00 2.003204e+00 2.266166e+00
<GCONST> 1.109799e+02
<STATE> 3
<MEAN> 25
 -2.035554e+00 -1.969664e+00 5.104390e+00 1.254550e+00 -1.240650e+00 2.610699e+00 1.040312e+00 -8.736780e-01 -8.415560e-02 -1.772999e-01 -9.505599e-01 -8.511183e-01 -1.113440e-01 -4.203385e-01 1.636374e-01 4.971760e-01 7.754567e-01 -3.422222e-01 -5.375015e-01 -6.524255e-01 -2.790194e-01 -1.483540e-01 1.757207e-01 -2.361780e-01 4.003532e-01
<VARIANCE> 25
 5.062766e+01 1.016443e+02 8.899458e+01 6.083197e+01 9.497420e+01 1.069346e+02 7.977368e+01 7.076576e+01 2.567892e+01 2.682582e+01 2.847122e+01 2.728880e+01 3.398578e+00 8.091350e+00 7.369887e+00 6.902926e+00 8.474131e+00 7.367145e+00 5.461565e+00 5.352527e+00 1.846028e+00 2.099614e+00 2.833109e+00 2.002848e+00 2.281001e+00
<GCONST> 1.128126e+02
<STATE> 4
<MEAN> 25
 -1.958942e+00 -2.559142e+00 5.114404e+00 2.424528e+00 1.024772e+00 1.866567e+00 -3.916074e-01 -2.436826e+00 -6.984078e-01 -5.373347e-01 -5.755361e-01 -1.500884e+00 6.842034e-02 -2.288042e-01 -5.737628e-02 5.805609e-01 1.018338e+00 -4.799483e-01 -7.075840e-01 -6.942829e-01 -2.956993e-01 -1.340750e-01 1.920288e-01 -2.836948e-01 4.207754e-01
<VARIANCE> 25
 5.746028e+01 1.003131e+02 9.423009e+01 6.853944e+01 1.057839e+02 1.156275e+02 8.670567e+01 7.819529e+01 2.409592e+01 2.727687e+01 3.052516e+01 2.903344e+01 3.662456e+00 7.566346e+00 7.749198e+00 7.665356e+00 8.756943e+00 8.199313e+00 5.537489e+00 5.837984e+00 1.775955e+00 2.457576e+00 2.811427e+00 1.986989e+00 2.338338e+00
<GCONST> 1.140873e+02
<TRANSP> 5
 0.000000e+00 1.000000e+00 0.000000e+00 0.000000e+00 0.000000e+00
 0.000000e+00 5.559369e-01 4.440631e-01 0.000000e+00 0.000000e+00
 0.000000e+00 0.000000e+00 5.559368e-01 4.440632e-01 0.000000e+00
 0.000000e+00 0.000000e+00 0.000000e+00 6.516996e-01 3.483004e-01
 0.000000e+00 0.000000e+00 0.000000e+00 0.000000e+00 0.000000e+00
<ENDHMM>
~h "eh"
<BEGINHMM>
<NUMSTATES> 5
<STATE> 2
<MEAN> 25
 2.108778e+00 -2.685168e-01 -2.312968e+00 7.991700e-02 2.215786e+00 -1.620383e+00 -1.169243e+00 -1.769171e+00 -6.209592e-01 -4.315819e-01 1.999860e+00 -1.732269e-01 -3.829879e-02 2.378870e-02 2.028255e-01 6.657040e-02 -1.316506e-01 1.245902e-01 1.336378e-01 1.557275e-01 8.607969e-02 -5.330662e-02 -1.914811e-01 -8.535353e-02 -7.765333e-02
<VARIANCE> 25
 2.611746e+01 3.418864e+01 8.668382e+01 7.782481e+01 7.060577e+01 8.979816e+01 5.877139e+01 5.781843e+01 4.000232e+01 3.379094e+01 4.838689e+01 2.672253e+01 1.480996e+00 1.930414e+00 3.749022e+00 3.384874e+00 3.834638e+00 4.636869e+00 2.712090e+00 3.008997e+00 2.489938e+00 2.440724e+00 2.699423e+00 1.594132e+00 2.404350e+00
<GCONST> 1.055276e+02
<STATE> 3
<MEAN> 25
 1.840332e+00 -2.004407e-01 -1.641799e+00 2.324739e-01 1.714821e+00 -1.213722e+00 -8.106169e-01 -1.345726e+00 -4.291997e-01 -4.885814e-01 1.410295e+00 -3.371603e-01 -1.483198e-01 1.514311e-02 2.972409e-01 3.498004e-02 -2.379710e-01 1.990940e-01 1.415131e-01 1.760225e-01 8.098084e-02 1.046103e-02 -2.535713e-01 -4.433754e-02 -2.050588e-01
<VARIANCE> 25
 2.808387e+01 3.532976e+01 9.250024e+01 7.774672e+01 7.051720e+01 9.095296e+01 5.945879e+01 5.812386e+01 4.003500e+01 3.268131e+01 4.703085e+01 2.683092e+01 1.362655e+00 1.941262e+00 3.525327e+00 3.320015e+00 3.681848e+00 4.450382e+00 2.620461e+00 2.763626e+00 2.421861e+00 2.340680e+00 2.498819e+00 1.585977e+00 2.162010e+00
<GCONST> 1.050505e+02
<STATE> 4
<MEAN> 25
 1.322797e+00 -2.067325e-01 -7.657115e-01 2.185468e-01 9.122880e-01 -6.987192e-01 -4.294074e-01 -8.947969e-01 -2.702709e-01 -3.620988e-01 7.468821e-01 -3.847903e-01 -2.064979e-01 4.434146e-03 3.147374e-01 1.118299e-03 -2.728996e-01 1.792898e-01 1.181671e-01 1.594475e-01 6.336683e-02 5.898921e-02 -2.311852e-01 -6.155463e-03 -2.425539e-01
<VARIANCE> 25
 3.168676e+01 3.716565e+01 9.865949e+01 7.676811e+01 7.196454e+01 9.398172e+01 6.112909e+01 5.916084e+01 4.083466e+01 3.319753e+01 4.770093e+01 2.717017e+01 1.337560e+00 1.951743e+00 3.332097e+00 3.237400e+00 3.606277e+00 4.415601e+00 2.594357e+00 2.592862e+00 2.366018e+00 2.248176e+00 2.439491e+00 1.579654e+00 2.092605e+00
<GCONST> 1.051129e+02
<TRANSP> 5
 0.000000e+00 1.000000e+00 0.000000e+00 0.000000e+00 0.000000e+00
 0.000000e+00 6.249200e-01 3.750800e-01 0.000000e+00 0.000000e+00
 0.000000e+00 0.000000e+00 6.249218e-01 3.750782e-01 0.000000e+00
 0.000000e+00 0.000000e+00 0.000000e+00 7.339540e-01 2.660459e-01
 0.000000e+00 0.000000e+00 0.000000e+00 0.000000e+00 0.000000e+00
<ENDHMM>
~h "iy"
<BEGINHMM>
<NUMSTATES> 5
<STATE> 2
<MEAN> 25
 6.924433e-01 -8.415498e-01 2.572165e+00 6.666804e+00 5.290712e+00 -2.602142e+00 -3.521158e+00 -2.387113e+00 3.400645e-01 -6.948417e-01 -1.074367e+00 -2.465084e+00 6.315236e-02 1.264923e-01 -7.934228e-02 -1.569353e-01 -1.417486e-01 1.455638e-01 1.698981e-01 9.054860e-02 -1.004614e-02 4.448158e-02 4.634890e-02 -6.150901e-03 -6.520324e-02
<VARIANCE> 25
 2.601057e+01 3.611453e+01 6.550205e+01 8.569748e+01 6.803528e+01 1.091381e+02 6.402465e+01 5.501152e+01 4.446768e+01 3.440559e+01 4.490077e+01 2.824306e+01 1.181056e+00 2.105640e+00 2.562767e+00 4.362705e+00 4.113623e+00 5.647589e+00 3.474738e+00 3.564585e+00 2.728476e+00 2.273775e+00 2.255916e+00 1.742594e+00 1.430850e+00
<GCONST> 1.055225e+02
<STATE> 3
<MEAN> 25
 7.691280e-01 -4.279210e-01 2.310449e+00 5.853034e+00 4.562699e+00 -1.947794e+00 -2.832019e+00 -2.049133e+00 2.625749e-01 -5.650604e-01 -9.381331e-01 -2.341638e+00 1.224071e-03 1.609753e-01 -1.002981e-01 -3.875750e-01 -3.339351e-01 3.197751e-01 2.978386e-01 1.427264e-01 -3.156393e-02 6.661725e-02 3.346661e-02 7.216033e-02 -1.728562e-01
<VARIANCE> 25
 2.689306e+01 3.484668e+01 6.981512e+01 8.618391e+01 6.769906e+01 1.030357e+02 6.267524e+01 5.474978e+01 4.399379e+01 3.428458e+01 4.661647e+01 2.739219e+01 1.048966e+00 1.868547e+00 2.447276e+00 3.893639e+00 3.739637e+00 5.062537e+00 3.232512e+00 3.375700e+00 2.632738e+00 2.180011e+00 2.133262e+00 1.673303e+00 1.276833e+00
<GCONST> 1.044761e+02
<STATE> 4
<MEAN> 25
 6.804578e-01 4.941101e-02 1.952913e+00 4.163793e+00 3.030631e+00 -1.004340e+00 -1.606670e+00 -1.491225e+00 -3.735859e-02 -4.804412e-01 -7.731012e-01 -1.899210e+00 -7.693025e-02 1.161998e-01 -9.998143e-02 -4.929777e-01 -4.414082e-01 3.181119e-01 3.366052e-01 1.874427e-01 -6.514962e-02 6.360783e-02 1.397555e-02 1.420523e-01 -2.254754e-01
<VARIANCE> 25
 3.118413e+01 3.631316e+01 7.896091e+01 9.117885e+01 7.056324e+01 9.833952e+01 6.455307e+01 5.439799e+01 4.458196e+01 3.497784e+01 4.778022e+01 2.721963e+01 9.119529e-01 1.691683e+00 2.195040e+00 3.460454e+00 3.255557e+00 4.658989e+00 2.970054e+00 3.070081e+00 2.553410e+00 2.114243e+00 2.019195e+00 1.613338e+00 1.174384e+00
<GCONST> 1.038106e+02
<TRANSP> 5
 0.000000e+00 1.000000e+00 0.000000e+00 0.000000e+00 0.000000e+00
 0.000000e+00 6.502659e-01 3.497342e-01 0.000000e+00 0.000000e+00
 0.000000e+00 0.000000e+00 6.502669e-01 3.497331e-01 0.000000e+00
 0.000000e+00 0.000000e+00 0.000000e+00 7.642989e-01 2.357011e-01
 0.000000e+00 0.000000e+00 0.000000e+00 0.000000e+00 0.000000e+00
<ENDHMM>
~h "jh"
<BEGINHMM>
<NUMSTATES> 5
<STATE> 2
<MEAN> 25
 -1.732183e+00 -3.269537e+00 5.947690e+00 5.497705e+00 3.640044e+00 2.055250e+00 -1.352724e+00 -1.701162e+00 -1.136898e+00 -1.441611e+00 5.156289e-01 -6.474169e-03 6.167938e-01 6.585375e-01 -2.470139e-01 -1.663907e-01 1.432531e-01 -4.969179e-01 -3.393730e-01 -3.407094e-01 1.480900e-01 -1.035307e-01 -8.601160e-02 -4.841188e-01 4.653420e-01
<VARIANCE> 25
 3.835067e+01 1.070786e+02 6.315665e+01 7.556815e+01 6.196227e+01 5.104597e+01 6.114473e+01 8.800806e+01 6.989930e+01 5.261097e+01 2.890202e+01 5.277138e+01 3.069833e+00 9.114171e+00 4.061871e+00 4.969656e+00 5.724707e+00 4.069788e+00 4.965670e+00 8.294662e+00 5.043955e+00 4.073231e+00 2.919495e+00 4.218665e+00 1.764073e+00
<GCONST> 1.142318e+02
<STATE> 3
<MEAN> 25
 -4.890612e-01 -1.713144e+00 5.111407e+00 4.920745e+00 3.774660e+00 8.889345e-01 -2.045825e+00 -2.107062e+00 -4.929326e-01 -1.288003e+00 1.587188e-01 -1.202028e+00 4.811787e-01 6.463600e-01 -3.777141e-01 -2.554437e-01 1.549892e-03 -4.188201e-01 -2.280664e-01 -1.154881e-01 2.529604e-01 8.149786e-02 -1.879703e-01 -4.723071e-01 2.180644e-01
<VARIANCE> 25
 3.463416e+01 1.018270e+02 5.805567e+01 7.071252e+01 6.186898e+01 4.900553e+01 5.168428e+01 7.932017e+01 6.473898e+01 4.993307e+01 2.907363e+01 5.223593e+01 2.354573e+00 6.850659e+00 3.482880e+00 4.208434e+00 4.497883e+00 3.944579e+00 3.824643e+00 7.001400e+00 4.639686e+00 3.826442e+00 2.746423e+00 3.635744e+00 1.485254e+00
<GCONST> 1.113798e+02
<STATE> 4
<MEAN> 25
 5.876810e-01 -1.137507e-01 3.764982e+00 4.163931e+00 3.589815e+00 -9.132300e-02 -2.367315e+00 -1.878580e+00 3.582095e-01 -7.520177e-01 -4.275580e-01 -2.292562e+00 3.593642e-01 5.612723e-01 -4.180989e-01 -2.431717e-01 -1.420816e-01 -3.070861e-01 -7.283221e-02 6.108728e-02 1.911890e-01 1.527187e-01 -1.867503e-01 -3.470249e-01 -7.552033e-03
<VARIANCE> 25
 3.208458e+01 8.776597e+01 5.481807e+01 5.842902e+01 6.232479e+01 4.859679e+01 4.256401e+01 6.219246e+01 5.543476e+01 4.891111e+01 2.967600e+01 4.851199e+01 1.713227e+00 4.671140e+00 2.822688e+00 3.611120e+00 3.567877e+00 3.668323e+00 2.889067e+00 5.384812e+00 4.147446e+00 3.337024e+00 2.418713e+00 3.005281e+00 1.154009e+00
<GCONST> 1.075085e+02
<TRANSP> 5
 0.000000e+00 1.000000e+00 0.000000e+00 0.000000e+00 0.000000e+00
 0.000000e+00 5.849044e-01 4.150956e-01 0.000000e+00 0.000000e+00
 0.000000e+00 0.000000e+00 5.849046e-01 4.150955e-01 0.000000e+00
 0.000000e+00 0.000000e+00 0.000000e+00 6.880501e-01 3.119500e-01
 0.000000e+00 0.000000e+00 0.000000e+00 0.000000e+00 0.000000e+00
<ENDHMM>
~h "ng"
<BEGINHMM>
<NUMSTATES> 5
<STATE> 2
<MEAN> 25
 1.608587e+00 8.930142e-01 6.322483e-01 2.262791e-01 2.354034e-01 2.067414e+00 1.503381e+00 3.127686e-01 1.389884e+00 6.587639e-01 -6.429062e-01 -1.249904e+00 -1.094016e-01 2.061241e-01 2.520036e-01 -4.984045e-01 -6.093571e-01 4.082017e-03 3.251767e-01 8.435337e-02 -2.772359e-01 -5.804371e-03 6.912530e-02 -1.488561e-01 -8.646930e-02
<VARIANCE> 25
 2.329217e+01 4.355687e+01 3.736958e+01 6.166180e+01 8.081886e+01 6.406838e+01 6.057519e+01 4.652168e+01 4.340921e+01 2.858873e+01 3.235366e+01 2.061374e+01 9.828126e-01 2.500602e+00 2.237303e+00 3.794362e+00 4.253795e+00 3.782065e+00 3.810181e+00 3.600969e+00 2.284616e+00 2.216188e+00 1.987765e+00 1.563129e+00 1.214767e+00
<GCONST> 1.021191e+02
<STATE> 3
<MEAN> 25
 1.374100e+00 1.465596e+00 1.278565e+00 -9.386408e-01 -1.273780e+00 1.663805e+00 2.138187e+00 4.295879e-01 6.211026e-01 6.170577e-01 -2.489353e-01 -1.588829e+00 -9.494991e-02 1.958002e-01 2.559373e-01 -4.326384e-01 -5.613163e-01 -2.106482e-01 1.937088e-01 2.165974e-02 -2.898176e-01 -5.437350e-02 1.405192e-01 -1.495122e-01 -1.358644e-02
<VARIANCE> 25
 2.698949e+01 5.023116e+01 4.310130e+01 6.463961e+01 7.953677e+01 6.783169e+01 5.814382e+01 4.200778e+01 4.120256e+01 2.845773e+01 3.082358e+01 2.211987e+01 1.132752e+00 2.845262e+00 2.524855e+00 3.793121e+00 4.623044e+00 3.890494e+00 3.857346e+00 3.486819e+00 2.238793e+00 2.161051e+00 1.974422e+00 1.564646e+00 1.283480e+00
<GCONST> 1.029494e+02
<STATE> 4
<MEAN> 25
 8.213683e-01 1.700942e+00 2.377891e+00 -2.176193e+00 -3.035131e+00 7.956316e-01 2.760139e+00 1.543147e-01 -6.608406e-01 5.544701e-01 7.120978e-01 -1.695010e+00 -5.044913e-02 1.637454e-01 1.810042e-01 -2.812639e-01 -3.796150e-01 -3.640234e-01 4.514674e-03 -5.780454e-02 -2.370106e-01 -9.270289e-02 1.728170e-01 -1.233784e-01 5.109809e-02
<VARIANCE> 25
 4.146935e+01 6.299829e+01 6.055873e+01 7.297161e+01 8.444237e+01 7.992237e+01 6.320287e+01 4.025435e+01 3.915626e+01 2.947751e+01 3.106414e+01 2.465617e+01 1.344777e+00 2.962231e+00 2.960260e+00 3.535796e+00 4.726650e+00 3.837253e+00 3.610937e+00 3.200213e+00 2.062609e+00 2.130944e+00 1.947006e+00 1.499298e+00 1.271433e+00
<GCONST> 1.044271e+02
<TRANSP> 5
 0.000000e+00 1.000000e+00 0.000000e+00 0.000000e+00 0.000000e+00
 0.000000e+00 6.141893e-01 3.858108e-01 0.000000e+00 0.000000e+00
 0.000000e+00 0.000000e+00 6.141902e-01 3.858098e-01 0.000000e+00
 0.000000e+00 0.000000e+00 0.000000e+00 7.311747e-01 2.688254e-01
 0.000000e+00 0.000000e+00 0.000000e+00 0.000000e+00 0.000000e+00
<ENDHMM>
~h "ow"
<BEGINHMM>
<NUMSTATES> 5
<STATE> 2
<MEAN> 25
 -2.825261e-01 -2.779767e+00 5.104351e+00 -2.595248e+00 -5.375159e+00 -2.915387e+00 1.049022e+00 1.643340e+00 2.905883e+00 -1.534536e+00 -1.018832e+00 -4.576552e-01 7.529070e-01 1.121712e+00 -1.289137e+00 -3.655024e-02 -3.945331e-01 -1.368518e+00 -2.368628e-02 7.642660e-01 5.189258e-01 -4.125038e-01 -2.876386e-01 -4.365304e-01 -1.053740e-01
<VARIANCE> 25
 1.005028e+02 1.189731e+02 1.589987e+02 5.117956e+01 5.611795e+01 1.609729e+02 7.487170e+01 7.145634e+01 5.309485e+01 6.572504e+01 3.314740e+01 4.066118e+01 5.558875e+00 4.840169e+00 7.358131e+00 4.560436e+00 2.535667e+00 6.854897e+00 3.906045e+00 3.291091e+00 2.863203e+00 4.097474e+00 2.033523e+00 2.182034e+00 2.067320e+00
<GCONST> 1.142909e+02
<STATE> 3
<MEAN> 25
 1.217031e+00 -7.027059e-02 2.161885e+00 -2.911382e+00 -6.296515e+00 -5.837212e+00 8.316423e-01 3.405328e+00 4.040895e+00 -2.280818e+00 -1.661319e+00 -1.416445e+00 5.787697e-01 1.059059e+00 -1.211705e+00 -8.063256e-02 -2.836743e-01 -1.073300e+00 -1.772662e-02 7.313297e-01 4.126989e-01 -2.073668e-01 -2.474617e-01 -3.901488e-01 -2.935323e-01
<VARIANCE> 25
 8.637473e+01 1.101059e+02 1.434470e+02 4.759081e+01 5.108482e+01 1.369290e+02 6.616654e+01 7.387649e+01 4.853723e+01 6.256382e+01 3.040675e+01 3.971241e+01 4.946578e+00 4.014389e+00 6.526371e+00 3.702355e+00 2.204844e+00 6.001688e+00 3.039644e+00 2.993962e+00 2.522588e+00 3.550192e+00 1.676566e+00 2.065303e+00 1.800619e+00
<GCONST> 1.113849e+02
<STATE> 4
<MEAN> 25
 2.021981e+00 2.395278e+00 -4.481320e-01 -3.484388e+00 -6.990262e+00 -7.871274e+00 5.381671e-01 4.772398e+00 4.616802e+00 -2.085704e+00 -1.927592e+00 -2.012138e+00 2.907361e-01 8.442916e-01 -9.191404e-01 -1.204716e-01 -2.113339e-01 -5.742838e-01 4.486628e-02 5.786636e-01 1.630440e-01 4.072752e-02 -1.711557e-01 -2.617667e-01 -4.891221e-01
<VARIANCE> 25
 7.369190e+01 9.616048e+01 1.274428e+02 4.678274e+01 4.647474e+01 1.159326e+02 6.175270e+01 7.260195e+01 4.097058e+01 5.668787e+01 2.797577e+01 3.641553e+01 4.242110e+00 3.348291e+00 5.713877e+00 2.937095e+00 1.962462e+00 4.665729e+00 2.341066e+00 2.593334e+00 2.156682e+00 2.826815e+00 1.412201e+00 1.984883e+00 1.468281e+00
<GCONST> 1.078972e+02
<TRANSP> 5
 0.000000e+00 1.000000e+00 0.000000e+00 0.000000e+00 0.000000e+00
 0.000000e+00 6.076172e-01 3.923828e-01 0.000000e+00 0.000000e+00
 0.000000e+00 0.000000e+00 6.076172e-01 3.923828e-01 0.000000e+00
 0.000000e+00 0.000000e+00 0.000000e+00 7.160426e-01 2.839573e-01
 0.000000e+00 0.000000e+00 0.000000e+00 0.000000e+00 0.000000e+00
<ENDHMM>
~h "sp"
<BEGINHMM>
<NUMSTATES> 5
<STATE> 2
<MEAN> 25
 7.278923e-09 7.736676e-09 -1.495757e-08 2.233321e-08 -7.517470e-09 -5.266098e-08 1.936748e-08 -7.220898e-10 -9.554795e-09 1.052188e-08 -1.655649e-08 4.951473e-09 6.015358e-02 6.638382e-02 2.298475e-02 2.413188e-02 -1.107854e-02 -3.401659e-02 1.583678e-04 -9.783696e-03 -2.136309e-02 1.551675e-03 -5.627133e-03 -1.547498e-02 2.045880e-02
<VARIANCE> 25
 4.803527e+01 5.134138e+01 1.048917e+02 8.752769e+01 7.417048e+01 9.790822e+01 6.581352e+01 5.741109e+01 4.161873e+01 3.817028e+01 4.535803e+01 3.419817e+01 1.987551e+00 2.560586e+00 3.462211e+00 3.613789e+00 3.504917e+00 4.697473e+00 3.161591e+00 3.037893e+00 2.555220e+00 2.460158e+00 2.358821e+00 1.905628e+00 2.295166e+00
<GCONST> 1.081165e+02
<STATE> 3
<MEAN> 25
 7.278923e-09 7.736676e-09 -1.495757e-08 2.233321e-08 -7.517470e-09 -5.266098e-08 1.936748e-08 -7.220898e-10 -9.554795e-09 1.052188e-08 -1.655649e-08 4.951473e-09 6.015358e-02 6.638382e-02 2.298475e-02 2.413188e-02 -1.107854e-02 -3.401659e-02 1.583678e-04 -9.783696e-03 -2.136309e-02 1.551675e-03 -5.627133e-03 -1.547498e-02 2.045880e-02
<VARIANCE> 25
 4.803527e+01 5.134138e+01 1.048917e+02 8.752769e+01 7.417048e+01 9.790822e+01 6.581352e+01 5.741109e+01 4.161873e+01 3.817028e+01 4.535803e+01 3.419817e+01 1.987551e+00 2.560586e+00 3.462211e+00 3.613789e+00 3.504917e+00 4.697473e+00 3.161591e+00 3.037893e+00 2.555220e+00 2.460158e+00 2.358821e+00 1.905628e+00 2.295166e+00
<GCONST> 1.081165e+02
<STATE> 4
<MEAN> 25
 7.278923e-09 7.736676e-09 -1.495757e-08 2.233321e-08 -7.517470e-09 -5.266098e-08 1.936748e-08 -7.220898e-10 -9.554795e-09 1.052188e-08 -1.655649e-08 4.951473e-09 6.015358e-02 6.638382e-02 2.298475e-02 2.413188e-02 -1.107854e-02 -3.401659e-02 1.583678e-04 -9.783696e-03 -2.136309e-02 1.551675e-03 -5.627133e-03 -1.547498e-02 2.045880e-02
<VARIANCE> 25
 4.803527e+01 5.134138e+01 1.048917e+02 8.752769e+01 7.417048e+01 9.790822e+01 6.581352e+01 5.741109e+01 4.161873e+01 3.817028e+01 4.535803e+01 3.419817e+01 1.987551e+00 2.560586e+00 3.462211e+00 3.613789e+00 3.504917e+00 4.697473e+00 3.161591e+00 3.037893e+00 2.555220e+00 2.460158e+00 2.358821e+00 1.905628e+00 2.295166e+00
<GCONST> 1.081165e+02
<TRANSP> 5
 0.000000e+00 1.000000e+00 0.000000e+00 0.000000e+00 0.000000e+00
 0.000000e+00 6.000000e-01 4.000000e-01 0.000000e+00 0.000000e+00
 0.000000e+00 0.000000e+00 6.000000e-01 4.000000e-01 0.000000e+00
 0.000000e+00 0.000000e+00 0.000000e+00 7.000000e-01 3.000000e-01
 0.000000e+00 0.000000e+00 0.000000e+00 0.000000e+00 0.000000e+00
<ENDHMM>
~h "uh"
<BEGINHMM>
<NUMSTATES> 5
<STATE> 2
<MEAN> 25
 1.853693e+00 1.900783e+00 1.707565e+00 3.916427e+00 2.306875e+00 -1.852652e+00 -1.485460e+00 -1.506675e+00 -1.281913e+00 -2.020413e+00 -8.136231e-02 -2.328553e+00 -4.049891e-02 1.924548e-01 1.293405e-01 1.086768e-01 -2.954025e-01 -1.509641e-01 6.357092e-02 2.080655e-01 8.166382e-03 9.894414e-02 1.320601e-01 8.553814e-02 -2.122404e-01
<VARIANCE> 25
 2.866864e+01 7.582664e+01 3.603236e+01 4.601054e+01 4.769874e+01 8.789101e+01 4.667203e+01 4.948097e+01 3.899410e+01 4.662775e+01 2.944143e+01 4.311260e+01 1.680135e+00 4.242465e+00 2.120764e+00 2.826166e+00 3.123962e+00 4.459273e+00 3.587215e+00 4.628115e+00 3.421284e+00 3.512576e+00 2.253560e+00 2.505956e+00 1.479984e+00
<GCONST> 1.055899e+02
<STATE> 3
<MEAN> 25
 1.648261e+00 2.242156e+00 2.071306e+00 4.059590e+00 1.533691e+00 -2.166914e+00 -1.279132e+00 -9.972081e-01 -1.291858e+00 -1.728230e+00 2.725526e-01 -2.012871e+00 -1.851866e-01 -4.358862e-02 1.120857e-01 7.126020e-03 -3.313263e-01 -2.662881e-02 1.773061e-01 2.733520e-01 2.048420e-03 1.778029e-01 1.271270e-01 2.015500e-01 -2.538129e-01
<VARIANCE> 25
 2.585029e+01 7.514803e+01 3.576765e+01 4.550440e+01 4.884531e+01 8.253308e+01 4.748069e+01 4.400344e+01 3.663459e+01 4.036510e+01 2.776284e+01 4.040945e+01 1.446738e+00 4.408041e+00 2.099803e+00 2.521524e+00 2.807348e+00 3.978113e+00 3.220115e+00 4.127055e+00 3.198712e+00 2.988055e+00 2.070556e+00 2.218479e+00 1.317869e+00
<GCONST> 1.037592e+02
<STATE> 4
<MEAN> 25
 1.122497e+00 2.044757e+00 2.447727e+00 3.923294e+00 6.484127e-01 -2.271853e+00 -8.958378e-01 -3.827808e-01 -1.310369e+00 -1.267946e+00 6.898925e-01 -1.408827e+00 -2.567642e-01 -2.538604e-01 8.254638e-02 -5.452737e-02 -2.682530e-01 8.971749e-02 2.250901e-01 2.176040e-01 -2.561190e-02 2.029729e-01 9.082317e-02 2.104747e-01 -2.090608e-01
<VARIANCE> 25
 2.790173e+01 8.411570e+01 3.914090e+01 4.478224e+01 4.997973e+01 7.667874e+01 4.821288e+01 4.275310e+01 3.769658e+01 3.685259e+01 2.856699e+01 3.852134e+01 1.375638e+00 4.612174e+00 2.223535e+00 2.337790e+00 2.715212e+00 3.505881e+00 2.912179e+00 3.677173e+00 3.015529e+00 2.679837e+00 2.043527e+00 2.077805e+00 1.222681e+00
<GCONST> 1.031559e+02
<TRANSP> 5
 0.000000e+00 1.000000e+00 0.000000e+00 0.000000e+00 0.000000e+00
 0.000000e+00 5.885589e-01 4.114412e-01 0.000000e+00 0.000000e+00
 0.000000e+00 0.000000e+00 5.885590e-01 4.114409e-01 0.000000e+00
 0.000000e+00 0.000000e+00 0.000000e+00 6.922209e-01 3.077791e-01
 0.000000e+00 0.000000e+00 0.000000e+00 0.000000e+00 0.000000e+00
<ENDHMM>
~h "uw"
<BEGINHMM>
<NUMSTATES> 5
<STATE> 2
<MEAN> 25
 1.686808e+00 3.764385e+00 3.114917e+00 1.155422e+00 -3.140638e-03 -3.408906e+00 -1.247551e+00 -9.760817e-01 -1.444938e+00 -2.073947e+00 -8.164089e-01 -3.559402e+00 -5.995058e-02 -2.829794e-01 -1.870186e-01 -2.288247e-01 -5.578726e-02 -2.918938e-02 -3.785041e-02 -4.578690e-02 -6.093436e-02 2.768354e-02 5.423012e-02 1.784928e-01 5.687252e-02
<VARIANCE> 25
 3.396174e+01 6.534731e+01 9.252341e+01 6.840154e+01 7.434760e+01 8.914639e+01 6.189064e+01 4.774715e+01 4.226995e+01 3.979803e+01 3.980527e+01 3.842033e+01 1.454787e+00 2.605381e+00 3.080350e+00 3.389016e+00 3.288184e+00 4.137406e+00 3.204844e+00 2.801006e+00 2.829286e+00 2.725304e+00 2.102817e+00 2.134692e+00 1.355778e+00
<GCONST> 1.062872e+02
<STATE> 3
<MEAN> 25
 1.567461e+00 2.977123e+00 2.388489e+00 4.158508e-01 -1.901527e-01 -3.486290e+00 -1.421732e+00 -1.189419e+00 -1.590671e+00 -1.942093e+00 -5.529677e-01 -2.963012e+00 -8.611738e-02 -3.362388e-01 -2.993609e-01 -2.643367e-01 -9.375806e-02 5.561627e-02 -1.074455e-02 -3.028375e-02 -2.649826e-02 1.025628e-01 1.086738e-01 3.042682e-01 -1.084209e-02
<VARIANCE> 25
 3.812243e+01 6.555286e+01 1.146043e+02 6.732585e+01 7.692100e+01 8.974763e+01 6.382412e+01 4.559148e+01 4.213927e+01 3.893079e+01 4.190540e+01 3.737487e+01 1.460098e+00 2.457441e+00 3.203200e+00 3.440047e+00 3.199164e+00 3.996962e+00 3.184125e+00 2.714585e+00 2.759344e+00 2.484986e+00 2.060111e+00 2.046039e+00 1.321063e+00
<GCONST> 1.063213e+02
<STATE> 4
<MEAN> 25
 1.537646e+00 1.879759e+00 6.310319e-01 -5.423979e-01 -1.872147e-01 -3.620331e+00 -1.902012e+00 -1.508712e+00 -1.447733e+00 -1.449707e+00 1.463038e-01 -1.777972e+00 -8.074655e-02 -3.063182e-01 -4.232948e-01 -2.439377e-01 -9.304541e-02 1.229824e-01 7.950177e-03 -4.805481e-03 3.079928e-02 1.678552e-01 1.478521e-01 3.638613e-01 -9.621432e-02
<VARIANCE> 25
 4.543016e+01 6.461508e+01 1.423589e+02 6.966138e+01 7.884884e+01 8.705614e+01 7.096718e+01 4.415562e+01 4.199759e+01 3.554161e+01 4.138556e+01 3.563545e+01 1.446249e+00 2.421310e+00 3.198809e+00 3.462049e+00 2.979585e+00 3.594034e+00 3.166078e+00 2.472128e+00 2.649810e+00 2.171637e+00 1.919765e+00 1.918889e+00 1.338652e+00
<GCONST> 1.060543e+02
<TRANSP> 5
 0.000000e+00 1.000000e+00 0.000000e+00 0.000000e+00 0.000000e+00
 0.000000e+00 6.538765e-01 3.461235e-01 0.000000e+00 0.000000e+00
 0.000000e+00 0.000000e+00 6.538764e-01 3.461236e-01 0.000000e+00
 0.000000e+00 0.000000e+00 0.000000e+00 7.760457e-01 2.239543e-01
 0.000000e+00 0.000000e+00 0.000000e+00 0.000000e+00 0.000000e+00
<ENDHMM>
~h "sil"
<BEGINHMM>
<NUMSTATES> 5
<STATE> 2
<MEAN> 25
 -5.359566e+00 -1.279572e+00 2.276914e+00 3.973630e-02 -2.910726e+00 4.483627e+00 2.148564e+00 2.423684e+00 2.758863e-01 1.918195e+00 -1.927947e+00 1.824224e+00 3.936850e-01 1.342108e-01 1.242008e-01 3.594032e-03 -2.179514e-02 -1.053171e-01 -1.030309e-01 -2.436076e-01 -1.616053e-01 -4.388792e-02 5.639686e-02 -2.907338e-04 3.383824e-01
<VARIANCE> 25
 5.330552e+01 6.708067e+01 8.133849e+01 7.570058e+01 6.483842e+01 8.551361e+01 6.953287e+01 5.491329e+01 4.167696e+01 3.876807e+01 4.084659e+01 3.402158e+01 2.860978e+00 3.234390e+00 3.107618e+00 3.257397e+00 3.236409e+00 4.519526e+00 3.995491e+00 3.199909e+00 2.536216e+00 2.637005e+00 2.542220e+00 2.056713e+00 2.762398e+00
<GCONST> 1.086883e+02
<STATE> 3
<MEAN> 25
 -3.941799e+00 -8.184302e-01 2.308801e+00 7.106375e-02 -2.587203e+00 3.772632e+00 1.771231e+00 1.641701e+00 -1.236643e-01 1.606961e+00 -1.588580e+00 1.580870e+00 4.478166e-01 1.774704e-01 -7.353710e-02 -2.253238e-02 1.736278e-01 -3.081490e-01 -1.272294e-01 -2.532774e-01 -1.230698e-01 -1.559085e-01 1.463370e-01 -9.576560e-02 4.934431e-01
<VARIANCE> 25
 4.681684e+01 6.002711e+01 9.025384e+01 8.224599e+01 7.063228e+01 8.527212e+01 7.035183e+01 6.040267e+01 4.307964e+01 4.202268e+01 4.688195e+01 3.652245e+01 3.340501e+00 3.720560e+00 3.732115e+00 3.802739e+00 3.807055e+00 5.226668e+00 4.152414e+00 3.645179e+00 2.800000e+00 2.863274e+00 2.877634e+00 2.237908e+00 3.217339e+00
<GCONST> 1.107981e+02
<STATE> 4
<MEAN> 25
 -2.913067e+00 -2.374519e-01 1.806682e+00 -6.839732e-04 -1.871779e+00 2.980640e+00 1.524766e+00 1.263739e+00 -1.534183e-01 1.241931e+00 -1.218722e+00 1.180884e+00 1.511015e-01 1.402750e-01 -1.276509e-01 -4.997777e-02 1.698630e-01 -1.454010e-01 -2.180243e-02 -4.255563e-02 1.227782e-02 -8.328477e-02 7.926706e-02 -6.993110e-02 1.847232e-01
<VARIANCE> 25
 4.893370e+01 5.506169e+01 1.008036e+02 8.818598e+01 7.396488e+01 8.989217e+01 7.466457e+01 6.310540e+01 4.219996e+01 4.342952e+01 5.203740e+01 3.762006e+01 2.237420e+00 2.632775e+00 2.970557e+00 3.103042e+00 3.122341e+00 4.226847e+00 3.083731e+00 2.966236e+00 2.385994e+00 2.378235e+00 2.335880e+00 1.885356e+00 2.345018e+00
<GCONST> 1.081503e+02
<TRANSP> 5
 0.000000e+00 1.000000e+00 0.000000e+00 0.000000e+00 0.000000e+00
 0.000000e+00 6.402586e-01 3.597414e-01 0.000000e+00 0.000000e+00
 0.000000e+00 0.000000e+00 6.402599e-01 3.597401e-01 0.000000e+00
 0.000000e+00 0.000000e+00 0.000000e+00 7.546577e-01 2.453422e-01
 0.000000e+00 0.000000e+00 0.000000e+00 0.000000e+00 0.000000e+00
<ENDHMM>
