~h "ah"
<BEGINHMM>
<NUMSTATES> 5
<STATE> 2
<MEAN> 25
 7.278923e-09 7.736676e-09 -1.495757e-08 2.233321e-08 -7.517470e-09 -5.266098e-08 1.936748e-08 -7.220898e-10 -9.554795e-09 1.052188e-08 -1.655649e-08 4.951473e-09 6.015358e-02 6.638382e-02 2.298475e-02 2.413188e-02 -1.107854e-02 -3.401659e-02 1.583678e-04 -9.783696e-03 -2.136309e-02 1.551675e-03 -5.627133e-03 -1.547498e-02 2.045880e-02
<VARIANCE> 25
 4.803527e+01 5.134138e+01 1.048917e+02 8.752769e+01 7.417048e+01 9.790822e+01 6.581352e+01 5.741110e+01 4.161873e+01 3.817028e+01 4.535803e+01 3.419817e+01 1.987551e+00 2.560586e+00 3.462211e+00 3.613789e+00 3.504917e+00 4.697473e+00 3.161591e+00 3.037893e+00 2.555220e+00 2.460158e+00 2.358821e+00 1.905628e+00 2.295166e+00
<GCONST> 1.081165e+02
<STATE> 3
<MEAN> 25
 7.278923e-09 7.736676e-09 -1.495757e-08 2.233321e-08 -7.517470e-09 -5.266098e-08 1.936748e-08 -7.220898e-10 -9.554795e-09 1.052188e-08 -1.655649e-08 4.951473e-09 6.015358e-02 6.638382e-02 2.298475e-02 2.413188e-02 -1.107854e-02 -3.401659e-02 1.583678e-04 -9.783696e-03 -2.136309e-02 1.551675e-03 -5.627133e-03 -1.547498e-02 2.045880e-02
<VARIANCE> 25
 4.803527e+01 5.134138e+01 1.048917e+02 8.752769e+01 7.417048e+01 9.790822e+01 6.581352e+01 5.741110e+01 4.161873e+01 3.817028e+01 4.535803e+01 3.419817e+01 1.987551e+00 2.560586e+00 3.462211e+00 3.613789e+00 3.504917e+00 4.697473e+00 3.161591e+00 3.037893e+00 2.555220e+00 2.460158e+00 2.358821e+00 1.905628e+00 2.295166e+00
<GCONST> 1.081165e+02
<STATE> 4
<MEAN> 25
 7.278923e-09 7.736676e-09 -1.495757e-08 2.233321e-08 -7.517470e-09 -5.266098e-08 1.936748e-08 -7.220898e-10 -9.554795e-09 1.052188e-08 -1.655649e-08 4.951473e-09 6.015358e-02 6.638382e-02 2.298475e-02 2.413188e-02 -1.107854e-02 -3.401659e-02 1.583678e-04 -9.783696e-03 -2.136309e-02 1.551675e-03 -5.627133e-03 -1.547498e-02 2.045880e-02
<VARIANCE> 25
 4.803527e+01 5.134138e+01 1.048917e+02 8.752769e+01 7.417048e+01 9.790822e+01 6.581352e+01 5.741110e+01 4.161873e+01 3.817028e+01 4.535803e+01 3.419817e+01 1.987551e+00 2.560586e+00 3.462211e+00 3.613789e+00 3.504917e+00 4.697473e+00 3.161591e+00 3.037893e+00 2.555220e+00 2.460158e+00 2.358821e+00 1.905628e+00 2.295166e+00
<GCONST> 1.081165e+02
<TRANSP> 5
 0.000000e+00 1.000000e+00 0.000000e+00 0.000000e+00 0.000000e+00
 0.000000e+00 6.000000e-01 4.000000e-01 0.000000e+00 0.000000e+00
 0.000000e+00 0.000000e+00 6.000000e-01 4.000000e-01 0.000000e+00
 0.000000e+00 0.000000e+00 0.000000e+00 7.000000e-01 3.000000e-01
 0.000000e+00 0.000000e+00 0.000000e+00 0.000000e+00 0.000000e+00
<ENDHMM>
~h "d"
<BEGINHMM>
<NUMSTATES> 5
<STATE> 2
<MEAN> 25
 7.278923e-09 7.736676e-09 -1.495757e-08 2.233321e-08 -7.517470e-09 -5.266098e-08 1.936748e-08 -7.220898e-10 -9.554795e-09 1.052188e-08 -1.655649e-08 4.951473e-09 6.015358e-02 6.638382e-02 2.298475e-02 2.413188e-02 -1.107854e-02 -3.401659e-02 1.583678e-04 -9.783696e-03 -2.136309e-02 1.551675e-03 -5.627133e-03 -1.547498e-02 2.045880e-02
<VARIANCE> 25
 4.803527e+01 5.134138e+01 1.048917e+02 8.752769e+01 7.417048e+01 9.790822e+01 6.581352e+01 5.741110e+01 4.161873e+01 3.817028e+01 4.535803e+01 3.419817e+01 1.987551e+00 2.560586e+00 3.462211e+00 3.613789e+00 3.504917e+00 4.697473e+00 3.161591e+00 3.037893e+00 2.555220e+00 2.460158e+00 2.358821e+00 1.905628e+00 2.295166e+00
<GCONST> 1.081165e+02
<STATE> 3
<MEAN> 25
 7.278923e-09 7.736676e-09 -1.495757e-08 2.233321e-08 -7.517470e-09 -5.266098e-08 1.936748e-08 -7.220898e-10 -9.554795e-09 1.052188e-08 -1.655649e-08 4.951473e-09 6.015358e-02 6.638382e-02 2.298475e-02 2.413188e-02 -1.107854e-02 -3.401659e-02 1.583678e-04 -9.783696e-03 -2.136309e-02 1.551675e-03 -5.627133e-03 -1.547498e-02 2.045880e-02
<VARIANCE> 25
 4.803527e+01 5.134138e+01 1.048917e+02 8.752769e+01 7.417048e+01 9.790822e+01 6.581352e+01 5.741110e+01 4.161873e+01 3.817028e+01 4.535803e+01 3.419817e+01 1.987551e+00 2.560586e+00 3.462211e+00 3.613789e+00 3.504917e+00 4.697473e+00 3.161591e+00 3.037893e+00 2.555220e+00 2.460158e+00 2.358821e+00 1.905628e+00 2.295166e+00
<GCONST> 1.081165e+02
<STATE> 4
<MEAN> 25
 7.278923e-09 7.736676e-09 -1.495757e-08 2.233321e-08 -7.517470e-09 -5.266098e-08 1.936748e-08 -7.220898e-10 -9.554795e-09 1.052188e-08 -1.655649e-08 4.951473e-09 6.015358e-02 6.638382e-02 2.298475e-02 2.413188e-02 -1.107854e-02 -3.401659e-02 1.583678e-04 -9.783696e-03 -2.136309e-02 1.551675e-03 -5.627133e-03 -1.547498e-02 2.045880e-02
<VARIANCE> 25
 4.803527e+01 5.134138e+01 1.048917e+02 8.752769e+01 7.417048e+01 9.790822e+01 6.581352e+01 5.741110e+01 4.161873e+01 3.817028e+01 4.535803e+01 3.419817e+01 1.987551e+00 2.560586e+00 3.462211e+00 3.613789e+00 3.504917e+00 4.697473e+00 3.161591e+00 3.037893e+00 2.555220e+00 2.460158e+00 2.358821e+00 1.905628e+00 2.295166e+00
<GCONST> 1.081165e+02
<TRANSP> 5
 0.000000e+00 1.000000e+00 0.000000e+00 0.000000e+00 0.000000e+00
 0.000000e+00 6.000000e-01 4.000000e-01 0.000000e+00 0.000000e+00
 0.000000e+00 0.000000e+00 6.000000e-01 4.000000e-01 0.000000e+00
 0.000000e+00 0.000000e+00 0.000000e+00 7.000000e-01 3.000000e-01
 0.000000e+00 0.000000e+00 0.000000e+00 0.000000e+00 0.000000e+00
<ENDHMM>
~h "sp"
<BEGINHMM>
<NUMSTATES> 5
<STATE> 2
<MEAN> 25
 7.278923e-09 7.736676e-09 -1.495757e-08 2.233321e-08 -7.517470e-09 -5.266098e-08 1.936748e-08 -7.220898e-10 -9.554795e-09 1.052188e-08 -1.655649e-08 4.951473e-09 6.015358e-02 6.638382e-02 2.298475e-02 2.413188e-02 -1.107854e-02 -3.401659e-02 1.583678e-04 -9.783696e-03 -2.136309e-02 1.551675e-03 -5.627133e-03 -1.547498e-02 2.045880e-02
<VARIANCE> 25
 4.803527e+01 5.134138e+01 1.048917e+02 8.752769e+01 7.417048e+01 9.790822e+01 6.581352e+01 5.741110e+01 4.161873e+01 3.817028e+01 4.535803e+01 3.419817e+01 1.987551e+00 2.560586e+00 3.462211e+00 3.613789e+00 3.504917e+00 4.697473e+00 3.161591e+00 3.037893e+00 2.555220e+00 2.460158e+00 2.358821e+00 1.905628e+00 2.295166e+00
<GCONST> 1.081165e+02
<STATE> 3
<MEAN> 25
 7.278923e-09 7.736676e-09 -1.495757e-08 2.233321e-08 -7.517470e-09 -5.266098e-08 1.936748e-08 -7.220898e-10 -9.554795e-09 1.052188e-08 -1.655649e-08 4.951473e-09 6.015358e-02 6.638382e-02 2.298475e-02 2.413188e-02 -1.107854e-02 -3.401659e-02 1.583678e-04 -9.783696e-03 -2.136309e-02 1.551675e-03 -5.627133e-03 -1.547498e-02 2.045880e-02
<VARIANCE> 25
 4.803527e+01 5.134138e+01 1.048917e+02 8.752769e+01 7.417048e+01 9.790822e+01 6.581352e+01 5.741110e+01 4.161873e+01 3.817028e+01 4.535803e+01 3.419817e+01 1.987551e+00 2.560586e+00 3.462211e+00 3.613789e+00 3.504917e+00 4.697473e+00 3.161591e+00 3.037893e+00 2.555220e+00 2.460158e+00 2.358821e+00 1.905628e+00 2.295166e+00
<GCONST> 1.081165e+02
<STATE> 4
<MEAN> 25
 7.278923e-09 7.736676e-09 -1.495757e-08 2.233321e-08 -7.517470e-09 -5.266098e-08 1.936748e-08 -7.220898e-10 -9.554795e-09 1.052188e-08 -1.655649e-08 4.951473e-09 6.015358e-02 6.638382e-02 2.298475e-02 2.413188e-02 -1.107854e-02 -3.401659e-02 1.583678e-04 -9.783696e-03 -2.136309e-02 1.551675e-03 -5.627133e-03 -1.547498e-02 2.045880e-02
<VARIANCE> 25
 4.803527e+01 5.134138e+01 1.048917e+02 8.752769e+01 7.417048e+01 9.790822e+01 6.581352e+01 5.741110e+01 4.161873e+01 3.817028e+01 4.535803e+01 3.419817e+01 1.987551e+00 2.560586e+00 3.462211e+00 3.613789e+00 3.504917e+00 4.697473e+00 3.161591e+00 3.037893e+00 2.555220e+00 2.460158e+00 2.358821e+00 1.905628e+00 2.295166e+00
<GCONST> 1.081165e+02
<TRANSP> 5
 0.000000e+00 1.000000e+00 0.000000e+00 0.000000e+00 0.000000e+00
 0.000000e+00 6.000000e-01 4.000000e-01 0.000000e+00 0.000000e+00
 0.000000e+00 0.000000e+00 6.000000e-01 4.000000e-01 0.000000e+00
 0.000000e+00 0.000000e+00 0.000000e+00 7.000000e-01 3.000000e-01
 0.000000e+00 0.000000e+00 0.000000e+00 0.000000e+00 0.000000e+00
<ENDHMM>
~h "p"
<BEGINHMM>
<NUMSTATES> 5
<STATE> 2
<MEAN> 25
 7.278923e-09 7.736676e-09 -1.495757e-08 2.233321e-08 -7.517470e-09 -5.266098e-08 1.936748e-08 -7.220898e-10 -9.554795e-09 1.052188e-08 -1.655649e-08 4.951473e-09 6.015358e-02 6.638382e-02 2.298475e-02 2.413188e-02 -1.107854e-02 -3.401659e-02 1.583678e-04 -9.783696e-03 -2.136309e-02 1.551675e-03 -5.627133e-03 -1.547498e-02 2.045880e-02
<VARIANCE> 25
 4.803527e+01 5.134138e+01 1.048917e+02 8.752769e+01 7.417048e+01 9.790822e+01 6.581352e+01 5.741110e+01 4.161873e+01 3.817028e+01 4.535803e+01 3.419817e+01 1.987551e+00 2.560586e+00 3.462211e+00 3.613789e+00 3.504917e+00 4.697473e+00 3.161591e+00 3.037893e+00 2.555220e+00 2.460158e+00 2.358821e+00 1.905628e+00 2.295166e+00
<GCONST> 1.081165e+02
<STATE> 3
<MEAN> 25
 7.278923e-09 7.736676e-09 -1.495757e-08 2.233321e-08 -7.517470e-09 -5.266098e-08 1.936748e-08 -7.220898e-10 -9.554795e-09 1.052188e-08 -1.655649e-08 4.951473e-09 6.015358e-02 6.638382e-02 2.298475e-02 2.413188e-02 -1.107854e-02 -3.401659e-02 1.583678e-04 -9.783696e-03 -2.136309e-02 1.551675e-03 -5.627133e-03 -1.547498e-02 2.045880e-02
<VARIANCE> 25
 4.803527e+01 5.134138e+01 1.048917e+02 8.752769e+01 7.417048e+01 9.790822e+01 6.581352e+01 5.741110e+01 4.161873e+01 3.817028e+01 4.535803e+01 3.419817e+01 1.987551e+00 2.560586e+00 3.462211e+00 3.613789e+00 3.504917e+00 4.697473e+00 3.161591e+00 3.037893e+00 2.555220e+00 2.460158e+00 2.358821e+00 1.905628e+00 2.295166e+00
<GCONST> 1.081165e+02
<STATE> 4
<MEAN> 25
 7.278923e-09 7.736676e-09 -1.495757e-08 2.233321e-08 -7.517470e-09 -5.266098e-08 1.936748e-08 -7.220898e-10 -9.554795e-09 1.052188e-08 -1.655649e-08 4.951473e-09 6.015358e-02 6.638382e-02 2.298475e-02 2.413188e-02 -1.107854e-02 -3.401659e-02 1.583678e-04 -9.783696e-03 -2.136309e-02 1.551675e-03 -5.627133e-03 -1.547498e-02 2.045880e-02
<VARIANCE> 25
 4.803527e+01 5.134138e+01 1.048917e+02 8.752769e+01 7.417048e+01 9.790822e+01 6.581352e+01 5.741110e+01 4.161873e+01 3.817028e+01 4.535803e+01 3.419817e+01 1.987551e+00 2.560586e+00 3.462211e+00 3.613789e+00 3.504917e+00 4.697473e+00 3.161591e+00 3.037893e+00 2.555220e+00 2.460158e+00 2.358821e+00 1.905628e+00 2.295166e+00
<GCONST> 1.081165e+02
<TRANSP> 5
 0.000000e+00 1.000000e+00 0.000000e+00 0.000000e+00 0.000000e+00
 0.000000e+00 6.000000e-01 4.000000e-01 0.000000e+00 0.000000e+00
 0.000000e+00 0.000000e+00 6.000000e-01 4.000000e-01 0.000000e+00
 0.000000e+00 0.000000e+00 0.000000e+00 7.000000e-01 3.000000e-01
 0.000000e+00 0.000000e+00 0.000000e+00 0.000000e+00 0.000000e+00
<ENDHMM>
~h "b"
<BEGINHMM>
<NUMSTATES> 5
<STATE> 2
<MEAN> 25
 7.278923e-09 7.736676e-09 -1.495757e-08 2.233321e-08 -7.517470e-09 -5.266098e-08 1.936748e-08 -7.220898e-10 -9.554795e-09 1.052188e-08 -1.655649e-08 4.951473e-09 6.015358e-02 6.638382e-02 2.298475e-02 2.413188e-02 -1.107854e-02 -3.401659e-02 1.583678e-04 -9.783696e-03 -2.136309e-02 1.551675e-03 -5.627133e-03 -1.547498e-02 2.045880e-02
<VARIANCE> 25
 4.803527e+01 5.134138e+01 1.048917e+02 8.752769e+01 7.417048e+01 9.790822e+01 6.581352e+01 5.741110e+01 4.161873e+01 3.817028e+01 4.535803e+01 3.419817e+01 1.987551e+00 2.560586e+00 3.462211e+00 3.613789e+00 3.504917e+00 4.697473e+00 3.161591e+00 3.037893e+00 2.555220e+00 2.460158e+00 2.358821e+00 1.905628e+00 2.295166e+00
<GCONST> 1.081165e+02
<STATE> 3
<MEAN> 25
 7.278923e-09 7.736676e-09 -1.495757e-08 2.233321e-08 -7.517470e-09 -5.266098e-08 1.936748e-08 -7.220898e-10 -9.554795e-09 1.052188e-08 -1.655649e-08 4.951473e-09 6.015358e-02 6.638382e-02 2.298475e-02 2.413188e-02 -1.107854e-02 -3.401659e-02 1.583678e-04 -9.783696e-03 -2.136309e-02 1.551675e-03 -5.627133e-03 -1.547498e-02 2.045880e-02
<VARIANCE> 25
 4.803527e+01 5.134138e+01 1.048917e+02 8.752769e+01 7.417048e+01 9.790822e+01 6.581352e+01 5.741110e+01 4.161873e+01 3.817028e+01 4.535803e+01 3.419817e+01 1.987551e+00 2.560586e+00 3.462211e+00 3.613789e+00 3.504917e+00 4.697473e+00 3.161591e+00 3.037893e+00 2.555220e+00 2.460158e+00 2.358821e+00 1.905628e+00 2.295166e+00
<GCONST> 1.081165e+02
<STATE> 4
<MEAN> 25
 7.278923e-09 7.736676e-09 -1.495757e-08 2.233321e-08 -7.517470e-09 -5.266098e-08 1.936748e-08 -7.220898e-10 -9.554795e-09 1.052188e-08 -1.655649e-08 4.951473e-09 6.015358e-02 6.638382e-02 2.298475e-02 2.413188e-02 -1.107854e-02 -3.401659e-02 1.583678e-04 -9.783696e-03 -2.136309e-02 1.551675e-03 -5.627133e-03 -1.547498e-02 2.045880e-02
<VARIANCE> 25
 4.803527e+01 5.134138e+01 1.048917e+02 8.752769e+01 7.417048e+01 9.790822e+01 6.581352e+01 5.741110e+01 4.161873e+01 3.817028e+01 4.535803e+01 3.419817e+01 1.987551e+00 2.560586e+00 3.462211e+00 3.613789e+00 3.504917e+00 4.697473e+00 3.161591e+00 3.037893e+00 2.555220e+00 2.460158e+00 2.358821e+00 1.905628e+00 2.295166e+00
<GCONST> 1.081165e+02
<TRANSP> 5
 0.000000e+00 1.000000e+00 0.000000e+00 0.000000e+00 0.000000e+00
 0.000000e+00 6.000000e-01 4.000000e-01 0.000000e+00 0.000000e+00
 0.000000e+00 0.000000e+00 6.000000e-01 4.000000e-01 0.000000e+00
 0.000000e+00 0.000000e+00 0.000000e+00 7.000000e-01 3.000000e-01
 0.000000e+00 0.000000e+00 0.000000e+00 0.000000e+00 0.000000e+00
<ENDHMM>
~h "eh"
<BEGINHMM>
<NUMSTATES> 5
<STATE> 2
<MEAN> 25
 7.278923e-09 7.736676e-09 -1.495757e-08 2.233321e-08 -7.517470e-09 -5.266098e-08 1.936748e-08 -7.220898e-10 -9.554795e-09 1.052188e-08 -1.655649e-08 4.951473e-09 6.015358e-02 6.638382e-02 2.298475e-02 2.413188e-02 -1.107854e-02 -3.401659e-02 1.583678e-04 -9.783696e-03 -2.136309e-02 1.551675e-03 -5.627133e-03 -1.547498e-02 2.045880e-02
<VARIANCE> 25
 4.803527e+01 5.134138e+01 1.048917e+02 8.752769e+01 7.417048e+01 9.790822e+01 6.581352e+01 5.741110e+01 4.161873e+01 3.817028e+01 4.535803e+01 3.419817e+01 1.987551e+00 2.560586e+00 3.462211e+00 3.613789e+00 3.504917e+00 4.697473e+00 3.161591e+00 3.037893e+00 2.555220e+00 2.460158e+00 2.358821e+00 1.905628e+00 2.295166e+00
<GCONST> 1.081165e+02
<STATE> 3
<MEAN> 25
 7.278923e-09 7.736676e-09 -1.495757e-08 2.233321e-08 -7.517470e-09 -5.266098e-08 1.936748e-08 -7.220898e-10 -9.554795e-09 1.052188e-08 -1.655649e-08 4.951473e-09 6.015358e-02 6.638382e-02 2.298475e-02 2.413188e-02 -1.107854e-02 -3.401659e-02 1.583678e-04 -9.783696e-03 -2.136309e-02 1.551675e-03 -5.627133e-03 -1.547498e-02 2.045880e-02
<VARIANCE> 25
 4.803527e+01 5.134138e+01 1.048917e+02 8.752769e+01 7.417048e+01 9.790822e+01 6.581352e+01 5.741110e+01 4.161873e+01 3.817028e+01 4.535803e+01 3.419817e+01 1.987551e+00 2.560586e+00 3.462211e+00 3.613789e+00 3.504917e+00 4.697473e+00 3.161591e+00 3.037893e+00 2.555220e+00 2.460158e+00 2.358821e+00 1.905628e+00 2.295166e+00
<GCONST> 1.081165e+02
<STATE> 4
<MEAN> 25
 7.278923e-09 7.736676e-09 -1.495757e-08 2.233321e-08 -7.517470e-09 -5.266098e-08 1.936748e-08 -7.220898e-10 -9.554795e-09 1.052188e-08 -1.655649e-08 4.951473e-09 6.015358e-02 6.638382e-02 2.298475e-02 2.413188e-02 -1.107854e-02 -3.401659e-02 1.583678e-04 -9.783696e-03 -2.136309e-02 1.551675e-03 -5.627133e-03 -1.547498e-02 2.045880e-02
<VARIANCE> 25
 4.803527e+01 5.134138e+01 1.048917e+02 8.752769e+01 7.417048e+01 9.790822e+01 6.581352e+01 5.741110e+01 4.161873e+01 3.817028e+01 4.535803e+01 3.419817e+01 1.987551e+00 2.560586e+00 3.462211e+00 3.613789e+00 3.504917e+00 4.697473e+00 3.161591e+00 3.037893e+00 2.555220e+00 2.460158e+00 2.358821e+00 1.905628e+00 2.295166e+00
<GCONST> 1.081165e+02
<TRANSP> 5
 0.000000e+00 1.000000e+00 0.000000e+00 0.000000e+00 0.000000e+00
 0.000000e+00 6.000000e-01 4.000000e-01 0.000000e+00 0.000000e+00
 0.000000e+00 0.000000e+00 6.000000e-01 4.000000e-01 0.000000e+00
 0.000000e+00 0.000000e+00 0.000000e+00 7.000000e-01 3.000000e-01
 0.000000e+00 0.000000e+00 0.000000e+00 0.000000e+00 0.000000e+00
<ENDHMM>
~h "s"
<BEGINHMM>
<NUMSTATES> 5
<STATE> 2
<MEAN> 25
 7.278923e-09 7.736676e-09 -1.495757e-08 2.233321e-08 -7.517470e-09 -5.266098e-08 1.936748e-08 -7.220898e-10 -9.554795e-09 1.052188e-08 -1.655649e-08 4.951473e-09 6.015358e-02 6.638382e-02 2.298475e-02 2.413188e-02 -1.107854e-02 -3.401659e-02 1.583678e-04 -9.783696e-03 -2.136309e-02 1.551675e-03 -5.627133e-03 -1.547498e-02 2.045880e-02
<VARIANCE> 25
 4.803527e+01 5.134138e+01 1.048917e+02 8.752769e+01 7.417048e+01 9.790822e+01 6.581352e+01 5.741110e+01 4.161873e+01 3.817028e+01 4.535803e+01 3.419817e+01 1.987551e+00 2.560586e+00 3.462211e+00 3.613789e+00 3.504917e+00 4.697473e+00 3.161591e+00 3.037893e+00 2.555220e+00 2.460158e+00 2.358821e+00 1.905628e+00 2.295166e+00
<GCONST> 1.081165e+02
<STATE> 3
<MEAN> 25
 7.278923e-09 7.736676e-09 -1.495757e-08 2.233321e-08 -7.517470e-09 -5.266098e-08 1.936748e-08 -7.220898e-10 -9.554795e-09 1.052188e-08 -1.655649e-08 4.951473e-09 6.015358e-02 6.638382e-02 2.298475e-02 2.413188e-02 -1.107854e-02 -3.401659e-02 1.583678e-04 -9.783696e-03 -2.136309e-02 1.551675e-03 -5.627133e-03 -1.547498e-02 2.045880e-02
<VARIANCE> 25
 4.803527e+01 5.134138e+01 1.048917e+02 8.752769e+01 7.417048e+01 9.790822e+01 6.581352e+01 5.741110e+01 4.161873e+01 3.817028e+01 4.535803e+01 3.419817e+01 1.987551e+00 2.560586e+00 3.462211e+00 3.613789e+00 3.504917e+00 4.697473e+00 3.161591e+00 3.037893e+00 2.555220e+00 2.460158e+00 2.358821e+00 1.905628e+00 2.295166e+00
<GCONST> 1.081165e+02
<STATE> 4
<MEAN> 25
 7.278923e-09 7.736676e-09 -1.495757e-08 2.233321e-08 -7.517470e-09 -5.266098e-08 1.936748e-08 -7.220898e-10 -9.554795e-09 1.052188e-08 -1.655649e-08 4.951473e-09 6.015358e-02 6.638382e-02 2.298475e-02 2.413188e-02 -1.107854e-02 -3.401659e-02 1.583678e-04 -9.783696e-03 -2.136309e-02 1.551675e-03 -5.627133e-03 -1.547498e-02 2.045880e-02
<VARIANCE> 25
 4.803527e+01 5.134138e+01 1.048917e+02 8.752769e+01 7.417048e+01 9.790822e+01 6.581352e+01 5.741110e+01 4.161873e+01 3.817028e+01 4.535803e+01 3.419817e+01 1.987551e+00 2.560586e+00 3.462211e+00 3.613789e+00 3.504917e+00 4.697473e+00 3.161591e+00 3.037893e+00 2.555220e+00 2.460158e+00 2.358821e+00 1.905628e+00 2.295166e+00
<GCONST> 1.081165e+02
<TRANSP> 5
 0.000000e+00 1.000000e+00 0.000000e+00 0.000000e+00 0.000000e+00
 0.000000e+00 6.000000e-01 4.000000e-01 0.000000e+00 0.000000e+00
 0.000000e+00 0.000000e+00 6.000000e-01 4.000000e-01 0.000000e+00
 0.000000e+00 0.000000e+00 0.000000e+00 7.000000e-01 3.000000e-01
 0.000000e+00 0.000000e+00 0.000000e+00 0.000000e+00 0.000000e+00
<ENDHMM>
~h "ow"
<BEGINHMM>
<NUMSTATES> 5
<STATE> 2
<MEAN> 25
 7.278923e-09 7.736676e-09 -1.495757e-08 2.233321e-08 -7.517470e-09 -5.266098e-08 1.936748e-08 -7.220898e-10 -9.554795e-09 1.052188e-08 -1.655649e-08 4.951473e-09 6.015358e-02 6.638382e-02 2.298475e-02 2.413188e-02 -1.107854e-02 -3.401659e-02 1.583678e-04 -9.783696e-03 -2.136309e-02 1.551675e-03 -5.627133e-03 -1.547498e-02 2.045880e-02
<VARIANCE> 25
 4.803527e+01 5.134138e+01 1.048917e+02 8.752769e+01 7.417048e+01 9.790822e+01 6.581352e+01 5.741110e+01 4.161873e+01 3.817028e+01 4.535803e+01 3.419817e+01 1.987551e+00 2.560586e+00 3.462211e+00 3.613789e+00 3.504917e+00 4.697473e+00 3.161591e+00 3.037893e+00 2.555220e+00 2.460158e+00 2.358821e+00 1.905628e+00 2.295166e+00
<GCONST> 1.081165e+02
<STATE> 3
<MEAN> 25
 7.278923e-09 7.736676e-09 -1.495757e-08 2.233321e-08 -7.517470e-09 -5.266098e-08 1.936748e-08 -7.220898e-10 -9.554795e-09 1.052188e-08 -1.655649e-08 4.951473e-09 6.015358e-02 6.638382e-02 2.298475e-02 2.413188e-02 -1.107854e-02 -3.401659e-02 1.583678e-04 -9.783696e-03 -2.136309e-02 1.551675e-03 -5.627133e-03 -1.547498e-02 2.045880e-02
<VARIANCE> 25
 4.803527e+01 5.134138e+01 1.048917e+02 8.752769e+01 7.417048e+01 9.790822e+01 6.581352e+01 5.741110e+01 4.161873e+01 3.817028e+01 4.535803e+01 3.419817e+01 1.987551e+00 2.560586e+00 3.462211e+00 3.613789e+00 3.504917e+00 4.697473e+00 3.161591e+00 3.037893e+00 2.555220e+00 2.460158e+00 2.358821e+00 1.905628e+00 2.295166e+00
<GCONST> 1.081165e+02
<STATE> 4
<MEAN> 25
 7.278923e-09 7.736676e-09 -1.495757e-08 2.233321e-08 -7.517470e-09 -5.266098e-08 1.936748e-08 -7.220898e-10 -9.554795e-09 1.052188e-08 -1.655649e-08 4.951473e-09 6.015358e-02 6.638382e-02 2.298475e-02 2.413188e-02 -1.107854e-02 -3.401659e-02 1.583678e-04 -9.783696e-03 -2.136309e-02 1.551675e-03 -5.627133e-03 -1.547498e-02 2.045880e-02
<VARIANCE> 25
 4.803527e+01 5.134138e+01 1.048917e+02 8.752769e+01 7.417048e+01 9.790822e+01 6.581352e+01 5.741110e+01 4.161873e+01 3.817028e+01 4.535803e+01 3.419817e+01 1.987551e+00 2.560586e+00 3.462211e+00 3.613789e+00 3.504917e+00 4.697473e+00 3.161591e+00 3.037893e+00 2.555220e+00 2.460158e+00 2.358821e+00 1.905628e+00 2.295166e+00
<GCONST> 1.081165e+02
<TRANSP> 5
 0.000000e+00 1.000000e+00 0.000000e+00 0.000000e+00 0.000000e+00
 0.000000e+00 6.000000e-01 4.000000e-01 0.000000e+00 0.000000e+00
 0.000000e+00 0.000000e+00 6.000000e-01 4.000000e-01 0.000000e+00
 0.000000e+00 0.000000e+00 0.000000e+00 7.000000e-01 3.000000e-01
 0.000000e+00 0.000000e+00 0.000000e+00 0.000000e+00 0.000000e+00
<ENDHMM>
~h "k"
<BEGINHMM>
<NUMSTATES> 5
<STATE> 2
<MEAN> 25
 7.278923e-09 7.736676e-09 -1.495757e-08 2.233321e-08 -7.517470e-09 -5.266098e-08 1.936748e-08 -7.220898e-10 -9.554795e-09 1.052188e-08 -1.655649e-08 4.951473e-09 6.015358e-02 6.638382e-02 2.298475e-02 2.413188e-02 -1.107854e-02 -3.401659e-02 1.583678e-04 -9.783696e-03 -2.136309e-02 1.551675e-03 -5.627133e-03 -1.547498e-02 2.045880e-02
<VARIANCE> 25
 4.803527e+01 5.134138e+01 1.048917e+02 8.752769e+01 7.417048e+01 9.790822e+01 6.581352e+01 5.741110e+01 4.161873e+01 3.817028e+01 4.535803e+01 3.419817e+01 1.987551e+00 2.560586e+00 3.462211e+00 3.613789e+00 3.504917e+00 4.697473e+00 3.161591e+00 3.037893e+00 2.555220e+00 2.460158e+00 2.358821e+00 1.905628e+00 2.295166e+00
<GCONST> 1.081165e+02
<STATE> 3
<MEAN> 25
 7.278923e-09 7.736676e-09 -1.495757e-08 2.233321e-08 -7.517470e-09 -5.266098e-08 1.936748e-08 -7.220898e-10 -9.554795e-09 1.052188e-08 -1.655649e-08 4.951473e-09 6.015358e-02 6.638382e-02 2.298475e-02 2.413188e-02 -1.107854e-02 -3.401659e-02 1.583678e-04 -9.783696e-03 -2.136309e-02 1.551675e-03 -5.627133e-03 -1.547498e-02 2.045880e-02
<VARIANCE> 25
 4.803527e+01 5.134138e+01 1.048917e+02 8.752769e+01 7.417048e+01 9.790822e+01 6.581352e+01 5.741110e+01 4.161873e+01 3.817028e+01 4.535803e+01 3.419817e+01 1.987551e+00 2.560586e+00 3.462211e+00 3.613789e+00 3.504917e+00 4.697473e+00 3.161591e+00 3.037893e+00 2.555220e+00 2.460158e+00 2.358821e+00 1.905628e+00 2.295166e+00
<GCONST> 1.081165e+02
<STATE> 4
<MEAN> 25
 7.278923e-09 7.736676e-09 -1.495757e-08 2.233321e-08 -7.517470e-09 -5.266098e-08 1.936748e-08 -7.220898e-10 -9.554795e-09 1.052188e-08 -1.655649e-08 4.951473e-09 6.015358e-02 6.638382e-02 2.298475e-02 2.413188e-02 -1.107854e-02 -3.401659e-02 1.583678e-04 -9.783696e-03 -2.136309e-02 1.551675e-03 -5.627133e-03 -1.547498e-02 2.045880e-02
<VARIANCE> 25
 4.803527e+01 5.134138e+01 1.048917e+02 8.752769e+01 7.417048e+01 9.790822e+01 6.581352e+01 5.741110e+01 4.161873e+01 3.817028e+01 4.535803e+01 3.419817e+01 1.987551e+00 2.560586e+00 3.462211e+00 3.613789e+00 3.504917e+00 4.697473e+00 3.161591e+00 3.037893e+00 2.555220e+00 2.460158e+00 2.358821e+00 1.905628e+00 2.295166e+00
<GCONST> 1.081165e+02
<TRANSP> 5
 0.000000e+00 1.000000e+00 0.000000e+00 0.000000e+00 0.000000e+00
 0.000000e+00 6.000000e-01 4.000000e-01 0.000000e+00 0.000000e+00
 0.000000e+00 0.000000e+00 6.000000e-01 4.000000e-01 0.000000e+00
 0.000000e+00 0.000000e+00 0.000000e+00 7.000000e-01 3.000000e-01
 0.000000e+00 0.000000e+00 0.000000e+00 0.000000e+00 0.000000e+00
<ENDHMM>
~h "uw"
<BEGINHMM>
<NUMSTATES> 5
<STATE> 2
<MEAN> 25
 7.278923e-09 7.736676e-09 -1.495757e-08 2.233321e-08 -7.517470e-09 -5.266098e-08 1.936748e-08 -7.220898e-10 -9.554795e-09 1.052188e-08 -1.655649e-08 4.951473e-09 6.015358e-02 6.638382e-02 2.298475e-02 2.413188e-02 -1.107854e-02 -3.401659e-02 1.583678e-04 -9.783696e-03 -2.136309e-02 1.551675e-03 -5.627133e-03 -1.547498e-02 2.045880e-02
<VARIANCE> 25
 4.803527e+01 5.134138e+01 1.048917e+02 8.752769e+01 7.417048e+01 9.790822e+01 6.581352e+01 5.741110e+01 4.161873e+01 3.817028e+01 4.535803e+01 3.419817e+01 1.987551e+00 2.560586e+00 3.462211e+00 3.613789e+00 3.504917e+00 4.697473e+00 3.161591e+00 3.037893e+00 2.555220e+00 2.460158e+00 2.358821e+00 1.905628e+00 2.295166e+00
<GCONST> 1.081165e+02
<STATE> 3
<MEAN> 25
 7.278923e-09 7.736676e-09 -1.495757e-08 2.233321e-08 -7.517470e-09 -5.266098e-08 1.936748e-08 -7.220898e-10 -9.554795e-09 1.052188e-08 -1.655649e-08 4.951473e-09 6.015358e-02 6.638382e-02 2.298475e-02 2.413188e-02 -1.107854e-02 -3.401659e-02 1.583678e-04 -9.783696e-03 -2.136309e-02 1.551675e-03 -5.627133e-03 -1.547498e-02 2.045880e-02
<VARIANCE> 25
 4.803527e+01 5.134138e+01 1.048917e+02 8.752769e+01 7.417048e+01 9.790822e+01 6.581352e+01 5.741110e+01 4.161873e+01 3.817028e+01 4.535803e+01 3.419817e+01 1.987551e+00 2.560586e+00 3.462211e+00 3.613789e+00 3.504917e+00 4.697473e+00 3.161591e+00 3.037893e+00 2.555220e+00 2.460158e+00 2.358821e+00 1.905628e+00 2.295166e+00
<GCONST> 1.081165e+02
<STATE> 4
<MEAN> 25
 7.278923e-09 7.736676e-09 -1.495757e-08 2.233321e-08 -7.517470e-09 -5.266098e-08 1.936748e-08 -7.220898e-10 -9.554795e-09 1.052188e-08 -1.655649e-08 4.951473e-09 6.015358e-02 6.638382e-02 2.298475e-02 2.413188e-02 -1.107854e-02 -3.401659e-02 1.583678e-04 -9.783696e-03 -2.136309e-02 1.551675e-03 -5.627133e-03 -1.547498e-02 2.045880e-02
<VARIANCE> 25
 4.803527e+01 5.134138e+01 1.048917e+02 8.752769e+01 7.417048e+01 9.790822e+01 6.581352e+01 5.741110e+01 4.161873e+01 3.817028e+01 4.535803e+01 3.419817e+01 1.987551e+00 2.560586e+00 3.462211e+00 3.613789e+00 3.504917e+00 4.697473e+00 3.161591e+00 3.037893e+00 2.555220e+00 2.460158e+00 2.358821e+00 1.905628e+00 2.295166e+00
<GCONST> 1.081165e+02
<TRANSP> 5
 0.000000e+00 1.000000e+00 0.000000e+00 0.000000e+00 0.000000e+00
 0.000000e+00 6.000000e-01 4.000000e-01 0.000000e+00 0.000000e+00
 0.000000e+00 0.000000e+00 6.000000e-01 4.000000e-01 0.000000e+00
 0.000000e+00 0.000000e+00 0.000000e+00 7.000000e-01 3.000000e-01
 0.000000e+00 0.000000e+00 0.000000e+00 0.000000e+00 0.000000e+00
<ENDHMM>
~h "l"
<BEGINHMM>
<NUMSTATES> 5
<STATE> 2
<MEAN> 25
 7.278923e-09 7.736676e-09 -1.495757e-08 2.233321e-08 -7.517470e-09 -5.266098e-08 1.936748e-08 -7.220898e-10 -9.554795e-09 1.052188e-08 -1.655649e-08 4.951473e-09 6.015358e-02 6.638382e-02 2.298475e-02 2.413188e-02 -1.107854e-02 -3.401659e-02 1.583678e-04 -9.783696e-03 -2.136309e-02 1.551675e-03 -5.627133e-03 -1.547498e-02 2.045880e-02
<VARIANCE> 25
 4.803527e+01 5.134138e+01 1.048917e+02 8.752769e+01 7.417048e+01 9.790822e+01 6.581352e+01 5.741110e+01 4.161873e+01 3.817028e+01 4.535803e+01 3.419817e+01 1.987551e+00 2.560586e+00 3.462211e+00 3.613789e+00 3.504917e+00 4.697473e+00 3.161591e+00 3.037893e+00 2.555220e+00 2.460158e+00 2.358821e+00 1.905628e+00 2.295166e+00
<GCONST> 1.081165e+02
<STATE> 3
<MEAN> 25
 7.278923e-09 7.736676e-09 -1.495757e-08 2.233321e-08 -7.517470e-09 -5.266098e-08 1.936748e-08 -7.220898e-10 -9.554795e-09 1.052188e-08 -1.655649e-08 4.951473e-09 6.015358e-02 6.638382e-02 2.298475e-02 2.413188e-02 -1.107854e-02 -3.401659e-02 1.583678e-04 -9.783696e-03 -2.136309e-02 1.551675e-03 -5.627133e-03 -1.547498e-02 2.045880e-02
<VARIANCE> 25
 4.803527e+01 5.134138e+01 1.048917e+02 8.752769e+01 7.417048e+01 9.790822e+01 6.581352e+01 5.741110e+01 4.161873e+01 3.817028e+01 4.535803e+01 3.419817e+01 1.987551e+00 2.560586e+00 3.462211e+00 3.613789e+00 3.504917e+00 4.697473e+00 3.161591e+00 3.037893e+00 2.555220e+00 2.460158e+00 2.358821e+00 1.905628e+00 2.295166e+00
<GCONST> 1.081165e+02
<STATE> 4
<MEAN> 25
 7.278923e-09 7.736676e-09 -1.495757e-08 2.233321e-08 -7.517470e-09 -5.266098e-08 1.936748e-08 -7.220898e-10 -9.554795e-09 1.052188e-08 -1.655649e-08 4.951473e-09 6.015358e-02 6.638382e-02 2.298475e-02 2.413188e-02 -1.107854e-02 -3.401659e-02 1.583678e-04 -9.783696e-03 -2.136309e-02 1.551675e-03 -5.627133e-03 -1.547498e-02 2.045880e-02
<VARIANCE> 25
 4.803527e+01 5.134138e+01 1.048917e+02 8.752769e+01 7.417048e+01 9.790822e+01 6.581352e+01 5.741110e+01 4.161873e+01 3.817028e+01 4.535803e+01 3.419817e+01 1.987551e+00 2.560586e+00 3.462211e+00 3.613789e+00 3.504917e+00 4.697473e+00 3.161591e+00 3.037893e+00 2.555220e+00 2.460158e+00 2.358821e+00 1.905628e+00 2.295166e+00
<GCONST> 1.081165e+02
<TRANSP> 5
 0.000000e+00 1.000000e+00 0.000000e+00 0.000000e+00 0.000000e+00
 0.000000e+00 6.000000e-01 4.000000e-01 0.000000e+00 0.000000e+00
 0.000000e+00 0.000000e+00 6.000000e-01 4.000000e-01 0.000000e+00
 0.000000e+00 0.000000e+00 0.000000e+00 7.000000e-01 3.000000e-01
 0.000000e+00 0.000000e+00 0.000000e+00 0.000000e+00 0.000000e+00
<ENDHMM>
~h "n"
<BEGINHMM>
<NUMSTATES> 5
<STATE> 2
<MEAN> 25
 7.278923e-09 7.736676e-09 -1.495757e-08 2.233321e-08 -7.517470e-09 -5.266098e-08 1.936748e-08 -7.220898e-10 -9.554795e-09 1.052188e-08 -1.655649e-08 4.951473e-09 6.015358e-02 6.638382e-02 2.298475e-02 2.413188e-02 -1.107854e-02 -3.401659e-02 1.583678e-04 -9.783696e-03 -2.136309e-02 1.551675e-03 -5.627133e-03 -1.547498e-02 2.045880e-02
<VARIANCE> 25
 4.803527e+01 5.134138e+01 1.048917e+02 8.752769e+01 7.417048e+01 9.790822e+01 6.581352e+01 5.741110e+01 4.161873e+01 3.817028e+01 4.535803e+01 3.419817e+01 1.987551e+00 2.560586e+00 3.462211e+00 3.613789e+00 3.504917e+00 4.697473e+00 3.161591e+00 3.037893e+00 2.555220e+00 2.460158e+00 2.358821e+00 1.905628e+00 2.295166e+00
<GCONST> 1.081165e+02
<STATE> 3
<MEAN> 25
 7.278923e-09 7.736676e-09 -1.495757e-08 2.233321e-08 -7.517470e-09 -5.266098e-08 1.936748e-08 -7.220898e-10 -9.554795e-09 1.052188e-08 -1.655649e-08 4.951473e-09 6.015358e-02 6.638382e-02 2.298475e-02 2.413188e-02 -1.107854e-02 -3.401659e-02 1.583678e-04 -9.783696e-03 -2.136309e-02 1.551675e-03 -5.627133e-03 -1.547498e-02 2.045880e-02
<VARIANCE> 25
 4.803527e+01 5.134138e+01 1.048917e+02 8.752769e+01 7.417048e+01 9.790822e+01 6.581352e+01 5.741110e+01 4.161873e+01 3.817028e+01 4.535803e+01 3.419817e+01 1.987551e+00 2.560586e+00 3.462211e+00 3.613789e+00 3.504917e+00 4.697473e+00 3.161591e+00 3.037893e+00 2.555220e+00 2.460158e+00 2.358821e+00 1.905628e+00 2.295166e+00
<GCONST> 1.081165e+02
<STATE> 4
<MEAN> 25
 7.278923e-09 7.736676e-09 -1.495757e-08 2.233321e-08 -7.517470e-09 -5.266098e-08 1.936748e-08 -7.220898e-10 -9.554795e-09 1.052188e-08 -1.655649e-08 4.951473e-09 6.015358e-02 6.638382e-02 2.298475e-02 2.413188e-02 -1.107854e-02 -3.401659e-02 1.583678e-04 -9.783696e-03 -2.136309e-02 1.551675e-03 -5.627133e-03 -1.547498e-02 2.045880e-02
<VARIANCE> 25
 4.803527e+01 5.134138e+01 1.048917e+02 8.752769e+01 7.417048e+01 9.790822e+01 6.581352e+01 5.741110e+01 4.161873e+01 3.817028e+01 4.535803e+01 3.419817e+01 1.987551e+00 2.560586e+00 3.462211e+00 3.613789e+00 3.504917e+00 4.697473e+00 3.161591e+00 3.037893e+00 2.555220e+00 2.460158e+00 2.358821e+00 1.905628e+00 2.295166e+00
<GCONST> 1.081165e+02
<TRANSP> 5
 0.000000e+00 1.000000e+00 0.000000e+00 0.000000e+00 0.000000e+00
 0.000000e+00 6.000000e-01 4.000000e-01 0.000000e+00 0.000000e+00
 0.000000e+00 0.000000e+00 6.000000e-01 4.000000e-01 0.000000e+00
 0.000000e+00 0.000000e+00 0.000000e+00 7.000000e-01 3.000000e-01
 0.000000e+00 0.000000e+00 0.000000e+00 0.000000e+00 0.000000e+00
<ENDHMM>
~h "uh"
<BEGINHMM>
<NUMSTATES> 5
<STATE> 2
<MEAN> 25
 7.278923e-09 7.736676e-09 -1.495757e-08 2.233321e-08 -7.517470e-09 -5.266098e-08 1.936748e-08 -7.220898e-10 -9.554795e-09 1.052188e-08 -1.655649e-08 4.951473e-09 6.015358e-02 6.638382e-02 2.298475e-02 2.413188e-02 -1.107854e-02 -3.401659e-02 1.583678e-04 -9.783696e-03 -2.136309e-02 1.551675e-03 -5.627133e-03 -1.547498e-02 2.045880e-02
<VARIANCE> 25
 4.803527e+01 5.134138e+01 1.048917e+02 8.752769e+01 7.417048e+01 9.790822e+01 6.581352e+01 5.741110e+01 4.161873e+01 3.817028e+01 4.535803e+01 3.419817e+01 1.987551e+00 2.560586e+00 3.462211e+00 3.613789e+00 3.504917e+00 4.697473e+00 3.161591e+00 3.037893e+00 2.555220e+00 2.460158e+00 2.358821e+00 1.905628e+00 2.295166e+00
<GCONST> 1.081165e+02
<STATE> 3
<MEAN> 25
 7.278923e-09 7.736676e-09 -1.495757e-08 2.233321e-08 -7.517470e-09 -5.266098e-08 1.936748e-08 -7.220898e-10 -9.554795e-09 1.052188e-08 -1.655649e-08 4.951473e-09 6.015358e-02 6.638382e-02 2.298475e-02 2.413188e-02 -1.107854e-02 -3.401659e-02 1.583678e-04 -9.783696e-03 -2.136309e-02 1.551675e-03 -5.627133e-03 -1.547498e-02 2.045880e-02
<VARIANCE> 25
 4.803527e+01 5.134138e+01 1.048917e+02 8.752769e+01 7.417048e+01 9.790822e+01 6.581352e+01 5.741110e+01 4.161873e+01 3.817028e+01 4.535803e+01 3.419817e+01 1.987551e+00 2.560586e+00 3.462211e+00 3.613789e+00 3.504917e+00 4.697473e+00 3.161591e+00 3.037893e+00 2.555220e+00 2.460158e+00 2.358821e+00 1.905628e+00 2.295166e+00
<GCONST> 1.081165e+02
<STATE> 4
<MEAN> 25
 7.278923e-09 7.736676e-09 -1.495757e-08 2.233321e-08 -7.517470e-09 -5.266098e-08 1.936748e-08 -7.220898e-10 -9.554795e-09 1.052188e-08 -1.655649e-08 4.951473e-09 6.015358e-02 6.638382e-02 2.298475e-02 2.413188e-02 -1.107854e-02 -3.401659e-02 1.583678e-04 -9.783696e-03 -2.136309e-02 1.551675e-03 -5.627133e-03 -1.547498e-02 2.045880e-02
<VARIANCE> 25
 4.803527e+01 5.134138e+01 1.048917e+02 8.752769e+01 7.417048e+01 9.790822e+01 6.581352e+01 5.741110e+01 4.161873e+01 3.817028e+01 4.535803e+01 3.419817e+01 1.987551e+00 2.560586e+00 3.462211e+00 3.613789e+00 3.504917e+00 4.697473e+00 3.161591e+00 3.037893e+00 2.555220e+00 2.460158e+00 2.358821e+00 1.905628e+00 2.295166e+00
<GCONST> 1.081165e+02
<TRANSP> 5
 0.000000e+00 1.000000e+00 0.000000e+00 0.000000e+00 0.000000e+00
 0.000000e+00 6.000000e-01 4.000000e-01 0.000000e+00 0.000000e+00
 0.000000e+00 0.000000e+00 6.000000e-01 4.000000e-01 0.000000e+00
 0.000000e+00 0.000000e+00 0.000000e+00 7.000000e-01 3.000000e-01
 0.000000e+00 0.000000e+00 0.000000e+00 0.000000e+00 0.000000e+00
<ENDHMM>
~h "ax"
<BEGINHMM>
<NUMSTATES> 5
<STATE> 2
<MEAN> 25
 7.278923e-09 7.736676e-09 -1.495757e-08 2.233321e-08 -7.517470e-09 -5.266098e-08 1.936748e-08 -7.220898e-10 -9.554795e-09 1.052188e-08 -1.655649e-08 4.951473e-09 6.015358e-02 6.638382e-02 2.298475e-02 2.413188e-02 -1.107854e-02 -3.401659e-02 1.583678e-04 -9.783696e-03 -2.136309e-02 1.551675e-03 -5.627133e-03 -1.547498e-02 2.045880e-02
<VARIANCE> 25
 4.803527e+01 5.134138e+01 1.048917e+02 8.752769e+01 7.417048e+01 9.790822e+01 6.581352e+01 5.741110e+01 4.161873e+01 3.817028e+01 4.535803e+01 3.419817e+01 1.987551e+00 2.560586e+00 3.462211e+00 3.613789e+00 3.504917e+00 4.697473e+00 3.161591e+00 3.037893e+00 2.555220e+00 2.460158e+00 2.358821e+00 1.905628e+00 2.295166e+00
<GCONST> 1.081165e+02
<STATE> 3
<MEAN> 25
 7.278923e-09 7.736676e-09 -1.495757e-08 2.233321e-08 -7.517470e-09 -5.266098e-08 1.936748e-08 -7.220898e-10 -9.554795e-09 1.052188e-08 -1.655649e-08 4.951473e-09 6.015358e-02 6.638382e-02 2.298475e-02 2.413188e-02 -1.107854e-02 -3.401659e-02 1.583678e-04 -9.783696e-03 -2.136309e-02 1.551675e-03 -5.627133e-03 -1.547498e-02 2.045880e-02
<VARIANCE> 25
 4.803527e+01 5.134138e+01 1.048917e+02 8.752769e+01 7.417048e+01 9.790822e+01 6.581352e+01 5.741110e+01 4.161873e+01 3.817028e+01 4.535803e+01 3.419817e+01 1.987551e+00 2.560586e+00 3.462211e+00 3.613789e+00 3.504917e+00 4.697473e+00 3.161591e+00 3.037893e+00 2.555220e+00 2.460158e+00 2.358821e+00 1.905628e+00 2.295166e+00
<GCONST> 1.081165e+02
<STATE> 4
<MEAN> 25
 7.278923e-09 7.736676e-09 -1.495757e-08 2.233321e-08 -7.517470e-09 -5.266098e-08 1.936748e-08 -7.220898e-10 -9.554795e-09 1.052188e-08 -1.655649e-08 4.951473e-09 6.015358e-02 6.638382e-02 2.298475e-02 2.413188e-02 -1.107854e-02 -3.401659e-02 1.583678e-04 -9.783696e-03 -2.136309e-02 1.551675e-03 -5.627133e-03 -1.547498e-02 2.045880e-02
<VARIANCE> 25
 4.803527e+01 5.134138e+01 1.048917e+02 8.752769e+01 7.417048e+01 9.790822e+01 6.581352e+01 5.741110e+01 4.161873e+01 3.817028e+01 4.535803e+01 3.419817e+01 1.987551e+00 2.560586e+00 3.462211e+00 3.613789e+00 3.504917e+00 4.697473e+00 3.161591e+00 3.037893e+00 2.555220e+00 2.460158e+00 2.358821e+00 1.905628e+00 2.295166e+00
<GCONST> 1.081165e+02
<TRANSP> 5
 0.000000e+00 1.000000e+00 0.000000e+00 0.000000e+00 0.000000e+00
 0.000000e+00 6.000000e-01 4.000000e-01 0.000000e+00 0.000000e+00
 0.000000e+00 0.000000e+00 6.000000e-01 4.000000e-01 0.000000e+00
 0.000000e+00 0.000000e+00 0.000000e+00 7.000000e-01 3.000000e-01
 0.000000e+00 0.000000e+00 0.000000e+00 0.000000e+00 0.000000e+00
<ENDHMM>
~h "m"
<BEGINHMM>
<NUMSTATES> 5
<STATE> 2
<MEAN> 25
 7.278923e-09 7.736676e-09 -1.495757e-08 2.233321e-08 -7.517470e-09 -5.266098e-08 1.936748e-08 -7.220898e-10 -9.554795e-09 1.052188e-08 -1.655649e-08 4.951473e-09 6.015358e-02 6.638382e-02 2.298475e-02 2.413188e-02 -1.107854e-02 -3.401659e-02 1.583678e-04 -9.783696e-03 -2.136309e-02 1.551675e-03 -5.627133e-03 -1.547498e-02 2.045880e-02
<VARIANCE> 25
 4.803527e+01 5.134138e+01 1.048917e+02 8.752769e+01 7.417048e+01 9.790822e+01 6.581352e+01 5.741110e+01 4.161873e+01 3.817028e+01 4.535803e+01 3.419817e+01 1.987551e+00 2.560586e+00 3.462211e+00 3.613789e+00 3.504917e+00 4.697473e+00 3.161591e+00 3.037893e+00 2.555220e+00 2.460158e+00 2.358821e+00 1.905628e+00 2.295166e+00
<GCONST> 1.081165e+02
<STATE> 3
<MEAN> 25
 7.278923e-09 7.736676e-09 -1.495757e-08 2.233321e-08 -7.517470e-09 -5.266098e-08 1.936748e-08 -7.220898e-10 -9.554795e-09 1.052188e-08 -1.655649e-08 4.951473e-09 6.015358e-02 6.638382e-02 2.298475e-02 2.413188e-02 -1.107854e-02 -3.401659e-02 1.583678e-04 -9.783696e-03 -2.136309e-02 1.551675e-03 -5.627133e-03 -1.547498e-02 2.045880e-02
<VARIANCE> 25
 4.803527e+01 5.134138e+01 1.048917e+02 8.752769e+01 7.417048e+01 9.790822e+01 6.581352e+01 5.741110e+01 4.161873e+01 3.817028e+01 4.535803e+01 3.419817e+01 1.987551e+00 2.560586e+00 3.462211e+00 3.613789e+00 3.504917e+00 4.697473e+00 3.161591e+00 3.037893e+00 2.555220e+00 2.460158e+00 2.358821e+00 1.905628e+00 2.295166e+00
<GCONST> 1.081165e+02
<STATE> 4
<MEAN> 25
 7.278923e-09 7.736676e-09 -1.495757e-08 2.233321e-08 -7.517470e-09 -5.266098e-08 1.936748e-08 -7.220898e-10 -9.554795e-09 1.052188e-08 -1.655649e-08 4.951473e-09 6.015358e-02 6.638382e-02 2.298475e-02 2.413188e-02 -1.107854e-02 -3.401659e-02 1.583678e-04 -9.783696e-03 -2.136309e-02 1.551675e-03 -5.627133e-03 -1.547498e-02 2.045880e-02
<VARIANCE> 25
 4.803527e+01 5.134138e+01 1.048917e+02 8.752769e+01 7.417048e+01 9.790822e+01 6.581352e+01 5.741110e+01 4.161873e+01 3.817028e+01 4.535803e+01 3.419817e+01 1.987551e+00 2.560586e+00 3.462211e+00 3.613789e+00 3.504917e+00 4.697473e+00 3.161591e+00 3.037893e+00 2.555220e+00 2.460158e+00 2.358821e+00 1.905628e+00 2.295166e+00
<GCONST> 1.081165e+02
<TRANSP> 5
 0.000000e+00 1.000000e+00 0.000000e+00 0.000000e+00 0.000000e+00
 0.000000e+00 6.000000e-01 4.000000e-01 0.000000e+00 0.000000e+00
 0.000000e+00 0.000000e+00 6.000000e-01 4.000000e-01 0.000000e+00
 0.000000e+00 0.000000e+00 0.000000e+00 7.000000e-01 3.000000e-01
 0.000000e+00 0.000000e+00 0.000000e+00 0.000000e+00 0.000000e+00
<ENDHMM>
~h "t"
<BEGINHMM>
<NUMSTATES> 5
<STATE> 2
<MEAN> 25
 7.278923e-09 7.736676e-09 -1.495757e-08 2.233321e-08 -7.517470e-09 -5.266098e-08 1.936748e-08 -7.220898e-10 -9.554795e-09 1.052188e-08 -1.655649e-08 4.951473e-09 6.015358e-02 6.638382e-02 2.298475e-02 2.413188e-02 -1.107854e-02 -3.401659e-02 1.583678e-04 -9.783696e-03 -2.136309e-02 1.551675e-03 -5.627133e-03 -1.547498e-02 2.045880e-02
<VARIANCE> 25
 4.803527e+01 5.134138e+01 1.048917e+02 8.752769e+01 7.417048e+01 9.790822e+01 6.581352e+01 5.741110e+01 4.161873e+01 3.817028e+01 4.535803e+01 3.419817e+01 1.987551e+00 2.560586e+00 3.462211e+00 3.613789e+00 3.504917e+00 4.697473e+00 3.161591e+00 3.037893e+00 2.555220e+00 2.460158e+00 2.358821e+00 1.905628e+00 2.295166e+00
<GCONST> 1.081165e+02
<STATE> 3
<MEAN> 25
 7.278923e-09 7.736676e-09 -1.495757e-08 2.233321e-08 -7.517470e-09 -5.266098e-08 1.936748e-08 -7.220898e-10 -9.554795e-09 1.052188e-08 -1.655649e-08 4.951473e-09 6.015358e-02 6.638382e-02 2.298475e-02 2.413188e-02 -1.107854e-02 -3.401659e-02 1.583678e-04 -9.783696e-03 -2.136309e-02 1.551675e-03 -5.627133e-03 -1.547498e-02 2.045880e-02
<VARIANCE> 25
 4.803527e+01 5.134138e+01 1.048917e+02 8.752769e+01 7.417048e+01 9.790822e+01 6.581352e+01 5.741110e+01 4.161873e+01 3.817028e+01 4.535803e+01 3.419817e+01 1.987551e+00 2.560586e+00 3.462211e+00 3.613789e+00 3.504917e+00 4.697473e+00 3.161591e+00 3.037893e+00 2.555220e+00 2.460158e+00 2.358821e+00 1.905628e+00 2.295166e+00
<GCONST> 1.081165e+02
<STATE> 4
<MEAN> 25
 7.278923e-09 7.736676e-09 -1.495757e-08 2.233321e-08 -7.517470e-09 -5.266098e-08 1.936748e-08 -7.220898e-10 -9.554795e-09 1.052188e-08 -1.655649e-08 4.951473e-09 6.015358e-02 6.638382e-02 2.298475e-02 2.413188e-02 -1.107854e-02 -3.401659e-02 1.583678e-04 -9.783696e-03 -2.136309e-02 1.551675e-03 -5.627133e-03 -1.547498e-02 2.045880e-02
<VARIANCE> 25
 4.803527e+01 5.134138e+01 1.048917e+02 8.752769e+01 7.417048e+01 9.790822e+01 6.581352e+01 5.741110e+01 4.161873e+01 3.817028e+01 4.535803e+01 3.419817e+01 1.987551e+00 2.560586e+00 3.462211e+00 3.613789e+00 3.504917e+00 4.697473e+00 3.161591e+00 3.037893e+00 2.555220e+00 2.460158e+00 2.358821e+00 1.905628e+00 2.295166e+00
<GCONST> 1.081165e+02
<TRANSP> 5
 0.000000e+00 1.000000e+00 0.000000e+00 0.000000e+00 0.000000e+00
 0.000000e+00 6.000000e-01 4.000000e-01 0.000000e+00 0.000000e+00
 0.000000e+00 0.000000e+00 6.000000e-01 4.000000e-01 0.000000e+00
 0.000000e+00 0.000000e+00 0.000000e+00 7.000000e-01 3.000000e-01
 0.000000e+00 0.000000e+00 0.000000e+00 0.000000e+00 0.000000e+00
<ENDHMM>
~h "h"
<BEGINHMM>
<NUMSTATES> 5
<STATE> 2
<MEAN> 25
 7.278923e-09 7.736676e-09 -1.495757e-08 2.233321e-08 -7.517470e-09 -5.266098e-08 1.936748e-08 -7.220898e-10 -9.554795e-09 1.052188e-08 -1.655649e-08 4.951473e-09 6.015358e-02 6.638382e-02 2.298475e-02 2.413188e-02 -1.107854e-02 -3.401659e-02 1.583678e-04 -9.783696e-03 -2.136309e-02 1.551675e-03 -5.627133e-03 -1.547498e-02 2.045880e-02
<VARIANCE> 25
 4.803527e+01 5.134138e+01 1.048917e+02 8.752769e+01 7.417048e+01 9.790822e+01 6.581352e+01 5.741110e+01 4.161873e+01 3.817028e+01 4.535803e+01 3.419817e+01 1.987551e+00 2.560586e+00 3.462211e+00 3.613789e+00 3.504917e+00 4.697473e+00 3.161591e+00 3.037893e+00 2.555220e+00 2.460158e+00 2.358821e+00 1.905628e+00 2.295166e+00
<GCONST> 1.081165e+02
<STATE> 3
<MEAN> 25
 7.278923e-09 7.736676e-09 -1.495757e-08 2.233321e-08 -7.517470e-09 -5.266098e-08 1.936748e-08 -7.220898e-10 -9.554795e-09 1.052188e-08 -1.655649e-08 4.951473e-09 6.015358e-02 6.638382e-02 2.298475e-02 2.413188e-02 -1.107854e-02 -3.401659e-02 1.583678e-04 -9.783696e-03 -2.136309e-02 1.551675e-03 -5.627133e-03 -1.547498e-02 2.045880e-02
<VARIANCE> 25
 4.803527e+01 5.134138e+01 1.048917e+02 8.752769e+01 7.417048e+01 9.790822e+01 6.581352e+01 5.741110e+01 4.161873e+01 3.817028e+01 4.535803e+01 3.419817e+01 1.987551e+00 2.560586e+00 3.462211e+00 3.613789e+00 3.504917e+00 4.697473e+00 3.161591e+00 3.037893e+00 2.555220e+00 2.460158e+00 2.358821e+00 1.905628e+00 2.295166e+00
<GCONST> 1.081165e+02
<STATE> 4
<MEAN> 25
 7.278923e-09 7.736676e-09 -1.495757e-08 2.233321e-08 -7.517470e-09 -5.266098e-08 1.936748e-08 -7.220898e-10 -9.554795e-09 1.052188e-08 -1.655649e-08 4.951473e-09 6.015358e-02 6.638382e-02 2.298475e-02 2.413188e-02 -1.107854e-02 -3.401659e-02 1.583678e-04 -9.783696e-03 -2.136309e-02 1.551675e-03 -5.627133e-03 -1.547498e-02 2.045880e-02
<VARIANCE> 25
 4.803527e+01 5.134138e+01 1.048917e+02 8.752769e+01 7.417048e+01 9.790822e+01 6.581352e+01 5.741110e+01 4.161873e+01 3.817028e+01 4.535803e+01 3.419817e+01 1.987551e+00 2.560586e+00 3.462211e+00 3.613789e+00 3.504917e+00 4.697473e+00 3.161591e+00 3.037893e+00 2.555220e+00 2.460158e+00 2.358821e+00 1.905628e+00 2.295166e+00
<GCONST> 1.081165e+02
<TRANSP> 5
 0.000000e+00 1.000000e+00 0.000000e+00 0.000000e+00 0.000000e+00
 0.000000e+00 6.000000e-01 4.000000e-01 0.000000e+00 0.000000e+00
 0.000000e+00 0.000000e+00 6.000000e-01 4.000000e-01 0.000000e+00
 0.000000e+00 0.000000e+00 0.000000e+00 7.000000e-01 3.000000e-01
 0.000000e+00 0.000000e+00 0.000000e+00 0.000000e+00 0.000000e+00
<ENDHMM>
~h "r"
<BEGINHMM>
<NUMSTATES> 5
<STATE> 2
<MEAN> 25
 7.278923e-09 7.736676e-09 -1.495757e-08 2.233321e-08 -7.517470e-09 -5.266098e-08 1.936748e-08 -7.220898e-10 -9.554795e-09 1.052188e-08 -1.655649e-08 4.951473e-09 6.015358e-02 6.638382e-02 2.298475e-02 2.413188e-02 -1.107854e-02 -3.401659e-02 1.583678e-04 -9.783696e-03 -2.136309e-02 1.551675e-03 -5.627133e-03 -1.547498e-02 2.045880e-02
<VARIANCE> 25
 4.803527e+01 5.134138e+01 1.048917e+02 8.752769e+01 7.417048e+01 9.790822e+01 6.581352e+01 5.741110e+01 4.161873e+01 3.817028e+01 4.535803e+01 3.419817e+01 1.987551e+00 2.560586e+00 3.462211e+00 3.613789e+00 3.504917e+00 4.697473e+00 3.161591e+00 3.037893e+00 2.555220e+00 2.460158e+00 2.358821e+00 1.905628e+00 2.295166e+00
<GCONST> 1.081165e+02
<STATE> 3
<MEAN> 25
 7.278923e-09 7.736676e-09 -1.495757e-08 2.233321e-08 -7.517470e-09 -5.266098e-08 1.936748e-08 -7.220898e-10 -9.554795e-09 1.052188e-08 -1.655649e-08 4.951473e-09 6.015358e-02 6.638382e-02 2.298475e-02 2.413188e-02 -1.107854e-02 -3.401659e-02 1.583678e-04 -9.783696e-03 -2.136309e-02 1.551675e-03 -5.627133e-03 -1.547498e-02 2.045880e-02
<VARIANCE> 25
 4.803527e+01 5.134138e+01 1.048917e+02 8.752769e+01 7.417048e+01 9.790822e+01 6.581352e+01 5.741110e+01 4.161873e+01 3.817028e+01 4.535803e+01 3.419817e+01 1.987551e+00 2.560586e+00 3.462211e+00 3.613789e+00 3.504917e+00 4.697473e+00 3.161591e+00 3.037893e+00 2.555220e+00 2.460158e+00 2.358821e+00 1.905628e+00 2.295166e+00
<GCONST> 1.081165e+02
<STATE> 4
<MEAN> 25
 7.278923e-09 7.736676e-09 -1.495757e-08 2.233321e-08 -7.517470e-09 -5.266098e-08 1.936748e-08 -7.220898e-10 -9.554795e-09 1.052188e-08 -1.655649e-08 4.951473e-09 6.015358e-02 6.638382e-02 2.298475e-02 2.413188e-02 -1.107854e-02 -3.401659e-02 1.583678e-04 -9.783696e-03 -2.136309e-02 1.551675e-03 -5.627133e-03 -1.547498e-02 2.045880e-02
<VARIANCE> 25
 4.803527e+01 5.134138e+01 1.048917e+02 8.752769e+01 7.417048e+01 9.790822e+01 6.581352e+01 5.741110e+01 4.161873e+01 3.817028e+01 4.535803e+01 3.419817e+01 1.987551e+00 2.560586e+00 3.462211e+00 3.613789e+00 3.504917e+00 4.697473e+00 3.161591e+00 3.037893e+00 2.555220e+00 2.460158e+00 2.358821e+00 1.905628e+00 2.295166e+00
<GCONST> 1.081165e+02
<TRANSP> 5
 0.000000e+00 1.000000e+00 0.000000e+00 0.000000e+00 0.000000e+00
 0.000000e+00 6.000000e-01 4.000000e-01 0.000000e+00 0.000000e+00
 0.000000e+00 0.000000e+00 6.000000e-01 4.000000e-01 0.000000e+00
 0.000000e+00 0.000000e+00 0.000000e+00 7.000000e-01 3.000000e-01
 0.000000e+00 0.000000e+00 0.000000e+00 0.000000e+00 0.000000e+00
<ENDHMM>
~h "iy"
<BEGINHMM>
<NUMSTATES> 5
<STATE> 2
<MEAN> 25
 7.278923e-09 7.736676e-09 -1.495757e-08 2.233321e-08 -7.517470e-09 -5.266098e-08 1.936748e-08 -7.220898e-10 -9.554795e-09 1.052188e-08 -1.655649e-08 4.951473e-09 6.015358e-02 6.638382e-02 2.298475e-02 2.413188e-02 -1.107854e-02 -3.401659e-02 1.583678e-04 -9.783696e-03 -2.136309e-02 1.551675e-03 -5.627133e-03 -1.547498e-02 2.045880e-02
<VARIANCE> 25
 4.803527e+01 5.134138e+01 1.048917e+02 8.752769e+01 7.417048e+01 9.790822e+01 6.581352e+01 5.741110e+01 4.161873e+01 3.817028e+01 4.535803e+01 3.419817e+01 1.987551e+00 2.560586e+00 3.462211e+00 3.613789e+00 3.504917e+00 4.697473e+00 3.161591e+00 3.037893e+00 2.555220e+00 2.460158e+00 2.358821e+00 1.905628e+00 2.295166e+00
<GCONST> 1.081165e+02
<STATE> 3
<MEAN> 25
 7.278923e-09 7.736676e-09 -1.495757e-08 2.233321e-08 -7.517470e-09 -5.266098e-08 1.936748e-08 -7.220898e-10 -9.554795e-09 1.052188e-08 -1.655649e-08 4.951473e-09 6.015358e-02 6.638382e-02 2.298475e-02 2.413188e-02 -1.107854e-02 -3.401659e-02 1.583678e-04 -9.783696e-03 -2.136309e-02 1.551675e-03 -5.627133e-03 -1.547498e-02 2.045880e-02
<VARIANCE> 25
 4.803527e+01 5.134138e+01 1.048917e+02 8.752769e+01 7.417048e+01 9.790822e+01 6.581352e+01 5.741110e+01 4.161873e+01 3.817028e+01 4.535803e+01 3.419817e+01 1.987551e+00 2.560586e+00 3.462211e+00 3.613789e+00 3.504917e+00 4.697473e+00 3.161591e+00 3.037893e+00 2.555220e+00 2.460158e+00 2.358821e+00 1.905628e+00 2.295166e+00
<GCONST> 1.081165e+02
<STATE> 4
<MEAN> 25
 7.278923e-09 7.736676e-09 -1.495757e-08 2.233321e-08 -7.517470e-09 -5.266098e-08 1.936748e-08 -7.220898e-10 -9.554795e-09 1.052188e-08 -1.655649e-08 4.951473e-09 6.015358e-02 6.638382e-02 2.298475e-02 2.413188e-02 -1.107854e-02 -3.401659e-02 1.583678e-04 -9.783696e-03 -2.136309e-02 1.551675e-03 -5.627133e-03 -1.547498e-02 2.045880e-02
<VARIANCE> 25
 4.803527e+01 5.134138e+01 1.048917e+02 8.752769e+01 7.417048e+01 9.790822e+01 6.581352e+01 5.741110e+01 4.161873e+01 3.817028e+01 4.535803e+01 3.419817e+01 1.987551e+00 2.560586e+00 3.462211e+00 3.613789e+00 3.504917e+00 4.697473e+00 3.161591e+00 3.037893e+00 2.555220e+00 2.460158e+00 2.358821e+00 1.905628e+00 2.295166e+00
<GCONST> 1.081165e+02
<TRANSP> 5
 0.000000e+00 1.000000e+00 0.000000e+00 0.000000e+00 0.000000e+00
 0.000000e+00 6.000000e-01 4.000000e-01 0.000000e+00 0.000000e+00
 0.000000e+00 0.000000e+00 6.000000e-01 4.000000e-01 0.000000e+00
 0.000000e+00 0.000000e+00 0.000000e+00 7.000000e-01 3.000000e-01
 0.000000e+00 0.000000e+00 0.000000e+00 0.000000e+00 0.000000e+00
<ENDHMM>
~h "jh"
<BEGINHMM>
<NUMSTATES> 5
<STATE> 2
<MEAN> 25
 7.278923e-09 7.736676e-09 -1.495757e-08 2.233321e-08 -7.517470e-09 -5.266098e-08 1.936748e-08 -7.220898e-10 -9.554795e-09 1.052188e-08 -1.655649e-08 4.951473e-09 6.015358e-02 6.638382e-02 2.298475e-02 2.413188e-02 -1.107854e-02 -3.401659e-02 1.583678e-04 -9.783696e-03 -2.136309e-02 1.551675e-03 -5.627133e-03 -1.547498e-02 2.045880e-02
<VARIANCE> 25
 4.803527e+01 5.134138e+01 1.048917e+02 8.752769e+01 7.417048e+01 9.790822e+01 6.581352e+01 5.741110e+01 4.161873e+01 3.817028e+01 4.535803e+01 3.419817e+01 1.987551e+00 2.560586e+00 3.462211e+00 3.613789e+00 3.504917e+00 4.697473e+00 3.161591e+00 3.037893e+00 2.555220e+00 2.460158e+00 2.358821e+00 1.905628e+00 2.295166e+00
<GCONST> 1.081165e+02
<STATE> 3
<MEAN> 25
 7.278923e-09 7.736676e-09 -1.495757e-08 2.233321e-08 -7.517470e-09 -5.266098e-08 1.936748e-08 -7.220898e-10 -9.554795e-09 1.052188e-08 -1.655649e-08 4.951473e-09 6.015358e-02 6.638382e-02 2.298475e-02 2.413188e-02 -1.107854e-02 -3.401659e-02 1.583678e-04 -9.783696e-03 -2.136309e-02 1.551675e-03 -5.627133e-03 -1.547498e-02 2.045880e-02
<VARIANCE> 25
 4.803527e+01 5.134138e+01 1.048917e+02 8.752769e+01 7.417048e+01 9.790822e+01 6.581352e+01 5.741110e+01 4.161873e+01 3.817028e+01 4.535803e+01 3.419817e+01 1.987551e+00 2.560586e+00 3.462211e+00 3.613789e+00 3.504917e+00 4.697473e+00 3.161591e+00 3.037893e+00 2.555220e+00 2.460158e+00 2.358821e+00 1.905628e+00 2.295166e+00
<GCONST> 1.081165e+02
<STATE> 4
<MEAN> 25
 7.278923e-09 7.736676e-09 -1.495757e-08 2.233321e-08 -7.517470e-09 -5.266098e-08 1.936748e-08 -7.220898e-10 -9.554795e-09 1.052188e-08 -1.655649e-08 4.951473e-09 6.015358e-02 6.638382e-02 2.298475e-02 2.413188e-02 -1.107854e-02 -3.401659e-02 1.583678e-04 -9.783696e-03 -2.136309e-02 1.551675e-03 -5.627133e-03 -1.547498e-02 2.045880e-02
<VARIANCE> 25
 4.803527e+01 5.134138e+01 1.048917e+02 8.752769e+01 7.417048e+01 9.790822e+01 6.581352e+01 5.741110e+01 4.161873e+01 3.817028e+01 4.535803e+01 3.419817e+01 1.987551e+00 2.560586e+00 3.462211e+00 3.613789e+00 3.504917e+00 4.697473e+00 3.161591e+00 3.037893e+00 2.555220e+00 2.460158e+00 2.358821e+00 1.905628e+00 2.295166e+00
<GCONST> 1.081165e+02
<TRANSP> 5
 0.000000e+00 1.000000e+00 0.000000e+00 0.000000e+00 0.000000e+00
 0.000000e+00 6.000000e-01 4.000000e-01 0.000000e+00 0.000000e+00
 0.000000e+00 0.000000e+00 6.000000e-01 4.000000e-01 0.000000e+00
 0.000000e+00 0.000000e+00 0.000000e+00 7.000000e-01 3.000000e-01
 0.000000e+00 0.000000e+00 0.000000e+00 0.000000e+00 0.000000e+00
<ENDHMM>
~h "g"
<BEGINHMM>
<NUMSTATES> 5
<STATE> 2
<MEAN> 25
 7.278923e-09 7.736676e-09 -1.495757e-08 2.233321e-08 -7.517470e-09 -5.266098e-08 1.936748e-08 -7.220898e-10 -9.554795e-09 1.052188e-08 -1.655649e-08 4.951473e-09 6.015358e-02 6.638382e-02 2.298475e-02 2.413188e-02 -1.107854e-02 -3.401659e-02 1.583678e-04 -9.783696e-03 -2.136309e-02 1.551675e-03 -5.627133e-03 -1.547498e-02 2.045880e-02
<VARIANCE> 25
 4.803527e+01 5.134138e+01 1.048917e+02 8.752769e+01 7.417048e+01 9.790822e+01 6.581352e+01 5.741110e+01 4.161873e+01 3.817028e+01 4.535803e+01 3.419817e+01 1.987551e+00 2.560586e+00 3.462211e+00 3.613789e+00 3.504917e+00 4.697473e+00 3.161591e+00 3.037893e+00 2.555220e+00 2.460158e+00 2.358821e+00 1.905628e+00 2.295166e+00
<GCONST> 1.081165e+02
<STATE> 3
<MEAN> 25
 7.278923e-09 7.736676e-09 -1.495757e-08 2.233321e-08 -7.517470e-09 -5.266098e-08 1.936748e-08 -7.220898e-10 -9.554795e-09 1.052188e-08 -1.655649e-08 4.951473e-09 6.015358e-02 6.638382e-02 2.298475e-02 2.413188e-02 -1.107854e-02 -3.401659e-02 1.583678e-04 -9.783696e-03 -2.136309e-02 1.551675e-03 -5.627133e-03 -1.547498e-02 2.045880e-02
<VARIANCE> 25
 4.803527e+01 5.134138e+01 1.048917e+02 8.752769e+01 7.417048e+01 9.790822e+01 6.581352e+01 5.741110e+01 4.161873e+01 3.817028e+01 4.535803e+01 3.419817e+01 1.987551e+00 2.560586e+00 3.462211e+00 3.613789e+00 3.504917e+00 4.697473e+00 3.161591e+00 3.037893e+00 2.555220e+00 2.460158e+00 2.358821e+00 1.905628e+00 2.295166e+00
<GCONST> 1.081165e+02
<STATE> 4
<MEAN> 25
 7.278923e-09 7.736676e-09 -1.495757e-08 2.233321e-08 -7.517470e-09 -5.266098e-08 1.936748e-08 -7.220898e-10 -9.554795e-09 1.052188e-08 -1.655649e-08 4.951473e-09 6.015358e-02 6.638382e-02 2.298475e-02 2.413188e-02 -1.107854e-02 -3.401659e-02 1.583678e-04 -9.783696e-03 -2.136309e-02 1.551675e-03 -5.627133e-03 -1.547498e-02 2.045880e-02
<VARIANCE> 25
 4.803527e+01 5.134138e+01 1.048917e+02 8.752769e+01 7.417048e+01 9.790822e+01 6.581352e+01 5.741110e+01 4.161873e+01 3.817028e+01 4.535803e+01 3.419817e+01 1.987551e+00 2.560586e+00 3.462211e+00 3.613789e+00 3.504917e+00 4.697473e+00 3.161591e+00 3.037893e+00 2.555220e+00 2.460158e+00 2.358821e+00 1.905628e+00 2.295166e+00
<GCONST> 1.081165e+02
<TRANSP> 5
 0.000000e+00 1.000000e+00 0.000000e+00 0.000000e+00 0.000000e+00
 0.000000e+00 6.000000e-01 4.000000e-01 0.000000e+00 0.000000e+00
 0.000000e+00 0.000000e+00 6.000000e-01 4.000000e-01 0.000000e+00
 0.000000e+00 0.000000e+00 0.000000e+00 7.000000e-01 3.000000e-01
 0.000000e+00 0.000000e+00 0.000000e+00 0.000000e+00 0.000000e+00
<ENDHMM>
~h "ng"
<BEGINHMM>
<NUMSTATES> 5
<STATE> 2
<MEAN> 25
 7.278923e-09 7.736676e-09 -1.495757e-08 2.233321e-08 -7.517470e-09 -5.266098e-08 1.936748e-08 -7.220898e-10 -9.554795e-09 1.052188e-08 -1.655649e-08 4.951473e-09 6.015358e-02 6.638382e-02 2.298475e-02 2.413188e-02 -1.107854e-02 -3.401659e-02 1.583678e-04 -9.783696e-03 -2.136309e-02 1.551675e-03 -5.627133e-03 -1.547498e-02 2.045880e-02
<VARIANCE> 25
 4.803527e+01 5.134138e+01 1.048917e+02 8.752769e+01 7.417048e+01 9.790822e+01 6.581352e+01 5.741110e+01 4.161873e+01 3.817028e+01 4.535803e+01 3.419817e+01 1.987551e+00 2.560586e+00 3.462211e+00 3.613789e+00 3.504917e+00 4.697473e+00 3.161591e+00 3.037893e+00 2.555220e+00 2.460158e+00 2.358821e+00 1.905628e+00 2.295166e+00
<GCONST> 1.081165e+02
<STATE> 3
<MEAN> 25
 7.278923e-09 7.736676e-09 -1.495757e-08 2.233321e-08 -7.517470e-09 -5.266098e-08 1.936748e-08 -7.220898e-10 -9.554795e-09 1.052188e-08 -1.655649e-08 4.951473e-09 6.015358e-02 6.638382e-02 2.298475e-02 2.413188e-02 -1.107854e-02 -3.401659e-02 1.583678e-04 -9.783696e-03 -2.136309e-02 1.551675e-03 -5.627133e-03 -1.547498e-02 2.045880e-02
<VARIANCE> 25
 4.803527e+01 5.134138e+01 1.048917e+02 8.752769e+01 7.417048e+01 9.790822e+01 6.581352e+01 5.741110e+01 4.161873e+01 3.817028e+01 4.535803e+01 3.419817e+01 1.987551e+00 2.560586e+00 3.462211e+00 3.613789e+00 3.504917e+00 4.697473e+00 3.161591e+00 3.037893e+00 2.555220e+00 2.460158e+00 2.358821e+00 1.905628e+00 2.295166e+00
<GCONST> 1.081165e+02
<STATE> 4
<MEAN> 25
 7.278923e-09 7.736676e-09 -1.495757e-08 2.233321e-08 -7.517470e-09 -5.266098e-08 1.936748e-08 -7.220898e-10 -9.554795e-09 1.052188e-08 -1.655649e-08 4.951473e-09 6.015358e-02 6.638382e-02 2.298475e-02 2.413188e-02 -1.107854e-02 -3.401659e-02 1.583678e-04 -9.783696e-03 -2.136309e-02 1.551675e-03 -5.627133e-03 -1.547498e-02 2.045880e-02
<VARIANCE> 25
 4.803527e+01 5.134138e+01 1.048917e+02 8.752769e+01 7.417048e+01 9.790822e+01 6.581352e+01 5.741110e+01 4.161873e+01 3.817028e+01 4.535803e+01 3.419817e+01 1.987551e+00 2.560586e+00 3.462211e+00 3.613789e+00 3.504917e+00 4.697473e+00 3.161591e+00 3.037893e+00 2.555220e+00 2.460158e+00 2.358821e+00 1.905628e+00 2.295166e+00
<GCONST> 1.081165e+02
<TRANSP> 5
 0.000000e+00 1.000000e+00 0.000000e+00 0.000000e+00 0.000000e+00
 0.000000e+00 6.000000e-01 4.000000e-01 0.000000e+00 0.000000e+00
 0.000000e+00 0.000000e+00 6.000000e-01 4.000000e-01 0.000000e+00
 0.000000e+00 0.000000e+00 0.000000e+00 7.000000e-01 3.000000e-01
 0.000000e+00 0.000000e+00 0.000000e+00 0.000000e+00 0.000000e+00
<ENDHMM>
~h "ch"
<BEGINHMM>
<NUMSTATES> 5
<STATE> 2
<MEAN> 25
 7.278923e-09 7.736676e-09 -1.495757e-08 2.233321e-08 -7.517470e-09 -5.266098e-08 1.936748e-08 -7.220898e-10 -9.554795e-09 1.052188e-08 -1.655649e-08 4.951473e-09 6.015358e-02 6.638382e-02 2.298475e-02 2.413188e-02 -1.107854e-02 -3.401659e-02 1.583678e-04 -9.783696e-03 -2.136309e-02 1.551675e-03 -5.627133e-03 -1.547498e-02 2.045880e-02
<VARIANCE> 25
 4.803527e+01 5.134138e+01 1.048917e+02 8.752769e+01 7.417048e+01 9.790822e+01 6.581352e+01 5.741110e+01 4.161873e+01 3.817028e+01 4.535803e+01 3.419817e+01 1.987551e+00 2.560586e+00 3.462211e+00 3.613789e+00 3.504917e+00 4.697473e+00 3.161591e+00 3.037893e+00 2.555220e+00 2.460158e+00 2.358821e+00 1.905628e+00 2.295166e+00
<GCONST> 1.081165e+02
<STATE> 3
<MEAN> 25
 7.278923e-09 7.736676e-09 -1.495757e-08 2.233321e-08 -7.517470e-09 -5.266098e-08 1.936748e-08 -7.220898e-10 -9.554795e-09 1.052188e-08 -1.655649e-08 4.951473e-09 6.015358e-02 6.638382e-02 2.298475e-02 2.413188e-02 -1.107854e-02 -3.401659e-02 1.583678e-04 -9.783696e-03 -2.136309e-02 1.551675e-03 -5.627133e-03 -1.547498e-02 2.045880e-02
<VARIANCE> 25
 4.803527e+01 5.134138e+01 1.048917e+02 8.752769e+01 7.417048e+01 9.790822e+01 6.581352e+01 5.741110e+01 4.161873e+01 3.817028e+01 4.535803e+01 3.419817e+01 1.987551e+00 2.560586e+00 3.462211e+00 3.613789e+00 3.504917e+00 4.697473e+00 3.161591e+00 3.037893e+00 2.555220e+00 2.460158e+00 2.358821e+00 1.905628e+00 2.295166e+00
<GCONST> 1.081165e+02
<STATE> 4
<MEAN> 25
 7.278923e-09 7.736676e-09 -1.495757e-08 2.233321e-08 -7.517470e-09 -5.266098e-08 1.936748e-08 -7.220898e-10 -9.554795e-09 1.052188e-08 -1.655649e-08 4.951473e-09 6.015358e-02 6.638382e-02 2.298475e-02 2.413188e-02 -1.107854e-02 -3.401659e-02 1.583678e-04 -9.783696e-03 -2.136309e-02 1.551675e-03 -5.627133e-03 -1.547498e-02 2.045880e-02
<VARIANCE> 25
 4.803527e+01 5.134138e+01 1.048917e+02 8.752769e+01 7.417048e+01 9.790822e+01 6.581352e+01 5.741110e+01 4.161873e+01 3.817028e+01 4.535803e+01 3.419817e+01 1.987551e+00 2.560586e+00 3.462211e+00 3.613789e+00 3.504917e+00 4.697473e+00 3.161591e+00 3.037893e+00 2.555220e+00 2.460158e+00 2.358821e+00 1.905628e+00 2.295166e+00
<GCONST> 1.081165e+02
<TRANSP> 5
 0.000000e+00 1.000000e+00 0.000000e+00 0.000000e+00 0.000000e+00
 0.000000e+00 6.000000e-01 4.000000e-01 0.000000e+00 0.000000e+00
 0.000000e+00 0.000000e+00 6.000000e-01 4.000000e-01 0.000000e+00
 0.000000e+00 0.000000e+00 0.000000e+00 7.000000e-01 3.000000e-01
 0.000000e+00 0.000000e+00 0.000000e+00 0.000000e+00 0.000000e+00
<ENDHMM>
