~o
<STREAMINFO> 1 25
<VECSIZE> 25<NULLD><MFCC_D_N_Z_0><DIAGC>
~h "b"
<BEGINHMM>
<NUMSTATES> 5
<STATE> 2
<MEAN> 25
 1.514675e+00 3.639592e+00 1.025335e+00 1.911555e+00 2.556171e+00 4.346638e+00 6.812609e-01 -2.112722e+00 -2.463028e+00 -1.301285e+00 -1.088511e+00 -5.183600e-01 1.008172e+00 -2.728177e-01 -1.225186e+00 1.605667e-01 1.836036e+00 -2.272691e+00 -1.626327e+00 -2.147649e+00 -1.470153e+00 -8.567317e-01 6.544006e-01 -9.435728e-01 1.867829e+00
<VARIANCE> 25
 1.939557e+01 4.328093e+01 5.757824e+01 5.098495e+01 1.075937e+02 6.905620e+01 5.978062e+01 9.613642e+01 4.990974e+01 4.459930e+01 4.489846e+01 2.553965e+01 1.140773e+00 3.776633e+00 5.245195e+00 5.554399e+00 1.051347e+01 7.254062e+00 5.143051e+00 5.633832e+00 4.587631e+00 4.786180e+00 3.914165e+00 2.274159e+00 2.306353e+00
<GCONST> 1.116307e+02
<STATE> 3
<MEAN> 25
 3.635471e+00 1.945692e+00 -2.832256e+00 4.175277e+00 8.743853e+00 -3.214927e+00 -5.361275e+00 -6.725183e+00 -4.223536e+00 -1.767816e+00 1.308657e+00 -2.259892e+00 2.881718e-01 -3.562009e-01 -3.938422e-01 5.499730e-01 7.582265e-01 -1.821673e+00 -9.028857e-01 -3.566383e-01 -1.907620e-01 -2.325894e-01 2.469208e-01 -4.708787e-01 8.022388e-01
<VARIANCE> 25
 1.633206e+01 3.122359e+01 7.508253e+01 4.943105e+01 1.483512e+02 6.900765e+01 5.313768e+01 7.224155e+01 4.031086e+01 3.651153e+01 4.822055e+01 2.689628e+01 9.180579e-01 3.541517e+00 2.972996e+00 3.836516e+00 5.037724e+00 6.276320e+00 3.540888e+00 3.704716e+00 3.236552e+00 4.033303e+00 2.793424e+00 2.556424e+00 1.682044e+00
<GCONST> 1.070450e+02
<STATE> 4
<MEAN> 25
 2.942159e+00 1.511533e+00 -1.774027e+00 5.137120e+00 7.783668e+00 -4.279564e+00 -6.331709e+00 -6.242373e+00 -4.344421e+00 -2.889520e+00 -2.969554e-01 -2.891860e+00 2.878576e-02 -1.941710e-01 2.638935e-02 2.288768e-01 -4.521874e-02 -7.636692e-01 -1.001691e-01 1.949126e-01 8.282962e-02 7.125750e-03 1.988190e-01 -3.438497e-02 2.138644e-01
<VARIANCE> 25
 1.818572e+01 3.547217e+01 6.576784e+01 4.368640e+01 9.768506e+01 8.504563e+01 5.283448e+01 5.697664e+01 4.058823e+01 4.441571e+01 6.924969e+01 3.003164e+01 9.967193e-01 2.304932e+00 2.768529e+00 3.308287e+00 3.646635e+00 5.215157e+00 2.730517e+00 2.673516e+00 3.161714e+00 3.267519e+00 2.132332e+00 2.305530e+00 1.477522e+00
<GCONST> 1.048491e+02
<TRANSP> 5
 0.000000e+00 1.000000e+00 0.000000e+00 0.000000e+00 0.000000e+00
 0.000000e+00 6.455771e-01 3.544229e-01 0.000000e+00 0.000000e+00
 0.000000e+00 0.000000e+00 5.283276e-01 4.716724e-01 0.000000e+00
 0.000000e+00 0.000000e+00 0.000000e+00 6.305376e-01 3.694624e-01
 0.000000e+00 0.000000e+00 0.000000e+00 0.000000e+00 0.000000e+00
<ENDHMM>
~h "d"
<BEGINHMM>
<NUMSTATES> 5
<STATE> 2
<MEAN> 25
 -2.469459e-01 1.561965e+00 6.298839e+00 7.645618e+00 6.622616e+00 5.815364e+00 -1.857437e+00 -4.965030e+00 -2.698522e+00 -1.193431e+00 -2.623771e+00 -2.551041e+00 1.062103e+00 -4.467306e-01 -1.666676e+00 1.274320e-01 1.857983e+00 -2.742368e+00 -1.697332e+00 -1.933599e+00 -1.345998e+00 -1.059065e+00 4.819050e-01 -7.414922e-01 1.951589e+00
<VARIANCE> 25
 1.687769e+01 2.500908e+01 5.510027e+01 4.304466e+01 5.825369e+01 8.022648e+01 5.727650e+01 6.784395e+01 3.919997e+01 3.486389e+01 3.159896e+01 2.878064e+01 1.836584e+00 3.155506e+00 5.992346e+00 4.943299e+00 8.151929e+00 9.725405e+00 6.063693e+00 7.799504e+00 4.748713e+00 3.411393e+00 3.689604e+00 3.256362e+00 3.082392e+00
<GCONST> 1.102831e+02
<STATE> 3
<MEAN> 25
 2.254208e+00 7.285128e-01 1.884325e+00 7.037567e+00 8.993597e+00 -2.497159e+00 -5.139279e+00 -7.605819e+00 -5.136657e+00 -3.936335e+00 -8.671947e-01 -3.604679e+00 2.455688e-02 5.426425e-04 -4.154727e-01 -2.153013e-01 -3.119665e-01 -1.448419e+00 -1.078185e-01 5.431921e-01 1.730555e-01 1.569959e-01 4.542769e-01 2.028609e-01 2.247885e-01
<VARIANCE> 25
 7.899791e+00 2.397782e+01 3.318457e+01 4.442147e+01 5.888939e+01 8.499066e+01 4.385147e+01 4.303848e+01 3.168806e+01 2.869000e+01 3.426985e+01 2.549096e+01 7.850910e-01 1.311053e+00 2.316554e+00 2.753236e+00 3.045503e+00 5.946769e+00 3.047384e+00 3.798917e+00 2.137215e+00 2.263739e+00 2.158953e+00 1.732202e+00 1.708487e+00
<GCONST> 9.879127e+01
<STATE> 4
<MEAN> 25
 1.476787e+00 4.838702e-02 1.150052e+00 7.324965e+00 6.299252e+00 -6.963925e+00 -6.767541e+00 -5.194824e+00 -2.681097e+00 -1.244409e+00 1.120217e+00 -2.356350e+00 -1.184497e-01 4.605253e-02 1.495875e-02 -2.362032e-01 -6.498886e-01 1.478773e-01 1.902710e-01 4.068123e-01 2.683767e-01 3.014128e-01 2.720622e-02 1.171047e-01 -3.859952e-01
<VARIANCE> 25
 7.158044e+00 2.368133e+01 3.960118e+01 5.366500e+01 5.186301e+01 6.078254e+01 2.679620e+01 2.463923e+01 2.786464e+01 2.152728e+01 3.040674e+01 2.118979e+01 3.906246e-01 7.241262e-01 1.062951e+00 1.595817e+00 1.804386e+00 2.827597e+00 1.342329e+00 1.747145e+00 1.378870e+00 1.286772e+00 1.361527e+00 9.793540e-01 7.276336e-01
<GCONST> 8.844571e+01
<TRANSP> 5
 0.000000e+00 1.000000e+00 0.000000e+00 0.000000e+00 0.000000e+00
 0.000000e+00 7.353553e-01 2.646447e-01 0.000000e+00 0.000000e+00
 0.000000e+00 0.000000e+00 5.529048e-01 4.470952e-01 0.000000e+00
 0.000000e+00 0.000000e+00 0.000000e+00 8.945041e-01 1.054959e-01
 0.000000e+00 0.000000e+00 0.000000e+00 0.000000e+00 0.000000e+00
<ENDHMM>
~h "g"
<BEGINHMM>
<NUMSTATES> 5
<STATE> 2
<MEAN> 25
 2.862190e+00 8.368288e-01 -2.556547e+00 -5.876444e-01 2.520293e+00 1.557631e+00 2.289734e+00 -4.019682e+00 -5.588626e+00 1.291926e-01 2.857872e+00 -1.728140e+00 8.235630e-01 -2.283709e-01 -1.086876e+00 -4.161198e-01 1.055016e+00 -1.960140e+00 -1.352596e+00 -1.388744e+00 -7.215833e-01 -4.680721e-01 7.004154e-01 -3.361893e-01 1.541196e+00
<VARIANCE> 25
 2.891002e+01 4.638611e+01 7.413813e+01 8.258234e+01 9.518354e+01 9.839468e+01 1.119457e+02 9.382322e+01 6.355683e+01 4.039363e+01 5.350055e+01 4.395882e+01 1.463244e+00 5.004775e+00 5.781516e+00 9.227977e+00 7.332167e+00 6.641137e+00 1.019740e+01 7.995646e+00 7.750353e+00 3.391492e+00 5.633525e+00 3.715422e+00 1.716314e+00
<GCONST> 1.169906e+02
<STATE> 3
<MEAN> 25
 5.454705e+00 3.305488e+00 -5.738224e+00 -3.273396e+00 3.229856e+00 -7.962274e+00 -3.213279e+00 -3.660982e+00 -3.032559e+00 -1.229340e+00 4.445723e+00 -1.911436e+00 1.415105e-01 -1.140398e-01 -5.440352e-01 -1.161963e-02 -9.929536e-02 -8.521273e-01 -3.764941e-01 5.069637e-01 5.897563e-01 -1.525535e-01 1.464709e-01 1.895528e-01 1.518088e-01
<VARIANCE> 25
 2.278779e+01 3.946302e+01 1.042351e+02 7.442139e+01 9.962668e+01 6.465618e+01 6.123804e+01 4.514254e+01 3.635012e+01 2.897607e+01 4.946182e+01 2.163134e+01 4.311075e-01 1.554610e+00 1.928304e+00 3.119922e+00 3.028097e+00 2.951981e+00 2.479237e+00 2.649717e+00 2.759820e+00 1.926414e+00 1.646862e+00 1.850600e+00 6.200093e-01
<GCONST> 1.001093e+02
<STATE> 4
<MEAN> 25
 6.455151e+00 4.058274e+00 -9.479866e+00 -5.057714e+00 1.589880e+00 -1.038704e+01 -3.797285e+00 -8.622628e-01 -1.204780e+00 -1.563906e+00 5.306840e+00 -1.414185e+00 -8.399973e-02 5.647606e-02 3.954927e-02 -3.376120e-02 -3.142569e-01 2.889263e-01 1.502759e-01 2.388441e-01 1.663101e-01 5.075131e-03 -2.905443e-01 2.790585e-02 -3.130340e-01
<VARIANCE> 25
 2.429133e+01 2.673656e+01 1.619754e+02 8.018401e+01 1.206588e+02 5.105052e+01 5.909620e+01 2.651379e+01 2.766350e+01 2.359239e+01 3.828800e+01 1.722985e+01 3.035642e-01 6.454711e-01 1.055778e+00 1.621737e+00 1.918190e+00 1.592862e+00 1.293886e+00 1.212307e+00 1.581581e+00 1.281658e+00 9.116718e-01 7.935221e-01 3.077989e-01
<GCONST> 9.062973e+01
<TRANSP> 5
 0.000000e+00 1.000000e+00 0.000000e+00 0.000000e+00 0.000000e+00
 0.000000e+00 7.461261e-01 2.538739e-01 0.000000e+00 0.000000e+00
 0.000000e+00 0.000000e+00 5.172063e-01 4.827937e-01 0.000000e+00
 0.000000e+00 0.000000e+00 0.000000e+00 8.455909e-01 1.544090e-01
 0.000000e+00 0.000000e+00 0.000000e+00 0.000000e+00 0.000000e+00
<ENDHMM>
~h "h"
<BEGINHMM>
<NUMSTATES> 5
<STATE> 2
<MEAN> 25
 5.360750e+00 3.309833e+00 -8.822562e+00 -1.271610e+01 -4.511466e+00 3.716811e-01 5.698763e+00 1.760456e+00 8.158624e-01 3.113850e-01 4.268484e+00 -2.653646e-02 3.622086e-01 2.652501e-01 -8.053444e-01 -2.235551e-01 4.501508e-01 -1.074967e+00 -1.051472e-01 6.496997e-01 5.287898e-01 1.845807e-01 4.342779e-01 -3.813124e-01 6.208902e-01
<VARIANCE> 25
 9.131645e+00 1.674491e+01 3.675132e+01 9.894379e+01 3.395739e+01 1.118107e+02 4.400488e+01 3.239014e+01 3.739590e+01 2.216742e+01 2.423169e+01 2.883590e+01 7.324737e-01 1.938987e+00 1.694107e+00 1.615284e+00 3.481935e+00 4.056440e+00 2.321726e+00 3.122905e+00 2.551346e+00 2.104733e+00 1.625465e+00 2.248737e+00 1.418708e+00
<GCONST> 9.726221e+01
<STATE> 3
<MEAN> 25
 5.712759e+00 3.325888e+00 -9.721387e+00 -1.008189e+01 -4.009105e+00 -4.754058e+00 3.321273e+00 3.187574e+00 1.681101e+00 -2.143323e-02 5.406780e+00 1.619837e-01 -2.086347e-01 -1.051563e-01 6.453995e-02 2.716362e-01 -4.854552e-02 -3.283995e-01 -2.467002e-01 3.748234e-01 2.953095e-01 9.800777e-02 1.849119e-01 5.313284e-01 -2.291486e-01
<VARIANCE> 25
 7.119672e+00 1.427967e+01 5.170631e+01 7.255853e+01 2.795254e+01 6.333247e+01 2.897260e+01 2.864204e+01 2.568829e+01 1.636078e+01 2.391704e+01 3.279554e+01 2.541906e-01 7.905285e-01 8.128965e-01 1.686045e+00 1.983106e+00 2.502663e+00 1.426851e+00 1.831202e+00 1.637117e+00 1.668034e+00 9.695375e-01 8.537428e-01 5.006626e-01
<GCONST> 8.710118e+01
<STATE> 4
<MEAN> 25
 3.486250e+00 3.049751e+00 -7.395986e+00 -6.782314e+00 -3.695869e+00 -4.256689e+00 2.574250e+00 3.975587e+00 2.113287e+00 8.336855e-01 4.992675e+00 2.804038e+00 -4.842212e-01 -1.119197e-01 3.851480e-01 1.658077e-01 4.950284e-02 3.892225e-01 -1.409800e-01 -7.123075e-03 3.817455e-02 7.519019e-02 -4.126865e-01 5.251200e-01 -5.983653e-01
<VARIANCE> 25
 1.723688e+01 1.645469e+01 5.979221e+01 4.065659e+01 2.243583e+01 4.086407e+01 2.894217e+01 4.678135e+01 2.760693e+01 2.421307e+01 4.000499e+01 2.497049e+01 3.859460e-01 8.285532e-01 8.034607e-01 1.775525e+00 1.436546e+00 2.028328e+00 1.272441e+00 1.725195e+00 1.825205e+00 1.624167e+00 1.276673e+00 1.069764e+00 5.040714e-01
<GCONST> 8.861820e+01
<TRANSP> 5
 0.000000e+00 1.000000e+00 0.000000e+00 0.000000e+00 0.000000e+00
 0.000000e+00 5.665517e-01 4.334482e-01 0.000000e+00 0.000000e+00
 0.000000e+00 0.000000e+00 6.884152e-01 3.115848e-01 0.000000e+00
 0.000000e+00 0.000000e+00 0.000000e+00 8.198731e-01 1.801270e-01
 0.000000e+00 0.000000e+00 0.000000e+00 0.000000e+00 0.000000e+00
<ENDHMM>
~h "k"
<BEGINHMM>
<NUMSTATES> 5
<STATE> 2
<MEAN> 25
 7.454618e+00 2.260726e+00 -1.359230e+01 -1.199632e+01 -2.491385e+00 -5.405075e+00 4.594822e+00 3.967814e+00 1.262769e+00 -1.442361e+00 6.379398e+00 7.867885e-02 1.265966e+00 1.268657e+00 -1.143406e+00 -2.701059e-01 1.109895e+00 -1.384046e+00 -5.062013e-01 4.273919e-01 1.090786e+00 -1.621405e-02 3.321309e-01 -1.089282e+00 1.144897e+00
<VARIANCE> 25
 2.743672e+01 5.407353e+01 1.114535e+02 6.096329e+01 6.802097e+01 1.118713e+02 8.303105e+01 4.711595e+01 4.544397e+01 2.665965e+01 5.854378e+01 3.675246e+01 2.176207e+00 5.943291e+00 3.677158e+00 4.856940e+00 3.871443e+00 5.091053e+00 2.970371e+00 3.618338e+00 2.210238e+00 3.245072e+00 2.613688e+00 3.868493e+00 3.068232e+00
<GCONST> 1.102588e+02
<STATE> 3
<MEAN> 25
 9.330343e+00 5.523542e+00 -1.437330e+01 -1.081087e+01 -2.481538e+00 -8.655949e+00 2.528717e+00 6.314910e+00 5.429036e+00 -1.974424e+00 3.712864e+00 -3.748983e+00 -1.005937e-02 5.801523e-01 5.185608e-01 6.622165e-01 -3.606693e-01 1.131376e-01 -4.235519e-01 2.660994e-01 3.509594e-01 4.025435e-02 -7.464088e-01 -1.694370e-01 -8.510688e-01
<VARIANCE> 25
 2.021795e+01 4.575613e+01 9.230374e+01 5.022823e+01 4.324940e+01 6.973127e+01 4.340574e+01 4.581958e+01 3.071852e+01 2.061119e+01 3.480780e+01 2.952518e+01 5.876074e-01 8.502089e-01 2.280092e+00 2.294293e+00 2.085124e+00 2.965854e+00 1.192227e+00 1.284624e+00 1.634269e+00 1.530456e+00 1.647746e+00 1.154882e+00 1.372265e+00
<GCONST> 9.529680e+01
<STATE> 4
<MEAN> 25
 4.087603e+00 6.158544e+00 -5.831903e+00 -4.995430e+00 -5.845494e+00 -4.814186e+00 1.245592e+00 7.304538e+00 4.899656e+00 4.190560e-01 -1.831971e+00 -1.581354e+00 -9.583946e-01 -1.673289e-01 8.642313e-01 7.030832e-01 -2.467269e-01 1.091937e+00 6.045197e-02 3.125660e-02 -4.056745e-01 5.428934e-01 -6.653649e-01 5.987713e-01 -1.430981e+00
<VARIANCE> 25
 2.790222e+01 3.603755e+01 4.134492e+01 3.163416e+01 4.002712e+01 7.196163e+01 5.425565e+01 4.749930e+01 2.526287e+01 2.710810e+01 2.596091e+01 2.797387e+01 7.089790e-01 1.530011e+00 1.899247e+00 2.261760e+00 1.704389e+00 2.499316e+00 1.407857e+00 1.263941e+00 1.685333e+00 1.780302e+00 1.584796e+00 2.089506e+00 1.258654e+00
<GCONST> 9.506417e+01
<TRANSP> 5
 0.000000e+00 1.000000e+00 0.000000e+00 0.000000e+00 0.000000e+00
 0.000000e+00 7.055837e-01 2.944163e-01 0.000000e+00 0.000000e+00
 0.000000e+00 0.000000e+00 6.803243e-01 3.196757e-01 0.000000e+00
 0.000000e+00 0.000000e+00 0.000000e+00 8.230595e-01 1.769405e-01
 0.000000e+00 0.000000e+00 0.000000e+00 0.000000e+00 0.000000e+00
<ENDHMM>
~h "l"
<BEGINHMM>
<NUMSTATES> 5
<STATE> 2
<MEAN> 25
 6.203530e+00 4.464505e+00 -6.849675e+00 -3.229942e+00 -1.245078e+00 -8.508219e+00 -2.128494e-01 2.844910e+00 8.794611e-01 -5.242501e+00 -3.695250e-02 -2.788228e+00 1.572167e-01 1.747508e-01 -2.577567e-01 -3.000305e-01 -3.399286e-01 -3.112416e-01 1.124577e-01 6.460112e-01 4.907058e-01 4.364075e-02 2.977968e-02 -5.771528e-02 -3.231086e-03
<VARIANCE> 25
 1.358811e+01 2.428106e+01 7.129287e+01 9.777425e+01 9.893739e+01 6.930180e+01 6.445505e+01 6.182397e+01 5.600961e+01 3.789080e+01 5.348217e+01 3.729521e+01 5.740048e-01 1.683961e+00 3.184327e+00 2.756195e+00 4.258022e+00 3.511277e+00 2.480441e+00 2.643856e+00 2.711328e+00 2.663586e+00 3.041579e+00 1.972884e+00 1.299008e+00
<GCONST> 1.037311e+02
<STATE> 3
<MEAN> 25
 5.628626e+00 5.589680e+00 -5.473131e+00 -3.944781e+00 -4.098381e+00 -6.933807e+00 1.299988e+00 4.968801e+00 1.941760e+00 -3.921843e+00 -3.489642e-01 -2.171856e+00 -2.962745e-01 8.153529e-02 3.928723e-01 1.322429e-01 -2.689995e-01 6.764365e-01 1.053042e-01 8.329967e-02 8.814201e-02 5.566533e-01 -4.218869e-02 2.545072e-01 -5.863286e-01
<VARIANCE> 25
 1.642075e+01 2.379504e+01 7.650076e+01 8.674366e+01 7.582275e+01 6.498526e+01 6.144698e+01 5.071804e+01 4.540867e+01 3.212563e+01 4.753014e+01 3.336104e+01 5.397318e-01 1.265154e+00 2.429810e+00 1.997196e+00 2.954037e+00 2.908742e+00 1.864914e+00 2.075659e+00 1.982612e+00 1.915656e+00 2.337810e+00 1.347929e+00 9.972224e-01
<GCONST> 9.909826e+01
<STATE> 4
<MEAN> 25
 2.484886e+00 6.184485e+00 -5.878999e-01 -3.727691e+00 -7.576274e+00 -9.737996e-01 3.542175e+00 6.328985e+00 2.573104e+00 -9.458463e-01 -2.734766e+00 -5.898753e-01 -6.508578e-01 -2.428579e-01 5.838760e-01 1.934517e-01 -1.825910e-01 9.523101e-01 3.355987e-01 -3.487897e-02 -7.633671e-02 6.355426e-01 -1.824053e-01 4.018440e-01 -7.143386e-01
<VARIANCE> 25
 2.157591e+01 2.836501e+01 7.277477e+01 6.827460e+01 8.113544e+01 6.316053e+01 5.479935e+01 4.894330e+01 3.303470e+01 3.036433e+01 5.066714e+01 2.955367e+01 5.445239e-01 9.137153e-01 1.668634e+00 1.547740e+00 2.056858e+00 2.338586e+00 1.776824e+00 1.775221e+00 1.618854e+00 1.680217e+00 1.691368e+00 1.283427e+00 7.259104e-01
<GCONST> 9.595862e+01
<TRANSP> 5
 0.000000e+00 1.000000e+00 0.000000e+00 0.000000e+00 0.000000e+00
 0.000000e+00 6.293926e-01 3.706075e-01 0.000000e+00 0.000000e+00
 0.000000e+00 0.000000e+00 5.728725e-01 4.271276e-01 0.000000e+00
 0.000000e+00 0.000000e+00 0.000000e+00 6.817609e-01 3.182391e-01
 0.000000e+00 0.000000e+00 0.000000e+00 0.000000e+00 0.000000e+00
<ENDHMM>
~h "m"
<BEGINHMM>
<NUMSTATES> 5
<STATE> 2
<MEAN> 25
 3.012877e+00 2.984136e+00 -1.176024e-01 4.540284e+00 5.810077e+00 7.403212e-01 -4.561813e+00 -1.971690e+00 2.416405e+00 -1.022469e+00 -4.431657e+00 -4.023586e+00 7.861266e-02 -6.296865e-01 -4.192528e-01 2.492240e-01 3.045978e-01 -1.543464e+00 -8.558030e-01 1.610193e-01 4.684267e-01 -2.720993e-01 2.104562e-01 3.686279e-01 5.472513e-01
<VARIANCE> 25
 2.198169e+01 5.116974e+01 3.861778e+01 6.032475e+01 6.401328e+01 9.747878e+01 7.227889e+01 4.039623e+01 5.861438e+01 4.112640e+01 5.005725e+01 4.765505e+01 7.798274e-01 1.736332e+00 2.648797e+00 5.203306e+00 4.304452e+00 8.748314e+00 4.526852e+00 4.303377e+00 3.859555e+00 3.870434e+00 3.905956e+00 3.438534e+00 1.588359e+00
<GCONST> 1.082971e+02
<STATE> 3
<MEAN> 25
 2.431711e+00 6.840378e-01 1.930573e-01 4.959935e+00 4.858789e+00 -3.352648e+00 -5.590092e+00 -9.530648e-01 2.990915e+00 -1.317053e+00 -2.429311e+00 -1.578169e+00 -1.212541e-01 -4.258960e-01 -1.608257e-01 -9.458522e-02 -1.630175e-01 -7.333338e-01 1.212420e-02 3.223463e-01 9.393575e-03 -1.774915e-01 3.162947e-01 4.037413e-01 2.425542e-01
<VARIANCE> 25
 2.174700e+01 4.189567e+01 4.239487e+01 1.048146e+02 7.394354e+01 1.223762e+02 8.599467e+01 4.854101e+01 4.626614e+01 4.139638e+01 4.652765e+01 3.649499e+01 7.008439e-01 1.045342e+00 2.450912e+00 3.521238e+00 2.534606e+00 3.955245e+00 2.661571e+00 2.361591e+00 2.380369e+00 2.650957e+00 2.011039e+00 2.044703e+00 1.169268e+00
<GCONST> 1.030027e+02
<STATE> 4
<MEAN> 25
 3.854086e-01 -6.684257e-01 2.225571e+00 3.315022e+00 2.878371e+00 -1.062803e+00 -3.486109e+00 -6.334971e-01 2.070435e+00 3.023936e-01 -1.736123e+00 -4.323665e-01 -2.248238e-01 -3.973025e-01 -1.953789e-01 -3.025283e-01 -2.288037e-01 -6.715514e-02 2.675213e-01 5.145022e-02 -2.184329e-01 1.131917e-01 3.414192e-01 3.143752e-01 -2.619704e-02
<VARIANCE> 25
 2.807377e+01 3.855086e+01 5.269764e+01 1.145934e+02 5.662543e+01 1.058337e+02 7.137961e+01 4.448132e+01 3.945485e+01 4.063389e+01 4.295678e+01 3.342847e+01 7.593509e-01 9.975230e-01 2.075283e+00 2.631034e+00 1.783780e+00 2.249967e+00 1.723160e+00 1.680191e+00 1.805210e+00 2.010284e+00 1.572305e+00 1.600479e+00 9.523427e-01
<GCONST> 9.908585e+01
<TRANSP> 5
 0.000000e+00 1.000000e+00 0.000000e+00 0.000000e+00 0.000000e+00
 0.000000e+00 7.044529e-01 2.955471e-01 0.000000e+00 0.000000e+00
 0.000000e+00 0.000000e+00 5.157596e-01 4.842404e-01 0.000000e+00
 0.000000e+00 0.000000e+00 0.000000e+00 6.420118e-01 3.579882e-01
 0.000000e+00 0.000000e+00 0.000000e+00 0.000000e+00 0.000000e+00
<ENDHMM>
~h "n"
<BEGINHMM>
<NUMSTATES> 5
<STATE> 2
<MEAN> 25
 4.405757e+00 2.099710e+00 -4.780543e+00 -1.437652e+00 3.649644e+00 1.488586e+00 -1.566672e+00 -4.728118e+00 -1.736062e+00 1.554483e-01 4.029440e+00 -3.377505e-01 -7.529353e-02 8.039711e-02 2.573919e-01 1.124066e-01 -5.450355e-02 3.415747e-01 2.620605e-02 -9.320682e-02 -1.784081e-02 3.788578e-02 -3.337285e-01 -6.140861e-02 -2.067426e-01
<VARIANCE> 25
 5.713674e+00 2.205576e+01 3.927841e+01 4.048942e+01 3.227264e+01 7.088570e+01 2.794765e+01 2.321542e+01 2.873790e+01 2.325976e+01 2.975810e+01 1.843877e+01 3.352997e-01 1.528736e+00 2.456917e+00 2.600406e+00 2.086770e+00 6.661273e+00 1.967618e+00 1.911424e+00 2.524710e+00 1.763482e+00 2.341971e+00 1.363068e+00 1.145543e+00
<GCONST> 9.311093e+01
<STATE> 3
<MEAN> 25
 4.019036e+00 1.294796e+00 -3.298956e+00 7.969115e-01 2.439855e+00 -4.717205e-01 -2.217110e+00 -3.528677e+00 -6.384358e-01 -2.947636e-01 1.828491e+00 -4.289497e-01 -3.116978e-01 8.896485e-02 5.956763e-01 3.939020e-01 -2.322332e-01 7.234272e-03 1.614618e-01 4.402817e-01 1.004317e-01 -1.883647e-01 -5.054452e-01 -9.503148e-03 -3.491957e-01
<VARIANCE> 25
 6.290328e+00 1.775810e+01 3.480598e+01 4.011594e+01 2.532127e+01 8.014890e+01 2.821393e+01 2.404928e+01 2.725836e+01 2.035534e+01 2.614104e+01 1.704537e+01 2.831036e-01 7.599699e-01 1.667599e+00 1.803748e+00 1.859685e+00 5.137062e+00 1.416319e+00 1.691600e+00 1.762863e+00 1.478212e+00 1.790022e+00 1.168608e+00 7.304326e-01
<GCONST> 8.853503e+01
<STATE> 4
<MEAN> 25
 6.338781e-01 1.388689e+00 1.122602e+00 2.719059e+00 -3.665235e-01 3.776094e-01 6.599361e-01 9.541553e-01 3.451779e-01 -1.060202e+00 -7.966535e-01 8.634182e-01 -4.494731e-01 1.211800e-01 4.643404e-01 2.289750e-02 -2.214446e-01 4.820188e-01 3.916603e-01 3.857121e-01 7.669120e-02 1.583275e-01 -1.213990e-01 1.872414e-01 -5.034875e-01
<VARIANCE> 25
 1.146966e+01 2.091021e+01 4.183377e+01 3.561517e+01 2.556326e+01 9.585252e+01 2.849312e+01 2.941738e+01 3.486130e+01 2.828538e+01 2.370989e+01 1.977527e+01 2.656463e-01 4.357178e-01 7.146494e-01 9.196410e-01 9.705995e-01 1.853836e+00 1.083810e+00 1.002008e+00 1.167405e+00 1.122335e+00 9.049137e-01 8.252364e-01 2.464243e-01
<GCONST> 8.298393e+01
<TRANSP> 5
 0.000000e+00 1.000000e+00 0.000000e+00 0.000000e+00 0.000000e+00
 0.000000e+00 8.172730e-01 1.827270e-01 0.000000e+00 0.000000e+00
 0.000000e+00 0.000000e+00 6.690507e-01 3.309493e-01 0.000000e+00
 0.000000e+00 0.000000e+00 0.000000e+00 9.031311e-01 9.686886e-02
 0.000000e+00 0.000000e+00 0.000000e+00 0.000000e+00 0.000000e+00
<ENDHMM>
~h "p"
<BEGINHMM>
<NUMSTATES> 5
<STATE> 2
<MEAN> 25
 -5.015316e-01 6.825426e-01 1.113059e+00 -4.921031e+00 -2.983104e+00 2.081063e-01 5.745707e-01 -6.502764e-01 -1.998349e+00 -1.227831e-01 -1.231922e+00 8.041919e-01 2.041474e+00 4.092489e-01 -1.982755e+00 -1.090145e+00 2.091279e+00 -2.515580e+00 -8.547597e-01 -1.354449e+00 -6.762332e-01 -1.066284e+00 1.384111e+00 -1.182603e+00 3.164341e+00
<VARIANCE> 25
 3.038461e+01 2.989311e+01 5.624733e+01 7.190871e+01 5.393078e+01 6.848322e+01 4.112760e+01 4.945581e+01 4.063180e+01 3.547895e+01 4.199980e+01 2.566187e+01 3.045635e+00 5.498605e+00 6.783976e+00 1.079182e+01 6.889494e+00 9.266420e+00 6.435440e+00 7.534825e+00 5.421399e+00 4.370171e+00 6.572601e+00 3.334193e+00 4.784962e+00
<GCONST> 1.141189e+02
<STATE> 3
<MEAN> 25
 4.062616e+00 8.399725e-01 -5.181379e+00 -6.939182e+00 3.626630e+00 -6.240939e+00 -2.074639e+00 -3.437557e+00 -2.369214e+00 -2.251214e+00 3.167239e+00 -1.636158e+00 8.121707e-01 -3.939433e-01 -1.643534e+00 8.762863e-01 1.779869e+00 -1.456323e+00 -7.763501e-01 -3.169628e-01 3.595535e-01 -2.083832e-01 1.056926e+00 -4.317714e-01 1.289309e+00
<VARIANCE> 25
 1.338722e+01 3.191965e+01 6.435122e+01 7.748969e+01 4.514807e+01 7.742593e+01 4.082432e+01 7.078543e+01 5.064852e+01 2.793640e+01 4.395692e+01 3.040715e+01 1.688676e+00 2.922195e+00 5.127605e+00 8.978075e+00 6.038866e+00 5.761157e+00 3.571066e+00 4.436227e+00 3.325219e+00 3.763170e+00 4.218636e+00 3.035703e+00 3.520966e+00
<GCONST> 1.091731e+02
<STATE> 4
<MEAN> 25
 5.067420e+00 4.297440e-01 -7.594868e+00 -3.676981e+00 4.549431e+00 -8.257807e+00 -2.516477e+00 -1.473227e+00 -4.096894e-01 -2.371067e+00 3.755482e+00 -1.785791e+00 1.646982e-01 -2.940993e-01 -3.503448e-01 1.314474e+00 5.305312e-01 -1.257540e-01 -3.963899e-01 3.599799e-02 4.711972e-01 -5.968720e-03 1.463567e-01 8.197647e-02 -1.465642e-01
<VARIANCE> 25
 1.007566e+01 2.561634e+01 5.587502e+01 7.527534e+01 4.470309e+01 6.396152e+01 4.118450e+01 8.184821e+01 4.861471e+01 2.437772e+01 4.219518e+01 2.976455e+01 6.713305e-01 1.264557e+00 2.571178e+00 3.626329e+00 3.432397e+00 3.442904e+00 1.884918e+00 1.966562e+00 1.848937e+00 2.328705e+00 2.009685e+00 1.492812e+00 1.294163e+00
<GCONST> 9.880402e+01
<TRANSP> 5
 0.000000e+00 1.000000e+00 0.000000e+00 0.000000e+00 0.000000e+00
 0.000000e+00 6.777177e-01 3.222823e-01 0.000000e+00 0.000000e+00
 0.000000e+00 0.000000e+00 3.586810e-01 6.413190e-01 0.000000e+00
 0.000000e+00 0.000000e+00 0.000000e+00 5.500548e-01 4.499452e-01
 0.000000e+00 0.000000e+00 0.000000e+00 0.000000e+00 0.000000e+00
<ENDHMM>
~h "r"
<BEGINHMM>
<NUMSTATES> 5
<STATE> 2
<MEAN> 25
 3.001068e+00 1.579716e+00 -3.272966e+00 -5.678999e+00 -1.588239e+00 2.536330e+00 9.914194e-01 -5.450599e-01 6.309089e-02 2.926769e-01 -6.936239e-01 7.234605e-01 -1.639511e-02 -2.133575e-01 -4.428126e-01 -3.337578e-01 4.992388e-01 -1.545435e-01 -3.901249e-02 -2.382279e-01 -2.622823e-01 2.661886e-01 1.553576e-01 -2.425698e-01 2.394898e-01
<VARIANCE> 25
 1.775051e+01 2.447376e+01 6.296209e+01 5.856270e+01 4.364677e+01 3.659740e+01 3.076788e+01 3.630526e+01 3.867875e+01 2.914679e+01 3.897274e+01 2.005180e+01 2.597672e+00 2.884001e+00 7.033558e+00 1.040073e+01 6.743366e+00 3.410953e+00 4.297669e+00 3.199870e+00 2.965858e+00 3.546317e+00 3.367829e+00 2.753863e+00 6.027253e+00
<GCONST> 1.067567e+02
<STATE> 3
<MEAN> 25
 2.221820e+00 3.370770e-02 -4.230016e+00 -6.793738e+00 1.021264e+00 2.273113e+00 2.781200e-01 -1.242386e+00 -3.003302e-01 1.613352e-02 -7.494764e-01 8.571755e-01 -4.499501e-01 -5.723889e-01 -1.154243e-01 -6.643477e-02 8.389430e-01 -3.565030e-01 -2.686508e-01 7.240125e-02 -9.709375e-03 4.731708e-02 6.601289e-02 -5.316012e-03 2.414637e-01
<VARIANCE> 25
 1.889114e+01 2.134708e+01 8.257836e+01 6.070485e+01 7.267512e+01 4.067955e+01 3.215955e+01 4.013403e+01 3.706866e+01 2.861144e+01 5.673058e+01 1.713338e+01 1.404831e+00 1.478780e+00 4.461329e+00 7.296898e+00 5.708171e+00 3.025510e+00 2.797259e+00 3.227636e+00 2.166316e+00 3.200961e+00 3.395636e+00 2.330679e+00 3.612929e+00
<GCONST> 1.040199e+02
<STATE> 4
<MEAN> 25
 1.467797e+00 -1.110701e+00 -4.646144e+00 -6.214075e+00 2.932889e+00 1.011680e+00 -7.141502e-01 -2.356479e-01 3.819740e-01 -3.704154e-01 -5.447035e-01 1.385122e+00 -2.246853e-01 -2.117693e-01 1.715446e-01 5.774771e-01 1.568043e-01 -5.124228e-01 -8.179549e-03 4.040513e-01 9.844059e-02 1.144001e-02 1.084476e-01 -1.427842e-01 -8.581886e-02
<VARIANCE> 25
 2.042585e+01 2.177668e+01 9.786253e+01 7.499879e+01 8.558071e+01 5.452971e+01 3.682669e+01 3.876567e+01 3.628086e+01 2.832486e+01 6.423868e+01 2.096922e+01 1.145144e+00 1.342055e+00 3.544832e+00 5.131088e+00 3.084589e+00 2.492468e+00 1.978735e+00 2.025431e+00 1.901875e+00 2.548759e+00 2.074237e+00 1.616644e+00 2.178645e+00
<GCONST> 1.011238e+02
<TRANSP> 5
 0.000000e+00 1.000000e+00 0.000000e+00 0.000000e+00 0.000000e+00
 0.000000e+00 6.458275e-01 3.541725e-01 0.000000e+00 0.000000e+00
 0.000000e+00 0.000000e+00 5.106225e-01 4.893775e-01 0.000000e+00
 0.000000e+00 0.000000e+00 0.000000e+00 5.812235e-01 4.187765e-01
 0.000000e+00 0.000000e+00 0.000000e+00 0.000000e+00 0.000000e+00
<ENDHMM>
~h "s"
<BEGINHMM>
<NUMSTATES> 5
<STATE> 2
<MEAN> 25
 -1.104109e+01 -1.123601e+01 1.946132e+01 -5.955096e+00 -7.112020e+00 1.209342e+01 4.470567e+00 -2.824103e+00 2.414675e-01 4.639644e+00 -5.075236e-01 3.670300e+00 -2.701719e-01 -2.752744e-01 8.418247e-01 -5.811300e-01 -5.254741e-01 1.238376e-02 2.802526e-02 -2.401293e-01 1.223343e-01 -1.789588e-01 -1.268779e-01 6.630629e-03 4.231331e-01
<VARIANCE> 25
 7.025237e+01 5.278089e+01 1.297732e+02 9.785470e+01 6.165339e+01 9.644623e+01 8.983354e+01 4.602958e+01 4.287668e+01 4.471566e+01 3.574408e+01 3.022353e+01 7.656316e+00 7.317072e+00 1.271437e+01 6.915211e+00 3.778220e+00 6.062002e+00 4.839423e+00 2.913040e+00 2.474485e+00 3.126069e+00 2.644439e+00 1.941472e+00 1.495211e+00
<GCONST> 1.135393e+02
<STATE> 3
<MEAN> 25
 -6.168031e+00 -7.775584e+00 1.302926e+01 -3.864569e+00 -5.661093e+00 6.708472e+00 2.683525e+00 -1.712745e+00 1.140102e+00 5.759267e-01 -1.998910e-01 1.973189e+00 1.102229e+00 1.041160e+00 -1.689417e+00 2.880349e-01 5.770849e-01 -1.085525e+00 -2.506969e-01 1.604996e-01 3.479844e-01 -6.340600e-01 -8.332844e-02 -5.313395e-01 3.569573e-01
<VARIANCE> 25
 9.722265e+01 7.407560e+01 1.614386e+02 1.159395e+02 7.387004e+01 1.431603e+02 1.263139e+02 6.158064e+01 4.021819e+01 4.117793e+01 3.826208e+01 2.929869e+01 4.486412e+00 4.764000e+00 8.581803e+00 6.917150e+00 4.896141e+00 6.406744e+00 5.965787e+00 3.530918e+00 2.662876e+00 3.112274e+00 2.608227e+00 2.155783e+00 2.777917e+00
<GCONST> 1.158283e+02
<STATE> 4
<MEAN> 25
 -6.033479e+00 -9.000202e+00 9.520866e+00 -6.069311e-01 -5.537065e+00 2.831086e+00 4.744926e+00 5.359983e-01 5.790366e-01 4.476282e-01 5.317777e-02 1.376238e+00 5.436182e-01 5.576990e-01 -1.462459e+00 3.873240e-01 4.250662e-01 -4.807378e-01 2.051935e-02 4.250669e-01 4.418723e-02 -1.726023e-01 -8.692064e-02 -3.471658e-01 -2.645068e-01
<VARIANCE> 25
 1.086321e+02 8.514935e+01 1.624310e+02 1.000481e+02 6.285489e+01 1.353046e+02 1.000607e+02 4.912363e+01 3.867337e+01 4.134096e+01 3.450761e+01 2.561814e+01 1.504133e+00 1.820778e+00 3.514109e+00 3.533147e+00 3.339455e+00 3.740449e+00 3.273026e+00 2.586498e+00 1.992183e+00 1.922269e+00 1.515608e+00 1.374186e+00 1.558982e+00
<GCONST> 1.071931e+02
<TRANSP> 5
 0.000000e+00 1.000000e+00 0.000000e+00 0.000000e+00 0.000000e+00
 0.000000e+00 8.774399e-01 1.225601e-01 0.000000e+00 0.000000e+00
 0.000000e+00 0.000000e+00 5.354549e-01 4.645451e-01 0.000000e+00
 0.000000e+00 0.000000e+00 0.000000e+00 6.314217e-01 3.685783e-01
 0.000000e+00 0.000000e+00 0.000000e+00 0.000000e+00 0.000000e+00
<ENDHMM>
~h "t"
<BEGINHMM>
<NUMSTATES> 5
<STATE> 2
<MEAN> 25
 1.765649e+00 -6.103335e-01 -8.174521e-02 1.574166e+00 2.340094e+00 -1.091229e+00 -2.766389e+00 -3.606985e+00 -2.729126e+00 -1.899395e+00 -9.294495e-01 -1.514689e-01 1.083645e+00 5.675172e-01 8.739114e-02 7.697225e-01 1.229852e+00 -9.160466e-01 -7.200703e-01 -1.057196e+00 -5.578341e-01 -7.547675e-01 -3.928275e-02 -9.717185e-01 1.244820e+00
<VARIANCE> 25
 3.550592e+01 5.450328e+01 3.889019e+01 9.683688e+01 6.650497e+01 7.522102e+01 7.501550e+01 7.645728e+01 5.022253e+01 5.722202e+01 5.500341e+01 4.181733e+01 3.528606e+00 6.556191e+00 3.440428e+00 8.038732e+00 7.134589e+00 9.212816e+00 6.096737e+00 6.963918e+00 4.977577e+00 6.349733e+00 4.713460e+00 4.568484e+00 4.943820e+00
<GCONST> 1.171412e+02
<STATE> 3
<MEAN> 25
 3.289279e+00 1.423645e+00 -5.770352e-01 4.211794e+00 5.330343e+00 -3.768704e+00 -6.065438e+00 -6.591511e+00 -3.046711e+00 -1.597178e+00 1.689371e-01 -2.283245e+00 -1.877430e-01 2.605992e-01 3.204740e-01 2.499574e-01 -1.212284e-01 1.019903e-01 -6.040820e-02 2.839471e-01 4.278315e-01 2.910858e-01 -1.814167e-01 -2.208761e-01 -4.238747e-01
<VARIANCE> 25
 1.733917e+01 4.433876e+01 3.162052e+01 6.586456e+01 5.301981e+01 8.830006e+01 6.318416e+01 7.607067e+01 4.649746e+01 6.068356e+01 6.257226e+01 4.716710e+01 1.171192e+00 1.950229e+00 1.484162e+00 2.704713e+00 3.267477e+00 5.048897e+00 2.568462e+00 3.201900e+00 2.567371e+00 2.976108e+00 2.364110e+00 2.391363e+00 2.105149e+00
<GCONST> 1.047336e+02
<STATE> 4
<MEAN> 25
 1.562116e+00 1.261946e+00 2.395979e-01 4.369845e+00 3.641078e+00 -9.459884e-01 -4.148537e+00 -4.390485e+00 -2.480439e+00 -8.256159e-01 -8.205497e-01 -1.576974e+00 -3.819991e-01 7.347592e-02 1.848530e-01 -4.470194e-02 -3.055534e-01 2.435845e-01 4.146602e-01 6.464956e-01 2.135497e-01 4.350939e-02 -1.594148e-01 7.544541e-02 -4.788580e-01
<VARIANCE> 25
 2.018040e+01 4.297720e+01 2.809211e+01 5.665429e+01 4.488076e+01 8.057917e+01 6.197867e+01 5.959649e+01 4.382653e+01 4.981100e+01 3.787361e+01 4.602986e+01 9.012014e-01 1.533621e+00 1.519920e+00 2.556433e+00 2.743389e+00 3.892121e+00 3.596122e+00 2.890466e+00 2.797323e+00 3.471266e+00 2.056457e+00 1.672647e+00 1.740333e+00
<GCONST> 1.020974e+02
<TRANSP> 5
 0.000000e+00 1.000000e+00 0.000000e+00 0.000000e+00 0.000000e+00
 0.000000e+00 6.598563e-01 3.401437e-01 0.000000e+00 0.000000e+00
 0.000000e+00 0.000000e+00 4.976226e-01 5.023773e-01 0.000000e+00
 0.000000e+00 0.000000e+00 0.000000e+00 6.128117e-01 3.871883e-01
 0.000000e+00 0.000000e+00 0.000000e+00 0.000000e+00 0.000000e+00
<ENDHMM>
~h "ah"
<BEGINHMM>
<NUMSTATES> 5
<STATE> 2
<MEAN> 25
 6.232393e+00 -6.529265e-01 -1.154466e+01 -8.013480e+00 9.738358e-01 -6.342554e+00 4.862089e-01 1.928879e+00 2.401873e+00 -2.681624e+00 4.109302e+00 1.641714e-01 8.774117e-02 1.066340e-01 -2.057362e-01 4.572392e-01 -6.339867e-04 2.854997e-01 8.338900e-02 1.937467e-02 -1.109036e-01 1.112789e-01 8.056680e-02 1.080595e-01 -4.086257e-01
<VARIANCE> 25
 1.306979e+01 2.534786e+01 7.722307e+01 5.991372e+01 4.120354e+01 4.696558e+01 3.993187e+01 3.433933e+01 3.505239e+01 2.834183e+01 2.888479e+01 2.471832e+01 6.956540e-01 1.027433e+00 2.868020e+00 3.721116e+00 2.794045e+00 2.766143e+00 1.683986e+00 1.703951e+00 1.917976e+00 1.689674e+00 1.623776e+00 1.209422e+00 1.496181e+00
<GCONST> 9.583746e+01
<STATE> 3
<MEAN> 25
 4.985093e+00 5.410382e-01 -8.662710e+00 -4.955638e+00 -7.438337e-01 -3.189928e+00 9.498923e-01 2.036699e+00 1.748818e+00 -9.073410e-01 2.924797e+00 1.041833e+00 -5.070925e-01 1.621198e-01 7.734897e-01 5.722266e-01 -3.835253e-01 1.027155e+00 1.748784e-01 5.949945e-02 -1.632673e-01 5.075851e-01 -3.938849e-01 3.004008e-01 -1.085157e+00
<VARIANCE> 25
 1.251191e+01 2.151713e+01 5.178593e+01 4.560472e+01 4.006092e+01 4.750504e+01 3.328719e+01 3.024682e+01 2.791258e+01 2.850424e+01 2.813216e+01 2.439691e+01 6.058983e-01 1.080110e+00 1.984242e+00 2.371290e+00 2.139142e+00 2.557450e+00 1.664260e+00 1.672776e+00 1.775052e+00 1.498254e+00 1.421413e+00 1.204908e+00 9.067818e-01
<GCONST> 9.225220e+01
<STATE> 4
<MEAN> 25
 4.267192e-02 9.713567e-01 -2.642127e+00 -1.930727e+00 -2.814720e+00 2.261016e+00 1.850526e+00 2.734557e+00 1.219575e+00 2.124728e+00 1.965501e-01 2.505132e+00 -7.422946e-01 -5.680275e-02 8.126831e-01 3.603561e-01 -1.629905e-01 7.174654e-01 1.882328e-01 3.517248e-02 -1.526008e-01 3.821604e-01 -2.788038e-01 2.398284e-01 -7.879950e-01
<VARIANCE> 25
 2.345448e+01 2.722564e+01 4.186614e+01 4.032559e+01 3.844921e+01 4.324210e+01 3.630698e+01 2.585157e+01 2.337510e+01 2.527069e+01 2.383037e+01 2.508781e+01 5.019996e-01 1.281174e+00 1.357439e+00 1.577655e+00 1.542173e+00 2.010118e+00 1.591236e+00 1.353702e+00 1.658040e+00 1.421304e+00 1.180625e+00 1.302546e+00 6.522231e-01
<GCONST> 8.995192e+01
<TRANSP> 5
 0.000000e+00 1.000000e+00 0.000000e+00 0.000000e+00 0.000000e+00
 0.000000e+00 7.863780e-01 2.136220e-01 0.000000e+00 0.000000e+00
 0.000000e+00 0.000000e+00 7.322350e-01 2.677650e-01 0.000000e+00
 0.000000e+00 0.000000e+00 0.000000e+00 8.240798e-01 1.759202e-01
 0.000000e+00 0.000000e+00 0.000000e+00 0.000000e+00 0.000000e+00
<ENDHMM>
~h "ax"
<BEGINHMM>
<NUMSTATES> 5
<STATE> 2
<MEAN> 25
 1.824542e+00 2.829448e+00 1.544989e+00 1.235687e+00 -3.089974e-01 2.584770e+00 -2.191914e-01 -2.306541e+00 -1.051307e+00 -1.543142e+00 -1.511786e+00 -1.265752e+00 1.811561e-02 4.329371e-01 7.198036e-02 1.109173e-01 3.256016e-01 2.493481e-01 -9.732848e-02 -6.097544e-03 1.577991e-01 1.823281e-01 -1.683711e-01 -4.476693e-02 -2.003447e-01
<VARIANCE> 25
 3.153603e+01 3.611569e+01 5.882637e+01 4.412562e+01 3.259215e+01 6.891238e+01 2.744990e+01 3.081553e+01 2.575884e+01 2.232347e+01 2.695609e+01 3.138447e+01 1.444720e+00 1.813074e+00 3.008841e+00 2.113419e+00 2.173647e+00 3.034191e+00 1.733276e+00 1.898583e+00 1.524567e+00 2.017431e+00 1.916210e+00 2.033036e+00 1.505007e+00
<GCONST> 9.718112e+01
<STATE> 3
<MEAN> 25
 1.834585e+00 3.553475e+00 1.555215e+00 1.882545e+00 8.391106e-01 1.918128e+00 -1.126241e+00 -2.332013e+00 -7.705092e-02 -1.213419e+00 -1.985477e+00 -1.728236e+00 -4.600868e-03 -1.053179e-01 -1.615714e-01 4.411662e-02 1.932305e-01 -2.937776e-01 -1.172805e-01 6.999545e-02 1.871202e-01 3.527855e-01 1.993805e-02 -1.446927e-01 4.457317e-02
<VARIANCE> 25
 3.596998e+01 3.496312e+01 5.907054e+01 4.715989e+01 3.630344e+01 6.500336e+01 3.148704e+01 3.625255e+01 2.626815e+01 2.072526e+01 2.547673e+01 3.530299e+01 9.267312e-01 1.851596e+00 3.072875e+00 2.891289e+00 2.653186e+00 3.344571e+00 1.748034e+00 1.548207e+00 1.612718e+00 1.651357e+00 1.719736e+00 1.456469e+00 1.243867e+00
<GCONST> 9.694294e+01
<STATE> 4
<MEAN> 25
 1.718838e+00 8.803529e-02 8.199109e-01 -1.221024e+00 2.030057e+00 -1.054875e+00 -3.032211e+00 -3.260977e+00 3.765849e-01 -7.975277e-01 -1.390390e+00 -8.651708e-01 3.406620e-01 -3.160539e-01 -8.528576e-01 -7.076509e-01 -2.199593e-02 -8.223665e-01 -1.030458e-01 2.656035e-01 3.472897e-01 1.869967e-01 3.749761e-01 -2.033301e-02 5.885313e-01
<VARIANCE> 25
 4.438375e+01 4.796620e+01 6.869624e+01 7.369504e+01 6.094212e+01 6.331171e+01 4.776567e+01 5.113454e+01 2.790795e+01 2.635892e+01 2.912537e+01 3.849472e+01 2.252320e+00 2.595004e+00 6.436554e+00 7.549026e+00 3.809928e+00 6.127556e+00 3.641264e+00 2.086302e+00 2.522474e+00 2.226939e+00 2.863896e+00 2.767255e+00 3.142924e+00
<GCONST> 1.075897e+02
<TRANSP> 5
 0.000000e+00 1.000000e+00 0.000000e+00 0.000000e+00 0.000000e+00
 0.000000e+00 6.156377e-01 3.843623e-01 0.000000e+00 0.000000e+00
 0.000000e+00 0.000000e+00 5.182701e-01 4.817299e-01 0.000000e+00
 0.000000e+00 0.000000e+00 0.000000e+00 5.794476e-01 4.205523e-01
 0.000000e+00 0.000000e+00 0.000000e+00 0.000000e+00 0.000000e+00
<ENDHMM>
~h "ch"
<BEGINHMM>
<NUMSTATES> 5
<STATE> 2
<MEAN> 25
 -6.781187e+00 -2.936128e+00 7.450825e+00 -2.992534e+00 -7.554541e+00 7.866366e+00 6.454990e+00 5.217951e+00 1.062679e-02 1.947556e+00 -3.074265e+00 1.600667e+00 -1.890315e+00 -3.955408e+00 3.510810e+00 -8.485669e-01 -1.247195e+00 1.438500e-01 4.159792e-01 -1.615023e-01 -4.204180e-01 -1.902511e-01 3.767171e-01 -2.383076e-01 1.611168e+00
<VARIANCE> 25
 1.423846e+01 5.411981e+01 6.020042e+01 3.800859e+01 4.554778e+01 6.537611e+01 7.877834e+01 2.986099e+01 2.390336e+01 2.269029e+01 2.128770e+01 1.768543e+01 1.428474e+00 3.808552e+00 5.961633e+00 6.347933e+00 4.070389e+00 4.171808e+00 6.765654e+00 3.512746e+00 4.847560e+00 2.591740e+00 3.805576e+00 1.827546e+00 1.315368e+00
<GCONST> 1.043906e+02
<STATE> 3
<MEAN> 25
 -1.103489e+01 -1.356067e+01 1.698195e+01 -3.232029e+00 -1.086886e+01 5.829907e+00 6.821342e+00 4.008324e+00 -7.496436e-01 1.339936e+00 -1.176111e+00 1.576509e+00 -6.366914e-01 -3.136288e+00 2.394658e+00 1.549332e+00 6.133003e-01 -9.801711e-01 -5.251223e-01 -1.519740e+00 -1.683816e-01 -1.599219e-01 6.654711e-01 -3.346356e-01 2.175459e+00
<VARIANCE> 25
 2.369286e+01 5.443837e+01 7.714241e+01 1.085923e+02 5.110063e+01 1.763876e+02 1.150616e+02 3.317849e+01 3.763240e+01 3.351936e+01 3.912085e+01 1.967183e+01 4.471196e+00 1.383301e+01 8.430967e+00 1.020279e+01 8.631992e+00 8.353711e+00 7.765110e+00 6.577189e+00 2.345784e+00 2.648249e+00 3.526499e+00 2.166497e+00 1.485777e+00
<GCONST> 1.143287e+02
<STATE> 4
<MEAN> 25
 -4.962345e+00 -1.165453e+01 1.238558e+01 5.547689e+00 2.544101e+00 2.415720e+00 -1.364279e+00 -7.354436e+00 -2.160343e+00 -5.680262e-01 -5.979329e-01 -2.340956e+00 2.303945e+00 1.946397e+00 -2.714463e+00 2.166223e+00 4.084779e+00 -1.827168e+00 -2.716013e+00 -2.817538e+00 -5.341991e-01 -9.629408e-01 -2.418765e-01 -1.520712e+00 1.356624e+00
<VARIANCE> 25
 5.570979e+01 5.653735e+01 1.065292e+02 1.091590e+02 1.175249e+02 1.269807e+02 1.039903e+02 1.024397e+02 3.263973e+01 4.766805e+01 3.738141e+01 2.720636e+01 3.747549e+00 6.189828e+00 7.142759e+00 1.649755e+01 1.117654e+01 1.783011e+01 7.770456e+00 9.589339e+00 1.888328e+00 4.215311e+00 3.938977e+00 2.963510e+00 2.713530e+00
<GCONST> 1.195708e+02
<TRANSP> 5
 0.000000e+00 1.000000e+00 0.000000e+00 0.000000e+00 0.000000e+00
 0.000000e+00 5.738888e-01 4.261113e-01 0.000000e+00 0.000000e+00
 0.000000e+00 0.000000e+00 5.227827e-01 4.772173e-01 0.000000e+00
 0.000000e+00 0.000000e+00 0.000000e+00 7.884687e-01 2.115313e-01
 0.000000e+00 0.000000e+00 0.000000e+00 0.000000e+00 0.000000e+00
<ENDHMM>
~h "eh"
<BEGINHMM>
<NUMSTATES> 5
<STATE> 2
<MEAN> 25
 3.891122e+00 -1.046595e+00 -6.817440e+00 1.187817e+00 5.686906e+00 -6.073210e+00 -4.170294e+00 -4.778723e+00 -2.150866e+00 3.329105e-01 6.625412e+00 5.828450e-01 6.031548e-02 1.191314e-01 6.217059e-02 7.762875e-02 -1.576183e-01 2.744056e-01 3.927108e-01 4.944746e-01 3.128996e-01 -2.607505e-01 -3.547994e-01 -1.431879e-01 -8.873615e-02
<VARIANCE> 25
 1.022780e+01 2.147905e+01 4.808466e+01 5.799852e+01 4.951625e+01 6.367019e+01 4.767660e+01 4.503484e+01 3.487321e+01 3.024481e+01 4.380038e+01 2.124555e+01 6.064662e-01 1.025742e+00 2.323521e+00 2.411005e+00 3.134516e+00 4.065786e+00 1.967719e+00 2.023158e+00 2.148921e+00 2.200720e+00 2.266917e+00 1.218974e+00 1.762333e+00
<GCONST> 9.710909e+01
<STATE> 3
<MEAN> 25
 3.561107e+00 2.212333e-01 -4.501973e+00 1.484187e+00 3.694719e+00 -2.769215e+00 -2.232432e+00 -2.829730e+00 -9.157681e-01 -7.023058e-01 3.305179e+00 -2.482874e-01 -3.045234e-01 2.910560e-01 7.906933e-01 -5.804559e-02 -7.968568e-01 1.060601e+00 6.296477e-01 7.304751e-01 3.941414e-01 4.926376e-02 -8.237624e-01 -8.565670e-02 -7.686973e-01
<VARIANCE> 25
 1.199765e+01 2.103940e+01 5.840668e+01 6.433821e+01 4.703147e+01 6.066553e+01 4.928282e+01 4.618766e+01 3.456133e+01 2.713105e+01 3.902298e+01 2.163836e+01 5.970609e-01 1.062270e+00 1.997076e+00 2.070258e+00 2.401865e+00 3.262567e+00 1.765000e+00 1.904409e+00 2.020387e+00 1.936798e+00 1.699615e+00 1.226587e+00 1.077518e+00
<GCONST> 9.538687e+01
<STATE> 4
<MEAN> 25
 1.297668e+00 1.240726e+00 -4.097826e-01 1.224421e+00 2.215869e-01 1.820552e+00 -1.155370e-01 -2.743303e-01 2.981462e-01 3.590803e-01 -6.462789e-02 -1.757502e-01 -5.738453e-01 8.916410e-02 8.098658e-01 -1.948192e-01 -7.953681e-01 8.141937e-01 5.793127e-01 6.694947e-01 3.321855e-01 2.954203e-01 -6.327856e-01 2.200462e-02 -7.290528e-01
<VARIANCE> 25
 1.914621e+01 2.054280e+01 6.454520e+01 6.243671e+01 4.481122e+01 6.263380e+01 4.590651e+01 4.498632e+01 3.403694e+01 2.814902e+01 3.620871e+01 2.312789e+01 7.639531e-01 1.299424e+00 2.062794e+00 1.809728e+00 2.019763e+00 3.022975e+00 1.770738e+00 1.729357e+00 1.855912e+00 1.869858e+00 1.566598e+00 1.323282e+00 9.062782e-01
<GCONST> 9.550420e+01
<TRANSP> 5
 0.000000e+00 1.000000e+00 0.000000e+00 0.000000e+00 0.000000e+00
 0.000000e+00 6.573356e-01 3.426645e-01 0.000000e+00 0.000000e+00
 0.000000e+00 0.000000e+00 6.055343e-01 3.944657e-01 0.000000e+00
 0.000000e+00 0.000000e+00 0.000000e+00 6.810830e-01 3.189170e-01
 0.000000e+00 0.000000e+00 0.000000e+00 0.000000e+00 0.000000e+00
<ENDHMM>
~h "iy"
<BEGINHMM>
<NUMSTATES> 5
<STATE> 2
<MEAN> 25
 7.461992e-01 -2.347597e+00 3.246679e+00 1.321453e+01 1.200150e+01 -7.135689e+00 -8.466631e+00 -4.663947e+00 7.974675e-01 -1.412454e+00 -2.757053e+00 -4.829021e+00 4.512513e-02 4.926672e-02 -8.903553e-02 3.342747e-01 1.913304e-01 -4.677464e-01 -2.286320e-01 9.530585e-02 2.317732e-01 2.598515e-01 1.576830e-01 -9.341060e-02 7.724442e-03
<VARIANCE> 25
 1.470987e+01 2.382185e+01 5.413554e+01 6.752849e+01 5.160273e+01 1.121294e+02 6.168764e+01 6.240612e+01 4.742606e+01 3.087878e+01 3.809169e+01 2.475322e+01 5.246627e-01 1.106780e+00 1.808070e+00 3.941184e+00 3.244810e+00 5.885071e+00 2.846982e+00 3.249564e+00 2.794430e+00 1.942432e+00 2.077916e+00 1.421523e+00 9.917344e-01
<GCONST> 1.004281e+02
<STATE> 3
<MEAN> 25
 7.306280e-01 -8.273585e-01 3.741417e+00 1.241736e+01 9.585524e+00 -4.975575e+00 -7.130243e+00 -3.915776e+00 8.053318e-01 -8.169711e-01 -2.659271e+00 -4.535828e+00 -5.462885e-02 3.889078e-01 -7.979565e-02 -6.005329e-01 -7.096739e-01 9.875197e-01 6.255264e-01 2.616664e-01 -6.482749e-02 3.113272e-01 1.654407e-01 2.457871e-01 -5.919824e-01
<VARIANCE> 25
 1.390905e+01 2.114439e+01 6.099620e+01 5.865546e+01 3.825140e+01 9.004803e+01 4.834947e+01 5.515655e+01 4.586720e+01 2.937407e+01 5.376564e+01 2.184467e+01 4.388466e-01 1.000598e+00 1.232434e+00 2.100975e+00 1.975807e+00 3.170607e+00 1.975359e+00 2.437794e+00 2.412864e+00 1.607248e+00 1.835229e+00 1.223552e+00 5.495678e-01
<GCONST> 9.522171e+01
<STATE> 4
<MEAN> 25
 -1.037660e+00 6.655284e-01 4.164185e+00 8.500446e+00 4.503802e+00 1.469373e+00 -1.815126e+00 -8.680466e-01 3.396926e-01 4.743509e-01 -2.679875e+00 -2.433599e+00 -3.067045e-01 2.052526e-01 -1.309427e-01 -9.474746e-01 -8.464401e-01 9.688603e-01 7.977749e-01 5.084052e-01 -5.312268e-02 2.790420e-01 4.350975e-02 4.178101e-01 -6.551446e-01
<VARIANCE> 25
 2.105625e+01 2.135965e+01 6.581924e+01 5.727983e+01 3.622203e+01 6.564174e+01 4.851534e+01 5.354938e+01 4.127488e+01 3.193922e+01 5.770812e+01 2.126739e+01 4.436126e-01 1.181644e+00 1.063274e+00 1.638468e+00 1.632439e+00 2.670815e+00 1.875956e+00 1.972562e+00 2.064931e+00 1.660474e+00 1.488932e+00 1.309694e+00 4.706057e-01
<GCONST> 9.405996e+01
<TRANSP> 5
 0.000000e+00 1.000000e+00 0.000000e+00 0.000000e+00 0.000000e+00
 0.000000e+00 7.545288e-01 2.454712e-01 0.000000e+00 0.000000e+00
 0.000000e+00 0.000000e+00 6.966080e-01 3.033920e-01 0.000000e+00
 0.000000e+00 0.000000e+00 0.000000e+00 7.702454e-01 2.297546e-01
 0.000000e+00 0.000000e+00 0.000000e+00 0.000000e+00 0.000000e+00
<ENDHMM>
~h "jh"
<BEGINHMM>
<NUMSTATES> 5
<STATE> 2
<MEAN> 25
 -5.538457e+00 -1.102648e+01 9.696548e+00 8.734934e+00 5.599893e+00 4.418300e+00 -2.306306e-01 5.912818e-01 -1.432524e+00 -1.465994e+00 3.082077e+00 4.116888e+00 1.413945e+00 1.707463e-01 -4.333498e-01 6.602074e-01 1.492122e+00 -4.284437e-01 -1.022537e+00 -2.186653e+00 -1.181237e+00 -1.297801e+00 2.492037e-01 -7.840750e-01 1.706439e+00
<VARIANCE> 25
 3.905003e+01 1.054982e+02 5.489179e+01 5.006122e+01 8.385274e+01 5.848021e+01 8.862077e+01 1.269070e+02 8.662479e+01 5.956671e+01 3.084800e+01 5.372259e+01 5.298469e+00 1.895772e+01 7.337438e+00 6.851915e+00 6.835389e+00 4.909036e+00 8.684017e+00 1.082501e+01 7.458182e+00 4.182046e+00 4.358971e+00 6.090190e+00 1.074822e+00
<GCONST> 1.193511e+02
<STATE> 3
<MEAN> 25
 2.013486e+00 -1.774866e+00 4.569081e+00 8.362453e+00 9.044884e+00 2.752320e+00 -3.086648e+00 -8.423781e+00 -6.917534e+00 -6.406516e+00 8.663936e-01 -2.193961e+00 1.360647e+00 2.289344e+00 -1.297201e+00 -1.873282e+00 -9.650767e-01 -1.151518e+00 2.370723e-01 2.600715e-02 1.086462e-01 -4.068637e-01 -7.530749e-01 -1.384975e+00 3.921525e-01
<VARIANCE> 25
 1.318518e+01 5.710885e+01 4.164664e+01 5.151534e+01 4.612220e+01 5.035152e+01 7.187768e+01 6.325229e+01 6.440484e+01 4.940343e+01 4.882133e+01 3.113553e+01 1.008743e+00 2.483430e+00 2.485050e+00 5.316998e+00 5.369155e+00 4.472511e+00 4.706240e+00 7.483836e+00 6.959232e+00 3.942751e+00 4.072786e+00 3.863741e+00 1.137000e+00
<GCONST> 1.082423e+02
<STATE> 4
<MEAN> 25
 2.580019e+00 3.536587e+00 4.691956e+00 5.558536e+00 5.231648e+00 5.855265e-01 -3.947410e+00 -4.821578e+00 -3.025647e-01 -1.368276e+00 -1.674670e+00 -5.877816e+00 3.154423e-01 8.248529e-01 -4.888725e-01 -8.810490e-01 -9.696273e-01 -7.608336e-01 -9.291640e-02 7.667717e-01 1.309331e+00 1.012868e+00 -4.881557e-01 -7.357413e-01 -2.416405e-01
<VARIANCE> 25
 8.759440e+00 2.816726e+01 4.477784e+01 3.923751e+01 5.435767e+01 3.574299e+01 3.460280e+01 4.460381e+01 7.149885e+01 6.245547e+01 3.931018e+01 3.295950e+01 5.062424e-01 1.750861e+00 1.693280e+00 3.232742e+00 4.553585e+00 3.615357e+00 2.729875e+00 3.509038e+00 4.536873e+00 3.923117e+00 2.300192e+00 2.611337e+00 4.993460e-01
<GCONST> 1.000287e+02
<TRANSP> 5
 0.000000e+00 1.000000e+00 0.000000e+00 0.000000e+00 0.000000e+00
 0.000000e+00 7.962782e-01 2.037217e-01 0.000000e+00 0.000000e+00
 0.000000e+00 0.000000e+00 4.488281e-01 5.511719e-01 0.000000e+00
 0.000000e+00 0.000000e+00 0.000000e+00 6.866100e-01 3.133901e-01
 0.000000e+00 0.000000e+00 0.000000e+00 0.000000e+00 0.000000e+00
<ENDHMM>
~h "ng"
<BEGINHMM>
<NUMSTATES> 5
<STATE> 2
<MEAN> 25
 2.559694e+00 2.855953e+00 -6.295675e-01 5.677685e-01 1.119534e+00 5.249056e+00 1.629701e+00 7.607721e-01 2.754391e+00 8.267673e-01 -9.787441e-01 -7.114000e-01 -2.331215e-01 3.504901e-01 3.226597e-01 -7.139845e-01 -1.034784e+00 3.462882e-01 7.257004e-01 6.197541e-01 -9.995338e-02 5.894261e-02 2.501669e-02 6.072193e-03 -4.077113e-01
<VARIANCE> 25
 1.309998e+01 2.156144e+01 1.562319e+01 2.210509e+01 3.756305e+01 3.343985e+01 2.145343e+01 3.611572e+01 3.063316e+01 2.365582e+01 2.098186e+01 1.238986e+01 4.678546e-01 1.020798e+00 1.384986e+00 3.079010e+00 3.700975e+00 2.728492e+00 2.843758e+00 3.212185e+00 1.907678e+00 2.062852e+00 1.812940e+00 1.191278e+00 4.333181e-01
<GCONST> 8.990901e+01
<STATE> 3
<MEAN> 25
 1.433323e+00 4.166968e+00 1.408212e+00 -1.779150e+00 -4.386594e+00 4.443459e+00 4.548674e+00 2.323434e+00 5.840665e-01 5.249523e-01 -5.651141e-01 -1.581630e+00 -2.220788e-01 2.023385e-01 2.597263e-01 -5.761241e-01 -1.120103e+00 -7.520024e-01 6.431444e-01 5.465106e-01 -3.762105e-01 -1.855924e-01 8.604190e-02 -1.934659e-01 -8.770895e-02
<VARIANCE> 25
 1.411446e+01 2.336994e+01 2.147376e+01 3.611217e+01 3.910983e+01 3.501765e+01 2.461142e+01 2.195739e+01 2.676149e+01 2.892869e+01 2.274049e+01 1.833202e+01 8.986490e-01 2.614669e+00 1.734022e+00 3.513582e+00 3.897716e+00 3.378591e+00 2.818248e+00 3.105273e+00 2.267447e+00 2.586613e+00 1.962734e+00 1.815459e+00 8.946571e-01
<GCONST> 9.493497e+01
<STATE> 4
<MEAN> 25
 -2.376487e+00 1.750207e+00 5.419161e+00 -5.666084e+00 -1.003117e+01 1.850827e+00 8.023941e+00 2.717458e+00 -2.240503e+00 1.132488e+00 2.312176e+00 -5.058872e-01 -9.442076e-02 5.903205e-02 1.719445e-01 -2.384617e-01 -9.662682e-02 -6.373407e-01 -3.003958e-01 -2.821156e-01 -2.748205e-01 -1.283062e-01 1.410665e-01 -6.472220e-02 1.908138e-01
<VARIANCE> 25
 6.744533e+01 8.281514e+01 8.066315e+01 6.767784e+01 5.676721e+01 6.930704e+01 4.656051e+01 2.553378e+01 3.894420e+01 3.103333e+01 3.008092e+01 3.059771e+01 1.761736e+00 2.260312e+00 2.708983e+00 1.941739e+00 3.737896e+00 3.166247e+00 2.731572e+00 2.775187e+00 2.034221e+00 2.394068e+00 1.905500e+00 1.357059e+00 6.568525e-01
<GCONST> 1.021117e+02
<TRANSP> 5
 0.000000e+00 1.000000e+00 0.000000e+00 0.000000e+00 0.000000e+00
 0.000000e+00 8.016391e-01 1.983609e-01 0.000000e+00 0.000000e+00
 0.000000e+00 0.000000e+00 7.058390e-01 2.941611e-01 0.000000e+00
 0.000000e+00 0.000000e+00 0.000000e+00 7.786201e-01 2.213799e-01
 0.000000e+00 0.000000e+00 0.000000e+00 0.000000e+00 0.000000e+00
<ENDHMM>
~h "ow"
<BEGINHMM>
<NUMSTATES> 5
<STATE> 2
<MEAN> 25
 -5.920029e+00 -9.171089e+00 1.506731e+01 -3.448512e+00 -7.735900e+00 5.081553e+00 4.139488e+00 -4.584624e-01 -6.444285e-01 -2.256104e+00 -2.631462e+00 1.588907e+00 4.483642e+00 3.598028e+00 -4.803310e+00 3.828868e-01 -8.480973e-01 -4.048480e+00 -6.848774e-01 9.802458e-01 1.547414e+00 -2.682655e+00 -8.921168e-01 -1.710234e+00 1.407836e+00
<VARIANCE> 25
 8.108907e+01 8.975185e+01 9.328661e+01 3.356702e+01 3.627206e+01 1.008783e+02 5.115126e+01 5.129225e+01 3.614214e+01 5.573018e+01 2.018698e+01 3.181082e+01 4.918813e+00 6.415726e+00 6.624324e+00 3.818279e+00 3.553334e+00 1.087122e+01 4.068572e+00 6.387340e+00 5.345939e+00 4.653375e+00 3.281609e+00 2.881667e+00 1.643081e+00
<GCONST> 1.125900e+02
<STATE> 3
<MEAN> 25
 5.358577e+00 3.194016e-02 4.429109e-01 -2.781449e+00 -7.854283e+00 -5.921760e+00 8.851063e-01 1.869622e+00 4.884883e+00 -7.457292e+00 -2.578487e+00 -3.557599e+00 1.757415e+00 2.065747e+00 -3.771995e+00 -3.783651e-01 1.037255e-01 -2.772402e+00 -1.385980e-01 1.685935e+00 1.576499e+00 -5.298065e-01 2.901648e-01 -1.017948e+00 3.467295e-01
<VARIANCE> 25
 6.163397e+00 2.591557e+01 1.839315e+01 4.440694e+01 3.593907e+01 3.880481e+01 3.361243e+01 4.760461e+01 3.644954e+01 5.259679e+01 3.396338e+01 1.040314e+01 3.290307e+00 3.240832e+00 6.717872e+00 3.164495e+00 2.105918e+00 5.148803e+00 2.642567e+00 3.745888e+00 1.457787e+00 3.335517e+00 1.202444e+00 1.959112e+00 1.715237e+00
<GCONST> 9.884738e+01
<STATE> 4
<MEAN> 25
 6.348876e+00 3.364862e+00 -4.038097e+00 -1.714359e+00 -8.391726e+00 -1.470651e+01 8.261218e-01 9.623247e+00 9.656586e+00 -7.097590e+00 -4.465917e+00 -5.151662e+00 2.160365e-01 9.349081e-01 -1.180118e+00 -1.609867e-01 1.472394e-01 -1.398837e+00 -1.887290e-02 9.523764e-01 2.345926e-01 7.071418e-01 1.906449e-01 -2.924901e-01 -5.205170e-01
<VARIANCE> 25
 3.208845e+00 1.192608e+01 1.101685e+01 3.491480e+01 3.194590e+01 5.866009e+01 3.020869e+01 6.366069e+01 3.444328e+01 3.314482e+01 1.949837e+01 1.182070e+01 5.095640e-01 1.087191e+00 2.032257e+00 1.662163e+00 1.167279e+00 2.209738e+00 1.299962e+00 2.095103e+00 1.924410e+00 1.596620e+00 6.916705e-01 9.586443e-01 4.150689e-01
<GCONST> 8.553024e+01
<TRANSP> 5
 0.000000e+00 1.000000e+00 0.000000e+00 0.000000e+00 0.000000e+00
 0.000000e+00 6.775754e-01 3.224246e-01 0.000000e+00 0.000000e+00
 0.000000e+00 0.000000e+00 3.088798e-01 6.911203e-01 0.000000e+00
 0.000000e+00 0.000000e+00 0.000000e+00 7.362804e-01 2.637196e-01
 0.000000e+00 0.000000e+00 0.000000e+00 0.000000e+00 0.000000e+00
<ENDHMM>
~h "sp"
<BEGINHMM>
<NUMSTATES> 5
<STATE> 2
<MEAN> 25
 7.278923e-09 7.736676e-09 -1.495757e-08 2.233321e-08 -7.517470e-09 -5.266098e-08 1.936748e-08 -7.220898e-10 -9.554795e-09 1.052188e-08 -1.655649e-08 4.951473e-09 6.015358e-02 6.638382e-02 2.298475e-02 2.413188e-02 -1.107854e-02 -3.401659e-02 1.583678e-04 -9.783696e-03 -2.136309e-02 1.551675e-03 -5.627133e-03 -1.547498e-02 2.045880e-02
<VARIANCE> 25
 4.803527e+01 5.134138e+01 1.048917e+02 8.752769e+01 7.417048e+01 9.790822e+01 6.581352e+01 5.741109e+01 4.161873e+01 3.817028e+01 4.535803e+01 3.419817e+01 1.987551e+00 2.560586e+00 3.462211e+00 3.613789e+00 3.504917e+00 4.697473e+00 3.161591e+00 3.037893e+00 2.555220e+00 2.460158e+00 2.358821e+00 1.905628e+00 2.295166e+00
<GCONST> 1.081165e+02
<STATE> 3
<MEAN> 25
 7.278923e-09 7.736676e-09 -1.495757e-08 2.233321e-08 -7.517470e-09 -5.266098e-08 1.936748e-08 -7.220898e-10 -9.554795e-09 1.052188e-08 -1.655649e-08 4.951473e-09 6.015358e-02 6.638382e-02 2.298475e-02 2.413188e-02 -1.107854e-02 -3.401659e-02 1.583678e-04 -9.783696e-03 -2.136309e-02 1.551675e-03 -5.627133e-03 -1.547498e-02 2.045880e-02
<VARIANCE> 25
 4.803527e+01 5.134138e+01 1.048917e+02 8.752769e+01 7.417048e+01 9.790822e+01 6.581352e+01 5.741109e+01 4.161873e+01 3.817028e+01 4.535803e+01 3.419817e+01 1.987551e+00 2.560586e+00 3.462211e+00 3.613789e+00 3.504917e+00 4.697473e+00 3.161591e+00 3.037893e+00 2.555220e+00 2.460158e+00 2.358821e+00 1.905628e+00 2.295166e+00
<GCONST> 1.081165e+02
<STATE> 4
<MEAN> 25
 7.278923e-09 7.736676e-09 -1.495757e-08 2.233321e-08 -7.517470e-09 -5.266098e-08 1.936748e-08 -7.220898e-10 -9.554795e-09 1.052188e-08 -1.655649e-08 4.951473e-09 6.015358e-02 6.638382e-02 2.298475e-02 2.413188e-02 -1.107854e-02 -3.401659e-02 1.583678e-04 -9.783696e-03 -2.136309e-02 1.551675e-03 -5.627133e-03 -1.547498e-02 2.045880e-02
<VARIANCE> 25
 4.803527e+01 5.134138e+01 1.048917e+02 8.752769e+01 7.417048e+01 9.790822e+01 6.581352e+01 5.741109e+01 4.161873e+01 3.817028e+01 4.535803e+01 3.419817e+01 1.987551e+00 2.560586e+00 3.462211e+00 3.613789e+00 3.504917e+00 4.697473e+00 3.161591e+00 3.037893e+00 2.555220e+00 2.460158e+00 2.358821e+00 1.905628e+00 2.295166e+00
<GCONST> 1.081165e+02
<TRANSP> 5
 0.000000e+00 1.000000e+00 0.000000e+00 0.000000e+00 0.000000e+00
 0.000000e+00 6.000000e-01 4.000000e-01 0.000000e+00 0.000000e+00
 0.000000e+00 0.000000e+00 6.000000e-01 4.000000e-01 0.000000e+00
 0.000000e+00 0.000000e+00 0.000000e+00 7.000000e-01 3.000000e-01
 0.000000e+00 0.000000e+00 0.000000e+00 0.000000e+00 0.000000e+00
<ENDHMM>
~h "uh"
<BEGINHMM>
<NUMSTATES> 5
<STATE> 2
<MEAN> 25
 5.291807e+00 5.053359e+00 1.393462e-01 3.613587e+00 2.834273e+00 -3.327337e+00 -1.431944e+00 -3.233202e+00 -3.591637e+00 -5.073447e+00 -9.902396e-01 -5.890647e+00 -3.267576e-01 6.745628e-01 4.365477e-01 -7.586942e-02 -7.527128e-01 -3.033593e-01 1.381483e-01 8.971363e-01 5.658183e-01 5.316426e-01 1.582034e-01 2.704147e-01 -7.146326e-01
<VARIANCE> 25
 1.316230e+01 3.525014e+01 2.121560e+01 3.742008e+01 3.527361e+01 9.792261e+01 3.736711e+01 4.295683e+01 3.613271e+01 3.916151e+01 3.357384e+01 4.179090e+01 5.880375e-01 1.706010e+00 1.344500e+00 2.326156e+00 2.489408e+00 4.236423e+00 2.640605e+00 2.935981e+00 2.675297e+00 2.286888e+00 2.324693e+00 2.208971e+00 6.276973e-01
<GCONST> 9.732223e+01
<STATE> 3
<MEAN> 25
 3.757830e+00 6.581853e+00 1.734771e+00 4.408076e+00 1.624917e+00 -4.202708e+00 -2.184480e+00 -1.558755e+00 -2.199918e+00 -3.332600e+00 -7.963350e-01 -4.449937e+00 -5.442902e-01 7.350348e-02 3.577279e-01 -1.290227e-03 -5.415815e-01 2.713836e-01 3.192719e-01 6.521996e-01 3.176949e-01 5.937430e-01 9.809504e-02 6.451321e-01 -7.589895e-01
<VARIANCE> 25
 1.280527e+01 2.672389e+01 2.499494e+01 3.483169e+01 2.953110e+01 8.180302e+01 3.521821e+01 2.394277e+01 2.601322e+01 3.022157e+01 2.028619e+01 3.466805e+01 2.871925e-01 1.778513e+00 8.420622e-01 1.596261e+00 1.896052e+00 3.136784e+00 2.022338e+00 2.357510e+00 2.053500e+00 1.701696e+00 1.600241e+00 1.630721e+00 3.888991e-01
<GCONST> 9.053613e+01
<STATE> 4
<MEAN> 25
 1.088746e+00 5.708571e+00 4.189293e+00 5.268355e+00 -1.507147e-01 -1.341007e+00 -9.422955e-01 -4.537705e-01 -1.379198e+00 -3.664825e-01 -1.410716e-01 -1.209301e+00 -6.871804e-01 -8.190082e-01 1.597380e-01 4.989900e-02 -2.336239e-01 5.909930e-01 5.654739e-01 5.246966e-01 1.113677e-01 5.199734e-01 1.463031e-01 6.198864e-01 -4.856073e-01
<VARIANCE> 25
 1.624235e+01 4.253934e+01 3.213761e+01 2.984782e+01 2.862505e+01 7.120108e+01 4.465258e+01 2.679052e+01 2.896780e+01 2.748769e+01 1.762164e+01 2.605559e+01 3.340093e-01 2.152694e+00 9.356421e-01 1.328063e+00 1.723760e+00 2.430416e+00 1.870191e+00 1.958250e+00 1.552476e+00 1.600567e+00 1.155088e+00 1.381656e+00 5.021661e-01
<GCONST> 9.017399e+01
<TRANSP> 5
 0.000000e+00 1.000000e+00 0.000000e+00 0.000000e+00 0.000000e+00
 0.000000e+00 5.164828e-01 4.835172e-01 0.000000e+00 0.000000e+00
 0.000000e+00 0.000000e+00 6.349906e-01 3.650094e-01 0.000000e+00
 0.000000e+00 0.000000e+00 0.000000e+00 7.960747e-01 2.039253e-01
 0.000000e+00 0.000000e+00 0.000000e+00 0.000000e+00 0.000000e+00
<ENDHMM>
~h "uw"
<BEGINHMM>
<NUMSTATES> 5
<STATE> 2
<MEAN> 25
 3.732365e+00 9.607409e+00 5.550529e+00 4.026219e+00 -1.624350e+00 -7.535957e+00 -2.674989e+00 6.456187e-01 2.858639e-03 -4.087200e+00 -3.662175e+00 -8.199750e+00 -1.777335e-01 -2.145849e-01 4.268736e-04 -1.671991e-01 -1.186838e-01 1.608500e-01 2.887154e-02 6.313908e-02 -1.742436e-02 1.562277e-01 3.851305e-02 3.132867e-01 -1.482586e-01
<VARIANCE> 25
 1.173483e+01 3.104216e+01 2.819223e+01 4.568003e+01 4.548905e+01 6.868355e+01 3.515789e+01 3.577510e+01 3.952808e+01 3.679953e+01 3.728124e+01 3.289022e+01 3.549247e-01 1.031573e+00 1.243504e+00 1.832946e+00 2.151763e+00 2.776861e+00 1.597070e+00 1.999020e+00 2.090470e+00 2.256179e+00 2.014490e+00 1.586055e+00 6.220211e-01
<GCONST> 9.358921e+01
<STATE> 3
<MEAN> 25
 2.248654e+00 6.870998e+00 4.610479e+00 2.290846e+00 -1.361446e+00 -4.313807e+00 -2.333127e+00 -9.111912e-01 -1.817348e+00 -3.307330e+00 -2.940774e+00 -4.665286e+00 -3.717977e-01 -7.652887e-01 -3.636661e-01 -3.443008e-01 7.240172e-02 7.289656e-01 2.245709e-01 -1.814746e-02 -1.541434e-01 2.546510e-01 2.482146e-01 9.108304e-01 -2.225522e-01
<VARIANCE> 25
 1.294709e+01 3.165310e+01 3.534364e+01 6.332837e+01 5.549600e+01 6.824366e+01 4.148899e+01 3.701197e+01 4.050000e+01 3.576316e+01 3.304594e+01 2.511099e+01 5.395074e-01 1.241282e+00 1.825613e+00 2.359014e+00 2.084260e+00 2.620423e+00 1.955008e+00 1.871127e+00 2.178093e+00 1.823407e+00 1.961343e+00 1.729578e+00 7.740294e-01
<GCONST> 9.564999e+01
<STATE> 4
<MEAN> 25
 6.693432e-01 3.895809e+00 3.259238e+00 2.999394e-01 -1.544384e+00 -2.590037e+00 -3.807701e+00 -2.329470e+00 -1.607434e+00 -1.451338e+00 -1.145269e+00 -6.684519e-01 -4.973095e-01 -1.030542e+00 -5.138496e-01 -3.112145e-01 4.441153e-02 7.861615e-01 2.540106e-01 2.410275e-01 2.642561e-01 4.795267e-01 3.371081e-01 9.369946e-01 -2.945150e-01
<VARIANCE> 25
 1.664946e+01 3.461174e+01 5.247310e+01 7.371088e+01 5.613817e+01 6.511193e+01 6.501550e+01 4.086372e+01 3.926677e+01 2.991861e+01 2.591968e+01 2.267244e+01 7.126622e-01 1.473339e+00 2.267771e+00 2.233371e+00 1.872395e+00 2.494939e+00 2.210602e+00 1.880940e+00 2.238599e+00 1.707469e+00 1.826320e+00 1.524541e+00 6.232126e-01
<GCONST> 9.662736e+01
<TRANSP> 5
 0.000000e+00 1.000000e+00 0.000000e+00 0.000000e+00 0.000000e+00
 0.000000e+00 7.877954e-01 2.122045e-01 0.000000e+00 0.000000e+00
 0.000000e+00 0.000000e+00 6.111493e-01 3.888507e-01 0.000000e+00
 0.000000e+00 0.000000e+00 0.000000e+00 6.498462e-01 3.501538e-01
 0.000000e+00 0.000000e+00 0.000000e+00 0.000000e+00 0.000000e+00
<ENDHMM>
~h "sil"
<BEGINHMM>
<NUMSTATES> 5
<STATE> 2
<MEAN> 25
 -8.674593e+00 -2.766670e+00 2.920846e+00 -3.066852e-01 -4.145835e+00 7.007915e+00 4.446441e+00 5.210264e+00 1.332252e+00 3.120806e+00 -2.898388e+00 3.397416e+00 1.550684e-01 -6.465045e-02 1.967354e-01 -2.309202e-02 -2.028760e-01 -3.825608e-02 3.826078e-02 -1.948603e-01 -2.945396e-01 -1.993236e-02 -4.035719e-04 7.647619e-02 1.650217e-01
<VARIANCE> 25
 2.821411e+01 7.685482e+01 5.280865e+01 5.649412e+01 4.913806e+01 5.665939e+01 6.196261e+01 4.045832e+01 3.684134e+01 3.222286e+01 3.162934e+01 2.543920e+01 1.995782e+00 2.922837e+00 1.880219e+00 2.260199e+00 2.226999e+00 2.276020e+00 3.118122e+00 2.125200e+00 2.019100e+00 1.942929e+00 1.850503e+00 1.611914e+00 1.340696e+00
<GCONST> 1.006352e+02
<STATE> 3
<MEAN> 25
 -5.313589e+00 -2.316790e+00 2.818888e+00 -4.254163e-01 -3.897267e+00 5.242588e+00 3.054879e+00 2.069658e+00 -5.323887e-01 2.355139e+00 -1.743049e+00 2.519655e+00 1.543829e+00 3.514689e-01 -2.896497e-01 8.709951e-02 4.808300e-01 -1.119684e+00 -5.863739e-01 -1.048358e+00 -5.418378e-01 -5.608052e-01 5.389314e-01 -4.890622e-01 1.674488e+00
<VARIANCE> 25
 3.359570e+01 5.647567e+01 5.973580e+01 7.597015e+01 6.695299e+01 7.314754e+01 6.772330e+01 5.835742e+01 4.694190e+01 4.378192e+01 4.441758e+01 3.641629e+01 4.944494e+00 7.535497e+00 5.935786e+00 7.376541e+00 6.286050e+00 7.455884e+00 7.892127e+00 5.778177e+00 4.459770e+00 4.445945e+00 4.466555e+00 3.191643e+00 4.718611e+00
<GCONST> 1.159709e+02
<STATE> 4
<MEAN> 25
 -5.193900e+00 -2.492023e-01 2.666409e+00 5.904318e-01 -3.133781e+00 3.889973e+00 3.010561e+00 2.561391e+00 -7.116842e-01 1.454779e+00 -1.941230e+00 1.394029e+00 1.454964e-01 1.972654e-01 -1.954951e-01 -1.425074e-01 3.237901e-01 -2.451509e-01 -1.392188e-01 -5.588567e-02 9.589314e-02 -2.018090e-01 1.162210e-01 -9.082980e-02 2.798620e-01
<VARIANCE> 25
 3.307648e+01 4.944643e+01 7.355727e+01 7.008555e+01 6.158245e+01 6.736977e+01 6.893298e+01 5.864447e+01 4.446879e+01 4.545282e+01 5.222926e+01 3.637942e+01 1.732095e+00 1.805363e+00 2.151799e+00 2.213444e+00 2.529508e+00 2.961576e+00 2.477989e+00 2.373454e+00 1.932416e+00 1.913167e+00 1.870298e+00 1.671512e+00 1.780657e+00
<GCONST> 1.032015e+02
<TRANSP> 5
 0.000000e+00 1.000000e+00 0.000000e+00 0.000000e+00 0.000000e+00
 0.000000e+00 5.229746e-01 4.770253e-01 0.000000e+00 0.000000e+00
 0.000000e+00 0.000000e+00 5.147035e-01 4.852965e-01 0.000000e+00
 0.000000e+00 0.000000e+00 0.000000e+00 5.854322e-01 4.145678e-01
 0.000000e+00 0.000000e+00 0.000000e+00 0.000000e+00 0.000000e+00
<ENDHMM>
